SVM-light Version V6.02
0 # kernel type
3 # kernel parameter -d 
1 # kernel parameter -g 
1 # kernel parameter -s 
1 # kernel parameter -r 
empty# kernel parameter -u 
3995 # highest feature index 
560 # number of training documents 
317 # number of support vectors plus 1 
-0.13254949 # threshold b, each following line is a SV (starting with alpha*y)
-0.0034894674382873795 93:1 460:2 606:1 653:1 663:1 681:1 804:1 832:1 1315:1 1512:1 1624:1 1625:2 1658:1 1723:1 1759:1 1821:1 1880:1 2061:1 2087:1 2091:1 2134:1 2289:1 2296:1 2521:1 2563:1 2658:1 2703:3 2717:1 2796:1 2890:1 2946:1 2983:2 3216:1 3321:2 3365:1 3492:2 3555:1 3564:1 3612:1 3717:1 3813:1 3834:1 3844:1 3961:1 #
0.0086792393120540493 126:1 315:1 438:1 458:1 504:2 581:1 681:1 698:1 713:2 849:1 1023:0 1040:1 1128:1 1183:1 1186:1 1289:2 1305:1 1308:1 1356:1 1448:1 1662:1 1741:1 1759:4 1766:1 1771:1 1791:1 1881:1 1944:3 1956:1 1971:1 2149:1 2181:1 2197:1 2317:3 2570:1 2576:1 2610:1 2721:1 2807:1 2917:1 2962:1 2974:1 2983:1 3030:1 3111:1 3210:1 3333:1 3365:4 3398:1 3541:1 3550:2 3820:1 3834:4 3843:1 #
-0.0086792393120540493 245:1 367:1 432:2 433:1 474:1 541:1 551:1 646:1 681:1 713:1 770:1 771:1 817:1 825:2 964:1 1005:1 1410:1 1585:1 1618:1 1723:2 1736:3 1759:2 1956:1 2035:1 2045:1 2112:1 2215:1 2418:1 2443:1 2512:1 2520:1 2563:1 2610:2 2983:1 3002:1 3020:1 3042:1 3124:2 3145:1 3223:1 3239:1 3271:1 3320:1 3365:2 3528:2 3550:2 3644:1 3677:1 3834:1 3878:1 3920:2 3926:1 3942:1 3961:1 #
-0.0086792393120540493 187:1 220:1 282:1 361:1 427:2 429:1 473:1 568:1 579:1 681:1 812:1 817:1 846:1 849:1 961:1 1308:2 1356:1 1448:1 1485:1 1563:1 1579:1 1599:1 1610:1 1658:1 1687:1 1716:1 1757:1 1759:3 1769:1 1857:1 2069:1 2101:1 2108:1 2263:1 2289:1 2317:1 2344:1 2368:1 2449:2 2598:1 2610:1 2635:2 2703:1 2891:1 2931:1 2951:1 3112:1 3352:1 3365:2 3550:1 3613:1 3663:1 3665:1 3666:1 3676:1 3834:4 3837:1 3850:1 3863:1 3917:1 3952:1 #
-0.0086792393120540493 126:1 131:1 251:2 336:1 460:1 511:1 534:1 540:1 644:1 681:1 713:1 733:1 787:1 859:1 867:1 983:1 1008:1 1109:1 1393:1 1479:1 1590:1 1637:1 1718:1 1759:3 1817:1 1888:1 1912:1 2006:1 2140:2 2243:1 2346:1 2353:1 2368:1 2482:1 2527:1 2541:1 2700:1 2702:1 2831:1 2917:1 2983:4 3042:2 3078:1 3087:1 3112:1 3115:1 3357:1 3520:1 3550:2 3555:1 3581:1 3813:1 3834:2 #
0.0086792393120540493 181:1 258:1 285:1 379:1 381:1 458:1 681:1 699:1 876:1 1113:1 1289:1 1308:1 1583:1 1589:1 1704:1 1718:1 1759:2 2112:2 2368:1 2703:1 2831:1 2983:2 3112:2 3137:1 3284:1 3365:1 3373:1 3454:1 3581:1 3614:1 3825:1 3834:2 #
0.0041443941853335029 220:2 251:1 462:1 534:1 681:2 723:1 725:1 772:1 851:1 964:1 1104:1 1349:1 1491:1 1605:1 1759:3 1954:1 2197:1 2287:1 2580:1 2783:1 2784:1 2917:1 2983:1 3111:1 3112:1 3299:1 3365:1 3428:1 3554:1 3562:1 3627:1 3834:6 3898:2 #
0.0086792393120540493 175:1 427:1 681:2 1023:1 1233:2 1466:1 1625:1 1759:1 1844:1 1902:1 1971:1 2101:1 2657:2 2822:1 3137:1 3210:1 3284:1 3538:1 3614:1 #
0.0086792393120540493 220:1 222:2 368:1 394:1 681:1 1184:2 1366:1 1448:1 1605:1 1759:4 2112:1 2610:1 2764:1 2811:1 2983:2 3357:1 3365:1 3550:1 3834:1 #
0.0053953768780984832 108:1 228:1 231:1 245:1 260:1 312:1 488:1 568:1 656:1 681:3 757:1 769:1 846:1 950:1 1067:1 1128:1 1202:1 1221:1 1308:1 1338:1 1454:1 1579:1 1625:1 1652:1 1689:1 1728:1 1759:3 1962:1 1971:1 1996:1 2090:1 2134:1 2280:1 2287:2 2394:2 2398:1 2420:3 2568:1 2610:1 2614:1 2627:1 2871:1 2917:1 2931:2 2983:3 3083:1 3094:1 3112:2 3115:1 3119:1 3146:1 3176:1 3181:1 3202:1 3296:1 3298:1 3308:1 3365:1 3417:1 3550:1 3634:2 3650:1 3741:1 3825:1 3863:1 3876:2 3884:1 3959:1 #
-0.0086792393120540493 183:1 225:1 228:1 477:1 659:1 681:2 1040:1 1289:1 1308:1 1759:3 1888:1 2101:1 2363:2 2482:1 2610:1 2614:1 3282:1 3365:1 3825:1 #
-0.0086792393120540493 131:1 189:2 213:1 222:1 334:1 681:2 729:1 846:1 1005:1 1049:1 1167:1 1184:1 1277:1 1356:1 1452:1 1456:1 1637:1 1759:2 1867:1 1944:1 2087:1 2101:1 2134:1 2215:1 2236:1 2263:1 2344:1 2368:1 2534:1 2610:4 2640:1 2784:1 2803:1 2825:1 3178:1 3216:1 3320:1 3365:1 3399:1 3491:1 3550:3 3568:1 3622:2 3842:1 3961:1 #
-0.0086792393120540493 228:1 245:1 259:1 335:1 359:1 394:1 534:1 562:1 681:4 806:1 919:1 929:1 963:1 1223:1 1308:1 1345:1 1448:1 1487:1 1759:2 1793:1 1980:1 2061:1 2151:1 2204:1 2249:1 2255:1 2396:1 2586:1 2610:1 2755:1 2928:1 2931:1 2983:1 3111:1 3112:1 3137:1 3171:1 3203:1 3310:1 3550:1 3616:1 3820:1 3850:1 #
-0.0086792393120540493 252:1 681:2 821:1 929:1 1112:1 1306:1 1579:2 1637:1 1659:1 1662:4 1759:3 1801:1 1832:1 1944:1 2337:1 2420:1 2481:1 2663:1 2703:1 2782:1 2897:1 2961:1 2974:3 3002:1 3042:1 3112:1 3357:1 3642:1 3875:1 #
-0.0086792393120540493 228:1 409:1 414:1 723:1 772:1 1759:2 2296:1 2745:1 2755:1 3112:1 3133:1 3343:1 3365:2 #
0.0086792393120540493 52:1 103:1 259:1 260:1 303:1 312:2 368:1 381:2 414:1 426:1 432:1 447:1 473:1 521:1 568:1 588:1 663:2 670:1 681:1 772:1 806:1 851:2 874:1 950:1 1005:1 1148:1 1361:2 1374:2 1536:1 1579:2 1585:3 1662:2 1704:1 1726:1 1759:1 1856:1 1916:1 1983:1 2034:1 2061:2 2112:1 2151:1 2263:1 2293:1 2317:1 2344:2 2363:1 2368:3 2464:1 2585:1 2609:2 2610:4 2812:3 2871:1 2929:1 2962:1 2974:3 2983:6 3042:1 3140:1 3216:2 3298:1 3328:1 3365:1 3369:1 3448:1 3538:1 3554:2 3616:1 3638:1 3701:1 3773:1 3813:5 3834:10 3850:1 3877:1 3952:1 #
0.0044633794280837819 136:1 142:1 223:2 228:1 252:1 285:1 346:1 367:1 369:1 414:2 432:2 460:1 541:1 568:2 646:1 663:1 681:2 723:2 772:2 775:1 812:1 817:1 950:2 979:1 1005:1 1023:2 1113:1 1148:1 1207:1 1233:1 1240:1 1277:1 1287:2 1305:2 1326:1 1338:1 1491:1 1605:1 1609:1 1637:1 1694:1 1759:4 1771:1 1785:3 1821:2 1921:1 2005:1 2054:1 2061:1 2087:1 2091:1 2161:1 2209:1 2222:1 2225:2 2263:1 2290:1 2344:2 2368:1 2396:1 2546:1 2553:1 2566:1 2631:1 2696:1 2778:1 2782:1 2785:1 2871:1 2983:3 3042:1 3067:1 3093:1 3125:1 3189:1 3216:1 3227:1 3279:1 3293:1 3342:1 3365:3 3488:1 3550:2 3554:1 3581:3 3600:1 3642:1 3644:1 3652:1 3676:1 3813:1 3834:10 3843:1 3851:1 3863:1 #
0.0079976570815041507 156:1 182:1 198:2 202:1 278:1 321:1 438:1 446:1 552:1 635:1 681:4 772:1 806:1 818:1 876:1 877:1 885:1 910:1 1023:2 1127:1 1192:1 1225:1 1233:1 1323:1 1349:1 1361:1 1368:1 1374:5 1376:1 1466:1 1490:1 1491:1 1620:1 1625:1 1637:1 1704:1 1714:1 1736:1 1739:1 1759:6 1838:2 1900:1 1916:1 1936:1 2033:1 2038:1 2045:1 2049:1 2061:5 2082:1 2087:1 2112:1 2124:1 2162:2 2209:1 2240:1 2250:1 2253:1 2286:1 2368:1 2396:1 2443:1 2448:1 2460:1 2484:2 2498:1 2531:1 2563:1 2602:1 2610:1 2665:1 2725:1 2741:1 2755:1 2812:1 2911:1 2917:1 2983:7 3042:2 3083:1 3088:1 3112:1 3224:1 3320:1 3365:4 3373:1 3505:1 3542:1 3550:2 3554:1 3581:1 3613:1 3777:1 3813:1 3825:1 3834:4 3849:1 3898:1 3909:1 #
-0.0075646808373036082 429:1 460:1 653:1 663:2 723:2 874:1 964:1 979:1 1023:1 1305:1 1430:1 1504:1 2098:1 2100:1 2344:1 2448:1 2464:1 2946:1 2983:3 3112:2 3420:1 3613:1 3624:1 3773:1 3834:3 #
-0.0051856462743057148 30:1 46:1 88:1 432:1 438:1 473:1 676:1 681:2 870:1 1056:3 1083:1 1128:2 1165:1 1184:1 1292:1 1370:1 1529:1 1605:1 1759:3 2005:1 2048:1 2066:1 2091:1 2098:1 2100:1 2134:1 2160:1 2204:1 2263:2 2368:2 2464:2 2484:1 2493:1 2527:1 2653:1 2700:1 2703:1 2786:1 2787:1 2822:1 2983:2 3022:1 3112:1 3198:1 3266:2 3365:2 3398:1 3504:1 3550:1 3562:1 3574:1 3614:2 3813:2 3820:2 3834:9 3837:1 3863:2 3977:1 #
-0.0086792393120540493 245:1 301:1 432:3 599:1 612:1 653:1 1119:2 1303:1 1323:1 1370:1 1373:1 1625:1 1686:1 1722:1 1759:1 1942:1 1952:1 1956:1 1957:1 2035:1 2082:1 2091:1 2124:1 2243:1 2550:1 2703:1 2718:1 2780:1 2786:1 2983:3 3203:1 3364:1 3376:1 3453:1 3623:1 3634:1 3820:1 3850:1 #
-0.0060246028116835194 4:1 10:1 139:1 142:1 218:1 251:1 259:1 277:1 312:1 330:2 342:1 394:1 427:1 438:1 478:1 504:1 510:1 538:1 568:2 603:1 680:1 681:1 698:1 730:1 740:1 794:1 806:1 874:1 929:1 950:2 964:2 1005:1 1023:0 1048:1 1056:1 1113:1 1207:1 1221:1 1323:1 1374:1 1376:2 1385:1 1539:1 1625:1 1718:2 1759:4 1769:1 1821:1 1859:1 1875:2 1883:1 1902:1 1912:1 1931:1 2026:1 2030:1 2061:2 2068:1 2087:1 2090:1 2091:2 2112:1 2120:3 2216:1 2263:2 2289:1 2338:1 2344:1 2363:1 2448:2 2602:1 2635:1 2657:1 2782:1 2788:1 2799:1 2871:1 2917:1 2931:1 2983:3 3020:1 3111:1 3112:1 3119:1 3282:2 3342:2 3365:3 3562:1 3594:1 3599:1 3634:1 3834:16 3837:1 3898:1 #
0.0027955892543457595 114:2 220:1 292:1 432:1 723:1 727:1 770:1 772:2 774:1 867:1 892:1 979:1 1273:1 1339:1 1491:1 1579:1 1583:1 1739:1 1759:2 1771:1 2035:1 2095:2 2363:1 2448:1 2508:1 2561:1 2610:1 2658:1 2871:1 2946:1 2983:1 3112:2 3342:1 3357:1 3365:2 3550:1 3761:1 3786:3 3820:1 3964:1 #
0.001742220817940548 173:1 342:1 355:1 367:2 504:1 521:1 550:1 629:1 681:2 769:1 797:1 919:1 929:1 964:1 1094:1 1128:2 1239:1 1240:1 1281:1 1349:1 1355:1 1411:1 1479:1 1561:1 1637:2 1714:1 1723:1 1738:2 1759:2 1771:1 1893:1 1973:1 2087:1 2091:1 2134:1 2151:1 2209:1 2249:1 2311:1 2338:1 2408:1 2420:1 2443:1 2466:1 2778:1 2956:1 3112:1 3284:1 3317:1 3365:1 3373:1 3428:2 3616:1 3780:1 3867:1 3932:1 3959:2 3990:2 #
0.0086792393120540493 338:1 389:1 603:1 947:1 950:1 1292:1 1380:1 1652:1 1921:2 2091:1 2092:1 2101:1 2151:1 2280:1 2566:1 2576:1 2823:1 3310:1 3342:1 3373:1 3538:1 3761:1 3810:1 3834:1 3876:1 #
0.00052196417006680166 747:1 794:1 963:1 1202:1 1277:1 1308:1 1605:1 1684:1 1759:2 2091:2 2280:1 2344:1 2703:1 3342:1 3365:1 3944:2 3956:1 #
0.0086792393120540493 126:1 155:1 342:1 568:1 631:1 679:1 681:1 718:1 845:1 855:1 1060:1 1177:1 1704:2 1723:2 1758:1 1759:1 2091:1 2151:1 2338:1 2448:1 2631:1 2946:1 3330:1 3616:1 3644:1 3797:1 3813:1 #
-0.0086792393120540493 379:1 429:1 432:1 681:1 713:0 770:1 1128:1 1167:1 1365:1 1585:1 1662:1 1759:2 1785:1 1875:1 1944:1 1957:1 2061:1 2101:1 2108:1 2151:2 2363:1 2368:1 2379:0 2482:1 2598:1 2610:1 2809:1 2812:2 2983:2 3192:1 3203:1 3216:1 3236:1 3365:1 3411:1 3450:1 3494:1 3550:1 3644:1 3813:1 3879:1 #
-0.0086792393120540493 198:1 245:1 414:1 467:1 770:1 790:1 926:1 945:1 950:1 1023:1 1056:1 1413:1 1579:1 2059:2 2453:1 2737:1 2823:1 2928:1 2983:1 3020:1 3035:1 3365:1 3550:1 3554:1 3813:1 #
-0.0086792393120540493 174:1 259:1 434:1 681:1 692:1 772:1 979:1 1260:1 1736:1 1759:3 1921:1 2061:1 2101:1 2280:1 2699:1 2931:1 2983:1 3068:1 3199:1 3365:1 3412:1 3607:1 3724:1 3786:1 3813:1 #
-0.0086792393120540493 59:1 108:1 145:1 152:1 157:1 227:1 250:1 271:1 274:1 394:1 681:1 698:1 713:2 770:1 791:1 845:1 1016:1 1029:1 1081:1 1137:1 1193:1 1233:1 1263:1 1348:1 1374:1 1422:1 1434:1 1483:2 1501:1 1539:1 1562:1 1579:1 1594:1 1625:2 1637:1 1689:1 1704:1 1759:5 1793:1 1854:1 2082:1 2091:2 2134:1 2151:1 2160:1 2209:1 2379:3 2448:1 2484:1 2492:1 2625:1 2786:3 2807:1 2831:1 2931:1 2983:2 3092:1 3147:1 3148:1 3202:1 3266:1 3280:1 3342:1 3365:1 3387:1 3495:1 3543:1 3550:2 3614:1 3622:1 3642:2 3735:1 3863:1 #
-0.0086792393120540493 97:1 216:2 681:1 762:2 770:2 1448:1 1759:1 2204:1 2610:1 2658:1 2983:1 3112:2 3365:1 3441:1 3450:1 3478:1 3550:1 3728:1 3813:1 3851:1 #
-0.0086792393120540493 53:1 109:1 370:1 396:1 432:1 434:1 438:2 460:1 521:2 534:1 550:1 588:1 634:1 681:1 740:1 760:1 772:1 794:1 861:1 874:1 997:1 1023:1 1044:1 1056:1 1113:1 1125:1 1128:1 1226:1 1305:1 1308:1 1326:2 1448:2 1484:1 1513:1 1645:1 1738:1 1759:1 1944:1 1950:1 2017:1 2151:1 2245:1 2257:1 2263:1 2462:1 2540:1 2572:1 2755:1 2932:1 2983:2 3365:1 3428:2 3663:1 3773:1 3834:3 3851:1 3862:1 3867:1 3878:1 #
0.0086792393120540493 70:1 181:1 218:2 220:1 258:1 330:1 335:1 411:1 438:1 444:1 521:2 534:1 601:1 620:1 663:1 681:2 723:1 740:1 748:1 771:1 841:1 850:1 874:1 898:1 910:1 950:2 956:1 1005:1 1323:1 1434:1 1448:1 1450:1 1585:1 1695:1 1708:1 1717:1 1759:5 1771:1 1843:1 1875:2 1946:1 1952:1 2001:1 2087:1 2106:1 2112:2 2140:1 2191:1 2192:1 2243:1 2293:1 2296:1 2504:1 2563:1 2566:1 2602:1 2662:1 2722:1 2778:1 2831:1 2865:1 2931:1 2962:1 2973:1 2983:2 3042:1 3111:1 3145:1 3205:1 3228:1 3257:1 3301:1 3310:1 3321:1 3342:2 3349:1 3357:1 3365:4 3370:2 3379:1 3427:1 3613:1 3644:1 3711:1 3761:1 3825:1 3834:10 3879:1 3920:3 3955:1 #
0.00036866198689811748 161:1 175:1 220:1 381:1 432:1 460:1 500:1 723:1 747:1 985:1 1005:1 1113:1 1125:1 1167:1 1229:1 1277:1 1346:1 1376:1 1448:2 1491:2 1534:1 1579:1 1605:2 1684:1 1695:1 1704:1 1736:1 1756:1 1838:1 1856:1 1874:1 1875:1 2061:1 2087:1 2148:1 2184:1 2206:1 2299:1 2363:1 2420:1 2556:1 2709:1 2783:1 2917:1 2931:1 2951:1 2983:4 3112:1 3203:1 3239:1 3284:1 3286:1 3298:1 3342:3 3365:1 3550:1 3587:2 3600:1 3638:1 3773:1 3813:3 3825:1 3834:12 3837:1 3841:1 3843:2 3850:1 3863:1 3898:1 3944:1 3973:1 #
0.0086792393120540493 126:1 251:1 285:2 427:2 458:1 473:1 629:1 681:1 713:1 752:1 945:1 1030:1 1254:1 1276:1 1308:1 1366:1 1396:1 1411:1 1424:1 1448:1 1491:1 1574:1 1579:3 1613:1 1625:1 1635:1 1637:1 1759:4 1771:1 1856:1 1868:1 1903:1 1914:1 2061:2 2082:1 2087:1 2091:3 2100:1 2160:1 2170:1 2260:1 2338:1 2339:1 2363:2 2448:1 2483:1 2484:1 2537:1 2550:1 2566:1 2576:1 2610:1 2688:1 2755:1 2778:1 2931:1 2983:4 3112:3 3235:1 3299:1 3365:2 3454:1 3493:1 3550:1 3581:1 3600:1 3607:1 3813:1 3834:10 3964:1 #
-0.0086792393120540493 74:1 109:1 258:1 285:1 534:1 681:1 1052:1 1081:1 1346:1 1356:1 1585:1 1718:1 1759:3 2248:1 2263:1 2464:2 2527:1 2740:1 2831:1 2871:2 2983:2 3112:1 3298:1 3365:2 3550:1 3600:1 3834:2 3963:1 #
-0.0086792393120540493 3:1 4:1 82:1 142:1 187:1 216:1 315:1 361:2 396:1 429:1 432:1 460:1 512:1 763:1 812:1 950:2 979:1 982:1 1020:1 1023:0 1124:1 1211:1 1226:1 1305:1 1308:1 1491:1 1662:1 1759:1 1893:1 1979:1 2256:1 2344:1 2493:1 2665:1 2676:1 2700:1 2745:1 2869:1 2961:1 2974:1 3101:1 3230:1 3279:1 3342:1 3353:1 3365:2 3384:1 3546:1 3550:1 3555:1 3695:1 3714:1 3773:1 3813:1 3834:5 3850:1 3852:1 3879:1 3921:1 3952:2 #
0.0086792393120540493 41:1 58:1 61:1 218:1 245:1 259:2 394:1 521:1 568:2 629:2 770:1 797:1 800:2 873:1 1040:1 1195:1 1255:2 1399:1 1411:1 1434:1 1479:2 1579:1 1605:1 1637:1 1759:3 1766:1 2069:1 2098:1 2101:1 2289:1 2344:1 2368:1 2610:1 2614:1 2619:1 2730:1 2831:1 2983:1 3112:1 3155:1 3192:1 3284:1 3516:1 3550:2 3563:1 3581:1 3773:1 3813:1 3850:1 3867:1 3928:1 3952:1 3989:1 #
0.0086792393120540493 172:1 331:2 338:1 381:1 412:1 414:1 427:1 432:1 436:1 438:1 504:1 541:1 593:1 603:1 605:1 644:1 681:1 746:1 770:1 794:1 806:1 881:1 921:1 929:1 947:1 970:1 973:1 985:1 1023:0 1040:1 1044:1 1071:1 1110:1 1124:1 1133:1 1141:1 1145:1 1185:1 1239:1 1308:1 1366:1 1374:1 1401:1 1411:1 1557:1 1563:1 1609:1 1731:1 1759:2 1871:1 1901:1 1907:1 1920:1 1957:1 1961:1 2051:1 2058:1 2068:1 2080:1 2087:1 2151:2 2166:1 2188:1 2216:2 2330:1 2344:0 2398:1 2420:1 2448:2 2523:1 2550:1 2602:2 2732:1 2752:1 2780:1 2920:1 2933:1 2983:2 3008:1 3077:1 3096:1 3155:1 3167:1 3198:1 3268:1 3365:1 3454:1 3491:1 3517:1 3534:1 3555:1 3579:1 3619:1 3684:1 3769:1 3793:1 3843:1 3848:1 3863:1 3867:1 3944:1 3956:1 3985:1 #
0.0036266164745698596 59:1 74:1 114:1 220:3 273:1 282:1 414:1 427:2 432:1 579:1 610:1 680:1 681:3 698:1 719:1 728:1 851:1 877:1 905:1 1009:1 1044:2 1071:1 1202:1 1355:1 1376:1 1396:1 1483:1 1563:1 1583:1 1594:1 1637:1 1759:7 1776:1 1832:1 2021:1 2061:1 2076:1 2087:1 2101:3 2134:1 2140:1 2144:1 2151:1 2166:2 2208:1 2243:1 2280:3 2338:1 2344:1 2448:1 2626:1 2703:1 2807:1 2822:1 2931:1 2983:4 3093:1 3133:1 3215:1 3266:2 3267:1 3279:1 3287:1 3292:1 3310:1 3344:1 3365:1 3417:1 3512:1 3579:1 3614:2 3652:1 3663:2 3768:1 3834:0 3863:2 3867:1 3928:1 #
-0.0043805901042311916 258:1 275:1 285:1 314:1 359:1 379:1 396:1 409:1 432:1 434:2 460:1 500:1 532:1 539:1 681:2 713:2 751:1 827:1 926:1 1102:1 1128:1 1208:1 1273:1 1285:1 1305:1 1308:1 1348:1 1407:1 1424:1 1449:1 1491:2 1520:1 1637:2 1759:8 1771:2 1944:2 2045:1 2059:1 2101:1 2114:1 2134:1 2151:2 2258:1 2340:1 2344:1 2379:1 2398:1 2432:1 2443:1 2453:1 2464:1 2484:1 2665:1 2703:1 2755:2 2778:2 2800:1 2831:1 2858:1 2869:1 2983:4 3020:1 3112:4 3139:1 3235:1 3365:1 3409:1 3422:1 3429:1 3449:1 3478:1 3494:1 3550:6 3642:1 3660:1 3820:1 3850:1 3867:1 3926:1 3927:2 3955:1 3977:1 #
-0.0086792393120540493 41:1 113:1 147:1 149:1 163:1 245:1 270:1 283:1 285:1 355:1 394:1 504:1 681:1 723:1 794:1 845:1 929:1 950:1 1030:1 1128:1 1305:1 1308:1 1617:1 1625:2 1759:1 1766:1 1771:1 1867:1 1890:1 1916:2 1956:1 1980:1 2046:1 2064:1 2091:2 2134:1 2280:1 2409:1 2420:1 2443:1 2448:1 2462:1 2548:1 2573:1 2576:1 2687:1 2717:1 2721:1 2729:1 2778:1 2821:1 2869:1 2871:1 2872:2 2983:3 2996:1 3080:1 3112:4 3266:1 3301:1 3593:1 3613:1 3614:1 3634:1 3796:1 3815:1 3863:1 #
-0.0086792393120540493 31:1 66:1 70:1 86:1 153:1 173:1 189:2 285:1 342:1 355:1 358:1 359:1 549:2 606:1 653:1 681:5 702:1 715:1 740:1 826:1 885:1 1052:1 1060:1 1151:1 1306:1 1351:1 1491:1 1605:1 1662:1 1689:1 1693:1 1700:1 1759:6 1967:2 2049:1 2082:2 2091:1 2101:1 2150:1 2160:1 2227:1 2235:1 2248:2 2280:1 2368:1 2448:1 2462:1 2475:1 2527:1 2683:1 2707:1 2799:1 2960:2 2962:1 2983:4 3281:2 3310:1 3357:1 3505:2 3520:1 3634:1 3700:1 3726:1 3761:1 3789:1 3813:2 3820:1 #
-0.0084259634284593356 126:1 262:1 473:1 614:1 663:1 715:1 758:1 766:1 863:1 986:2 1029:1 1183:1 1249:1 1343:1 1504:1 1668:1 1759:3 1789:1 1813:2 1903:1 1994:1 2106:1 2151:1 2197:1 2204:1 2272:1 2289:1 2410:1 2463:2 2476:1 2484:1 2802:1 2917:1 2951:1 3002:2 3102:1 3112:1 3133:1 3188:1 3343:1 3365:3 3493:2 3581:1 3637:1 3708:2 3713:1 3834:0 3867:1 3875:1 3964:1 #
0.0077182587092506673 108:1 109:1 126:1 161:1 228:2 245:1 285:1 351:1 354:1 355:2 473:2 568:2 599:1 658:1 681:4 685:1 701:1 723:1 794:1 798:1 823:1 824:1 845:2 855:1 867:3 923:2 970:1 1060:1 1083:1 1102:1 1128:4 1136:1 1146:2 1147:1 1151:1 1180:1 1197:1 1226:3 1270:2 1291:1 1308:1 1339:1 1340:1 1356:1 1357:1 1404:1 1442:1 1454:1 1456:1 1479:1 1568:1 1589:1 1625:1 1637:1 1776:1 1888:6 1892:1 1965:1 1970:1 2030:1 2045:1 2054:1 2061:1 2082:1 2091:1 2101:1 2151:1 2157:1 2167:1 2183:3 2184:2 2199:1 2358:1 2396:1 2401:1 2448:1 2462:2 2469:3 2527:1 2550:3 2576:1 2610:2 2614:2 2635:1 2642:1 2675:1 2687:1 2688:1 2703:3 2706:1 2735:2 2808:1 2873:1 2877:1 2896:1 2915:1 2962:3 2970:1 2983:4 3039:1 3041:1 3115:1 3132:1 3150:0 3154:1 3176:1 3180:1 3279:1 3365:3 3377:1 3421:1 3428:1 3505:1 3567:1 3578:1 3581:1 3596:1 3608:1 3628:1 3630:3 3634:2 3680:1 3747:1 3773:3 3834:7 3882:1 3911:1 3952:1 #
0.0033640508382059061 175:1 245:1 379:1 409:1 504:1 514:1 541:1 568:1 577:1 681:2 713:1 723:1 806:1 827:1 853:1 1005:1 1023:0 1089:1 1117:1 1149:1 1183:1 1260:2 1277:1 1292:1 1357:1 1434:1 1479:2 1536:3 1548:1 1576:1 1579:1 1585:2 1605:1 1609:1 1645:1 1704:1 1714:1 1759:2 1766:1 1785:2 1821:1 1944:1 1983:1 2068:1 2082:1 2098:1 2106:1 2124:1 2151:1 2263:2 2286:1 2287:1 2338:2 2363:1 2484:1 2594:1 2609:1 2610:1 2614:1 2628:1 2721:1 2784:1 2812:3 2911:1 2983:2 3039:1 3189:2 3202:1 3301:1 3352:2 3365:1 3457:1 3539:1 3550:1 3554:1 3562:1 3586:1 3640:1 3644:1 3773:1 3777:1 3813:3 3834:9 3853:1 3928:1 3992:1 #
0.0086792393120540493 206:1 220:1 429:1 681:2 740:1 950:1 1029:1 1273:1 1277:1 1308:1 1356:1 1448:1 1579:1 1599:1 1637:1 1723:1 1987:1 2227:1 2363:1 2374:1 2420:1 2484:1 2527:1 2580:1 2610:1 2849:1 2931:1 2962:1 2983:1 3813:1 3834:2 3843:1 3865:1 #
-0.0078708960364894231 126:1 198:1 207:1 228:1 245:1 252:1 285:1 408:1 429:2 504:2 629:2 681:1 690:1 833:1 935:1 948:1 1005:1 1008:1 1023:1 1079:1 1292:2 1306:1 1308:1 1339:1 1356:1 1411:2 1585:1 1759:4 1870:1 1891:1 1971:1 2015:1 2045:1 2054:1 2098:1 2190:1 2339:1 2396:1 2534:1 2782:1 2855:1 2865:1 2925:1 2930:1 2983:1 3002:2 3025:1 3042:1 3235:1 3342:1 3357:1 3365:1 3445:1 3459:1 3587:1 3602:1 3634:2 3773:1 3786:2 3813:7 3825:1 3834:10 3867:1 3875:1 3878:1 3941:1 3952:2 3963:1 #
0.0029039144016564616 43:1 53:1 285:1 344:1 357:1 412:1 432:1 458:1 484:1 504:1 516:1 521:1 625:1 663:1 740:1 752:1 772:1 845:1 851:1 898:1 950:1 1193:1 1233:1 1249:1 1306:1 1411:1 1466:1 1585:1 1605:2 1608:1 1740:1 1759:6 1776:1 1798:1 1811:1 1832:2 2061:2 2091:1 2151:1 2223:1 2344:1 2349:1 2363:1 2484:1 2504:1 2563:1 2586:2 2635:1 2657:1 2729:1 2812:1 2931:1 2983:2 3078:1 3119:1 3267:1 3365:3 3493:3 3550:2 3554:1 3562:1 3621:1 3773:1 3813:1 3834:2 3964:1 #
-0.0086792393120540493 249:1 336:1 427:2 457:1 504:1 541:1 568:3 663:1 681:2 730:1 833:1 937:1 993:1 1005:1 1077:1 1113:1 1167:1 1207:1 1305:1 1308:1 1343:1 1522:1 1579:1 1605:3 1662:1 1687:1 1688:1 1714:1 1759:3 2082:2 2206:5 2241:1 2363:1 2527:1 2538:1 2550:1 2610:2 2626:0 2703:1 2779:1 2855:1 2951:1 2983:4 3002:1 3112:1 3203:2 3239:1 3282:1 3339:1 3365:3 3464:1 3478:1 3562:1 3581:1 3600:2 3660:1 3763:1 3789:1 3813:4 3834:8 3850:1 3963:1 #
-0.0046994892414092913 72:1 94:1 123:1 276:1 343:1 412:1 432:1 434:1 460:1 467:1 515:1 568:1 578:1 681:2 700:1 964:1 1023:1 1185:1 1241:1 1305:2 1339:1 1344:1 1345:1 1448:1 1490:1 1512:1 1579:1 1602:1 1645:1 1749:2 1759:2 1806:1 1829:1 1944:2 1987:1 1991:1 2061:2 2087:1 2124:1 2139:1 2190:1 2243:1 2261:1 2287:2 2356:1 2368:1 2396:1 2464:1 2466:2 2671:1 2786:2 2865:1 2929:1 2931:1 2946:1 2983:2 3037:1 3115:1 3172:1 3189:1 3235:1 3301:1 3310:1 3349:1 3359:1 3365:2 3428:1 3457:1 3516:1 3550:1 3581:1 3600:1 3644:2 3711:1 3813:1 3820:1 3834:10 #
0.0086792393120540493 143:1 216:1 521:1 653:2 760:1 797:1 950:1 1001:1 1023:0 1167:1 1338:1 1339:1 1376:1 1616:1 1717:1 1723:1 1736:1 1759:2 2030:1 2061:2 2083:1 2087:1 2134:1 2171:1 2196:1 2293:1 2780:1 3112:2 3145:1 3264:1 3365:2 3474:1 3506:1 3550:1 3834:1 3850:1 3921:1 3952:1 #
0.0086792393120540493 29:1 82:1 198:1 220:1 283:1 460:1 549:1 588:1 681:1 768:1 963:1 1277:1 1375:1 1490:2 1759:4 1809:1 2101:1 2112:1 2290:1 2352:1 2614:1 2703:2 2922:1 3112:1 3277:1 3342:1 3352:2 3365:1 3834:1 3837:1 3979:1 #
0.0086792393120540493 427:1 681:2 1491:1 1744:1 1759:4 2101:1 2134:1 2287:1 2580:1 2755:1 2831:1 2983:1 3112:1 3298:1 3365:1 3550:1 3825:1 3920:1 #
-0.0086792393120540493 83:1 187:1 271:1 458:1 594:1 636:4 641:1 681:2 887:1 929:1 950:1 961:1 1052:1 1128:1 1263:1 1289:1 1352:1 1374:2 1513:1 1689:1 1735:1 1759:1 1799:1 1861:1 1871:1 1892:1 2061:3 2101:3 2134:2 2396:1 2610:1 2658:1 2703:1 2983:1 3112:1 3266:2 3277:1 3320:1 3347:1 3365:1 3433:1 3550:2 3586:1 3614:1 3728:1 3820:1 3843:1 3863:1 3964:1 3965:1 #
-0.0086792393120540493 218:1 262:1 285:1 342:1 458:1 681:1 1308:1 1448:1 1578:1 1759:3 1839:1 2030:1 2045:1 2160:1 2703:1 2822:1 2928:1 3230:1 3342:1 3365:2 3581:1 3606:1 3834:1 3962:1 #
-0.0086792393120540493 114:1 129:1 258:1 330:1 896:1 945:1 979:1 1123:1 1308:1 1566:1 1668:1 1759:2 1776:1 2059:1 2061:1 2101:2 2112:1 2209:1 2291:1 2363:1 2368:1 2396:1 2443:1 2482:1 2658:1 2785:1 2831:1 3342:1 3365:2 3550:1 3813:1 3834:1 3843:1 3898:1 #
-0.0086792393120540493 108:1 316:1 335:1 355:1 565:1 681:1 715:1 893:1 926:1 1040:1 1100:1 1109:1 1226:1 1289:1 1333:1 1352:1 1384:1 1408:1 1420:1 1594:1 1596:1 1635:1 1698:1 1711:1 1735:1 1736:1 1749:1 1759:3 1803:1 1861:1 1907:1 2034:1 2089:1 2129:1 2134:1 2140:1 2184:1 2299:1 2301:1 2344:1 2462:1 2464:1 2493:1 2515:1 2523:1 2550:1 2622:1 2623:1 2812:4 2931:1 2946:1 2948:1 2983:2 3070:1 3111:1 3203:1 3365:1 3416:1 3427:1 3478:2 3500:1 3550:1 3554:1 3610:1 3644:1 3650:1 3654:1 3657:1 3803:1 3834:1 3846:1 #
0.00048626957895422262 132:1 163:1 228:1 251:1 301:1 425:1 429:2 432:2 527:1 551:1 629:1 663:1 681:3 723:1 747:2 787:1 845:1 990:1 1113:1 1181:2 1183:1 1218:1 1250:1 1254:1 1297:1 1338:1 1376:1 1387:1 1405:1 1411:2 1491:1 1546:1 1579:1 1585:1 1605:1 1609:1 1659:1 1688:1 1704:2 1717:1 1759:3 1808:1 1809:1 1817:1 1818:1 1856:1 1944:1 1957:2 2061:2 2091:1 2112:1 2134:2 2280:1 2344:1 2368:1 2398:1 2443:1 2449:2 2510:1 2524:1 2566:1 2602:1 2651:1 2665:2 2693:1 2783:2 2822:1 2824:1 2831:1 2869:1 2907:1 2917:1 2951:2 2983:1 3060:1 3207:1 3214:1 3267:1 3342:1 3365:1 3441:1 3449:1 3493:2 3550:3 3580:1 3581:1 3650:1 3756:2 3773:2 3813:2 3825:2 3834:12 3850:2 3956:1 3970:1 3975:1 #
-0.0044274851613243914 24:1 367:1 414:1 432:1 460:1 521:1 551:1 713:1 834:1 876:1 1175:1 1205:1 1402:1 1507:1 1513:1 1585:1 1648:1 1660:1 1714:1 1723:2 1738:1 1759:2 1971:1 2108:1 2289:1 2293:2 2420:1 2427:1 2482:1 2550:1 2563:1 2703:1 2720:1 2799:1 3039:1 3041:1 3155:1 3209:1 3216:1 3282:1 3343:1 3365:1 3411:1 3428:1 3454:1 3550:2 3554:1 3555:1 3581:1 3600:1 3834:2 3844:1 3857:1 3950:1 #
0.0086792393120540493 562:1 723:1 979:2 1125:1 1490:1 1491:1 1579:1 1583:1 1987:1 2082:1 2508:1 2635:1 2657:1 2707:1 2812:1 2831:1 2931:1 2983:1 3342:1 3365:1 3441:1 3616:1 3800:1 3801:1 3820:1 3825:1 3834:4 3879:1 3964:1 #
-0.0028892824239495031 126:1 142:2 172:1 212:1 245:1 251:1 262:2 266:1 322:1 338:2 367:1 429:1 432:1 588:2 601:2 635:1 681:1 698:1 702:1 713:1 765:1 788:1 794:2 856:1 966:1 986:1 1005:1 1008:1 1066:1 1102:1 1141:2 1168:2 1191:1 1263:2 1308:2 1342:1 1392:1 1428:1 1435:1 1438:1 1444:1 1539:1 1550:1 1554:2 1558:1 1579:1 1585:1 1605:1 1614:1 1627:1 1651:1 1661:1 1716:1 1730:1 1759:2 1790:1 1806:1 1944:1 1956:1 1961:2 1980:2 1985:1 2163:1 2171:1 2216:2 2270:1 2301:1 2317:1 2335:1 2349:1 2356:1 2363:1 2364:1 2368:2 2420:2 2453:1 2532:1 2548:1 2602:10 2610:3 2623:1 2627:1 2637:1 2642:1 2656:1 2799:1 2903:1 2983:2 3008:1 3097:1 3105:1 3115:2 3198:1 3216:1 3252:1 3342:1 3348:1 3365:2 3383:1 3403:1 3438:1 3542:1 3550:6 3554:1 3562:1 3608:1 3642:1 3644:1 3695:1 3773:1 3783:1 3813:1 3834:9 3843:2 3867:1 3975:1 3987:1 #
-0.00067669768157138167 127:1 251:1 265:1 301:1 312:1 323:1 355:1 429:3 432:2 455:1 582:1 647:1 681:1 723:1 886:1 1027:1 1028:1 1056:1 1226:1 1243:1 1305:1 1310:1 1404:1 1479:1 1569:2 1637:1 1753:1 1759:4 1771:1 1832:1 1916:1 1921:1 2087:1 2136:1 2196:1 2338:2 2344:2 2479:2 2484:1 2621:1 2636:1 2722:1 2911:1 2917:1 2931:1 2983:3 3030:1 3101:1 3216:1 3280:1 3365:3 3402:1 3450:1 3454:1 3550:2 3581:3 3594:1 3825:1 3834:9 3837:1 3838:1 3920:1 #
0.0086792393120540493 110:1 245:1 261:1 330:1 359:2 458:2 568:1 681:3 1128:1 1233:1 1286:1 1305:1 1306:1 1448:1 1484:1 1678:1 1759:2 2151:2 2206:2 2253:1 2287:1 2396:1 2553:1 2778:1 3112:1 3538:1 3550:1 3644:1 #
-0.0081808364673301576 301:1 429:1 458:1 681:1 698:1 964:1 1005:1 1023:1 1060:1 1233:1 1346:1 1625:1 1759:3 1771:1 1785:1 1793:1 1956:1 2001:1 2248:1 2253:1 2414:1 2448:1 2469:1 2508:1 2527:1 2722:1 2871:1 2917:3 2962:1 2983:4 3202:1 3236:1 3365:1 3479:1 3550:1 3554:1 3581:2 3834:4 3850:1 3909:1 3946:1 #
0.0086792393120540493 245:1 285:2 427:1 458:2 681:1 717:1 829:1 918:1 970:1 985:1 1128:1 1301:1 1483:1 1513:1 1625:1 1723:2 1759:3 1767:2 1914:1 1944:1 2049:1 2091:1 2094:1 2101:1 2134:2 2356:1 2516:2 2711:1 2716:1 2778:1 2884:1 2931:1 2983:1 3116:1 3145:1 3365:3 3428:1 3445:1 3550:1 3642:1 #
0.0061308373361081032 126:1 212:1 220:1 258:1 259:1 285:1 319:1 342:1 365:1 432:1 681:1 772:1 1074:1 1128:1 1308:1 1396:1 1403:1 1448:1 1588:1 1605:2 1718:1 1759:4 2090:1 2091:1 2101:1 2111:1 2160:1 2448:1 2484:1 2831:1 2871:1 2931:1 2983:1 3112:1 3199:1 3203:1 3365:2 3478:2 3550:1 3677:2 3924:1 #
0.0086792393120540493 172:3 220:1 228:1 258:1 770:1 772:1 929:1 979:1 1233:1 1308:1 1759:3 1944:1 2101:1 2160:1 2363:1 2420:2 2610:2 2822:1 2831:1 2871:1 2983:1 3042:1 3112:1 3365:2 3813:1 3834:1 3878:1 #
0.0086792393120540493 342:1 425:1 458:2 525:1 681:2 723:1 891:1 1083:1 1260:1 1349:1 1355:2 1356:1 1491:1 1504:1 1759:2 1766:1 1832:1 1952:1 2001:1 2005:1 2091:2 2101:1 2160:1 2280:1 2336:1 2368:1 2448:1 2601:1 2703:1 2983:3 3079:1 3210:1 3342:1 3365:2 3478:1 3614:1 3813:2 3820:1 3834:9 3837:1 3843:1 3944:1 #
0.0086792393120540493 82:1 126:1 301:1 308:1 325:1 342:1 367:1 374:1 394:1 427:1 432:1 458:1 467:1 504:1 552:1 588:1 681:2 757:2 878:1 964:1 979:1 1023:1 1113:1 1153:1 1205:1 1233:1 1361:1 1548:1 1558:1 1609:1 1619:1 1662:2 1695:1 1704:1 1718:1 1749:1 1759:5 1766:1 1813:1 1821:1 1925:1 1950:1 1951:1 1965:1 2045:1 2076:1 2098:1 2160:1 2263:1 2339:1 2368:1 2420:1 2443:1 2453:1 2566:1 2643:1 2821:2 2831:1 2871:1 2917:1 2931:1 2946:1 2962:1 2974:2 2983:2 3080:1 3105:1 3112:1 3210:1 3216:1 3342:1 3365:1 3517:1 3550:2 3581:1 3600:1 3753:1 3820:1 3834:6 3837:1 3853:1 3898:1 #
-0.0086792393120540493 198:2 245:1 432:2 493:1 504:1 532:1 606:1 663:1 681:1 768:1 881:1 1003:1 1005:1 1056:1 1308:1 1339:1 1416:2 1466:2 1491:1 1548:1 1558:1 1624:1 1637:1 1642:1 1759:3 1766:1 1769:1 1806:2 1965:1 2101:3 2160:2 2262:1 2323:1 2484:1 2540:1 2550:1 2580:2 2703:1 2812:1 2871:1 2946:1 2962:1 2980:1 2983:2 3042:1 3142:2 3277:1 3284:1 3365:1 3384:1 3550:2 3581:1 3600:1 3773:1 3813:2 3834:3 3846:1 3920:2 3982:1 #
-0.0086792393120540493 20:1 222:1 258:1 381:1 414:1 599:2 914:1 1052:1 1056:1 1184:1 1305:1 1326:1 1396:1 1434:1 1455:1 1585:1 1704:1 1759:1 2263:1 2290:1 2378:1 2398:1 2527:1 2610:1 2831:1 2983:2 3002:1 3112:1 3283:1 3365:1 3550:1 3586:1 3600:1 3789:1 3834:1 3837:1 3876:1 3920:1 #
-0.0060952894640051505 139:1 170:1 239:1 251:1 272:1 296:1 475:1 564:1 668:1 717:1 755:1 805:1 900:1 964:1 1149:1 1450:1 1526:1 1702:1 1714:1 1730:1 1759:3 1944:1 2007:1 2030:1 2061:2 2101:1 2103:1 2156:1 2349:1 2417:1 2448:2 2576:1 2610:2 2657:1 2722:1 2746:1 2747:1 2772:1 2974:1 3049:1 3089:1 3239:3 3373:1 3517:1 3676:1 3817:1 3834:6 3843:1 3866:1 3867:1 3928:1 3947:1 #
0.0086792393120540493 209:2 250:1 310:1 312:1 429:1 460:1 558:1 568:2 681:1 770:3 970:1 977:1 1023:1 1308:1 1379:1 1710:2 1759:2 1785:1 1870:1 2112:1 2184:1 2295:1 2297:1 2356:1 2786:1 2931:1 3298:1 3321:1 3342:1 3365:1 3435:1 3550:2 3581:1 3594:2 3644:2 3834:2 3850:1 3879:2 3944:2 #
0.0038158306393503687 126:1 629:1 681:3 692:1 986:1 1029:1 1128:2 1185:1 1241:1 1276:1 1315:1 1411:1 1491:1 1540:1 1637:2 1759:2 2087:1 2091:1 2111:1 2515:1 2562:1 2610:1 2657:1 2694:1 2983:3 3111:1 3384:1 3416:1 3428:1 3478:1 3500:1 3550:2 3820:1 3825:1 #
0.0086792393120540493 110:1 359:1 433:1 521:1 723:1 979:1 1479:1 1485:1 1769:1 2071:1 2627:1 2983:1 3342:2 3365:1 3454:1 3834:1 #
-0.0086792393120540493 173:1 216:1 444:1 460:2 642:1 681:3 762:1 979:1 1059:1 1660:1 1735:1 1741:1 1759:1 1799:1 1861:1 1921:2 2061:1 2101:1 2112:1 2493:1 2550:1 2610:1 2983:1 3042:1 3279:1 3342:1 3365:3 3528:1 3550:1 3644:1 3813:1 3834:1 3879:1 #
-0.0086792393120540493 149:1 338:1 414:1 606:1 727:1 959:1 1233:1 1605:1 1688:1 1912:1 2005:1 2143:1 2344:1 2351:2 2368:1 2521:1 2821:1 2917:1 2983:2 3112:1 3342:1 3663:1 3676:1 3834:1 3844:1 #
-0.0086792393120540493 360:1 867:1 970:1 1052:1 1532:1 1785:1 2983:1 3002:1 3266:1 3342:1 3365:2 3679:1 3834:2 3879:1 #
0.0086792393120540493 92:1 96:1 142:1 213:1 245:1 319:1 414:1 421:1 427:1 432:1 444:1 460:1 467:1 478:1 587:1 588:1 606:1 610:1 620:1 663:1 681:2 816:1 820:1 825:1 899:1 946:1 982:1 1023:0 1044:1 1113:1 1156:1 1205:1 1220:1 1240:1 1326:1 1334:1 1361:1 1375:2 1392:1 1426:1 1428:1 1434:2 1574:1 1575:1 1579:2 1585:4 1600:1 1605:2 1609:1 1624:1 1637:1 1650:1 1693:1 1759:2 1776:2 1944:2 2029:1 2030:1 2049:1 2054:1 2061:1 2082:1 2083:1 2101:1 2134:1 2270:1 2363:1 2377:1 2439:1 2523:1 2563:1 2566:5 2602:1 2610:2 2614:2 2650:1 2657:2 2700:1 2956:1 2983:4 3035:1 3039:1 3042:2 3142:2 3203:1 3235:1 3357:1 3382:1 3410:1 3428:2 3474:2 3475:1 3481:1 3500:1 3550:1 3555:2 3581:2 3584:1 3587:1 3592:1 3600:1 3650:1 3696:1 3726:1 3804:1 3825:1 3834:19 3844:1 3863:1 3898:1 3927:1 3938:1 3946:1 3947:1 #
0.0086792393120540493 220:1 414:1 723:1 963:1 971:1 1579:1 1759:1 1944:1 1967:1 2248:1 2627:1 2633:1 2829:1 2983:2 3112:1 3203:1 3321:1 3365:2 3813:3 3820:1 3834:6 3843:1 3878:1 #
-0.0086792393120540493 118:1 301:1 414:1 467:1 663:1 681:1 739:1 776:1 810:1 825:1 945:1 1044:1 1056:1 1119:1 1289:1 1345:1 1374:1 1448:1 1479:1 1579:2 1642:1 1759:2 1766:1 1957:1 2147:1 2151:1 2225:1 2420:1 2484:1 2495:1 2594:1 2898:1 2917:1 2921:1 2931:1 2983:2 3310:1 3454:1 3550:4 3594:1 3600:1 3655:1 3790:1 3834:7 3879:1 3920:2 #
-0.0086792393120540493 29:2 69:1 312:1 412:1 458:1 540:1 551:1 601:1 642:1 653:1 681:2 825:1 898:1 953:1 999:1 1128:1 1167:1 1205:1 1323:1 1558:1 1759:2 2035:1 2368:1 2448:1 2493:1 2602:1 2831:1 2844:1 2950:1 2983:3 3230:1 3243:1 3343:1 3365:2 3550:1 3600:1 3613:1 3655:1 3666:1 3813:1 3820:1 3834:6 3878:1 3951:1 3952:1 #
0.0086792393120540493 52:1 82:2 109:1 222:3 432:1 521:1 568:1 663:1 681:1 752:1 797:1 924:1 950:2 1005:2 1023:1 1067:1 1183:1 1184:3 1233:1 1237:1 1400:1 1404:1 1411:1 1420:1 1479:1 1574:1 1579:1 1676:1 1703:1 1759:6 1867:1 1957:2 1993:1 1999:1 2004:1 2034:1 2278:1 2344:1 2363:3 2484:1 2566:1 2764:1 2812:3 2871:1 2917:1 2931:1 2983:6 3070:1 3202:1 3203:3 3365:2 3428:1 3550:3 3581:2 3644:1 3663:1 3773:1 3820:1 3825:1 3834:4 3862:1 3879:1 3921:1 3948:1 3952:3 3957:1 3964:1 #
0.0075759227632193771 120:1 161:1 167:1 193:1 209:1 212:1 228:1 355:1 429:1 430:1 432:2 495:1 502:1 681:1 702:1 738:1 740:1 760:1 769:1 772:1 844:1 876:1 919:1 1023:1 1139:1 1201:1 1208:1 1258:1 1289:1 1374:1 1376:1 1548:1 1595:1 1644:1 1645:1 1723:2 1759:1 1767:1 1768:1 1785:1 1909:1 2030:1 2045:1 2054:1 2061:2 2123:1 2134:1 2151:1 2203:1 2280:1 2293:1 2344:2 2473:1 2493:1 2516:1 2614:1 2755:1 2756:1 2798:1 2822:1 2887:1 2895:1 2983:3 3020:1 3080:1 3112:1 3279:1 3538:1 3554:1 3581:1 3650:1 3652:1 3774:1 3777:2 3786:1 3834:2 3867:1 3908:1 #
-0.0084216003744619679 107:2 185:1 187:1 190:2 206:1 269:1 285:1 301:1 336:1 346:1 421:1 568:1 617:1 681:1 777:1 806:1 842:1 910:2 924:2 1005:1 1023:1 1030:1 1052:1 1122:1 1184:1 1233:1 1239:1 1270:1 1374:1 1385:1 1512:1 1517:1 1749:1 1759:8 1957:2 2001:1 2058:1 2069:1 2087:1 2098:1 2122:1 2144:1 2151:1 2339:1 2344:1 2363:1 2411:1 2434:1 2448:1 2487:1 2503:1 2563:1 2575:1 2691:1 2755:1 2780:1 2823:1 2894:2 2911:1 2931:1 2983:5 3192:1 3230:1 3235:1 3342:1 3365:2 3465:1 3644:1 3698:1 3703:1 3813:2 3816:1 3820:1 3825:1 3834:9 3837:1 3862:2 3863:1 3872:2 3879:2 3901:1 3920:1 3960:2 #
-0.00063226017786504891 110:1 173:1 212:1 216:1 245:1 312:1 341:1 367:1 429:1 458:1 504:2 510:1 549:1 568:1 607:1 658:1 659:1 663:3 681:1 713:2 730:1 766:3 845:1 929:3 956:1 964:1 1005:3 1023:0 1120:1 1128:1 1144:1 1167:1 1221:1 1277:1 1305:1 1308:1 1330:1 1356:1 1374:2 1491:1 1504:1 1570:1 1579:2 1585:3 1624:1 1625:1 1714:1 1759:7 1802:1 1817:1 1903:1 1967:2 2076:1 2083:1 2091:1 2101:2 2124:1 2151:3 2193:1 2289:2 2363:2 2364:1 2405:1 2411:1 2508:2 2550:2 2627:1 2700:1 2703:1 2812:2 2946:1 2962:2 2978:1 2983:3 3088:1 3112:2 3128:1 3257:1 3279:1 3320:1 3365:5 3554:1 3562:1 3581:1 3586:2 3637:1 3642:1 3644:1 3734:1 3751:1 3773:2 3813:1 3825:3 3834:6 3850:2 3867:2 3884:1 #
0.0086792393120540493 140:1 429:1 458:1 548:1 681:1 1149:1 1181:1 1202:1 1246:1 1304:1 1548:1 1839:1 2160:1 2232:1 2280:1 2610:1 2983:1 3301:1 3330:1 3500:1 3576:1 3786:1 3813:2 3834:2 3879:1 #
0.0086792393120540493 114:1 444:1 460:1 1605:1 1759:1 1955:1 2098:1 2365:1 2610:1 2733:1 3199:1 3342:1 3365:2 3384:1 3550:1 3555:1 3567:1 3581:2 3616:1 3834:2 3920:1 #
-0.0086792393120540493 245:1 258:1 301:1 432:1 458:1 473:1 635:1 636:1 681:1 692:5 698:1 772:1 1023:1 1040:2 1185:1 1260:1 1349:1 1352:1 1491:2 1650:1 1759:3 1767:1 1771:1 1785:1 1856:1 1952:1 1971:1 2091:1 2144:1 2196:1 2448:1 2462:4 2504:1 2783:1 2807:1 2817:1 2822:1 2931:3 2983:1 3189:1 3198:1 3365:1 3478:1 3550:3 3555:1 3581:1 3587:1 3634:1 3650:1 3834:5 3850:2 #
-0.0086792393120540493 3:1 29:1 114:1 172:2 388:1 432:2 615:1 681:1 868:1 1308:1 1349:1 1434:1 1585:1 1642:1 1957:1 2448:1 2702:1 2780:1 2821:1 2917:1 2983:2 3203:2 3365:1 3528:1 3532:1 3834:1 #
-0.0086792393120540493 126:1 163:1 219:1 458:1 616:1 646:1 681:1 1023:0 1308:1 1374:1 1490:1 1634:1 1662:1 1759:2 2083:1 2108:1 2317:1 2576:1 2799:1 2831:1 2916:1 2974:1 3035:1 3042:1 3292:1 3352:1 3365:1 3550:1 3834:3 3952:1 3979:1 #
-0.0086792393120540493 109:1 258:1 414:1 432:1 437:1 516:1 663:1 681:1 695:1 770:1 845:1 956:1 964:1 1046:1 1233:1 1485:1 1490:1 1558:1 1563:1 1579:1 1759:1 1910:1 1912:1 1942:1 1944:2 1952:1 1962:1 2073:1 2101:1 2313:2 2368:1 2442:1 2464:1 2610:1 2831:1 2969:1 2983:1 3007:1 3041:1 3238:1 3239:1 3295:1 3347:1 3365:1 3386:1 3550:1 3592:1 3834:1 #
0.0086792393120540493 109:1 114:0 121:1 156:1 259:1 330:1 429:1 656:1 671:1 681:1 791:1 970:1 979:2 1113:1 1167:1 1308:1 1315:1 1376:1 1380:2 1466:1 1635:1 1759:5 1793:1 2030:1 2061:1 2098:1 2101:1 2134:2 2225:1 2287:2 2344:1 2368:1 2642:1 2677:1 2722:1 2780:1 2812:1 2983:3 3020:1 3042:1 3112:1 3284:1 3292:1 3365:4 3428:0 3457:1 3550:2 3581:1 3627:1 3644:2 3834:4 3843:2 3879:1 3944:2 3985:2 #
0.0086792393120540493 338:1 530:1 635:1 681:2 965:1 1078:1 1376:1 1491:1 1662:1 1718:1 1759:5 1815:1 1817:1 2225:1 2442:3 2443:1 2626:1 2822:1 2823:1 2831:1 3342:2 3554:1 3773:1 3810:1 3834:7 3867:1 3876:3 3961:1 #
-0.0086792393120540493 4:1 11:1 142:1 181:1 248:1 370:1 396:1 407:1 429:1 593:1 681:1 944:1 970:1 1023:0 1040:1 1051:1 1052:1 1056:2 1143:1 1243:1 1280:1 1309:1 1331:1 1338:1 1341:1 1344:1 1374:1 1443:1 1448:1 1513:1 1564:1 1605:2 1689:1 1704:1 1729:1 1759:6 1785:1 1805:1 2061:1 2069:1 2078:1 2083:1 2091:1 2101:1 2134:1 2150:1 2160:1 2197:1 2241:1 2283:1 2316:1 2398:1 2427:1 2434:1 2449:1 2540:1 2574:1 2610:1 2804:1 2811:1 2831:1 2951:2 3066:1 3184:1 3239:1 3290:1 3292:1 3306:1 3320:1 3343:1 3352:2 3365:2 3442:1 3454:1 3491:1 3550:4 3813:1 3825:1 3834:6 3857:1 3876:1 3949:1 3973:1 3979:1 #
-0.0083913718051216567 110:1 126:1 147:1 245:1 250:1 361:1 414:1 438:1 458:1 477:1 484:1 529:1 549:1 568:1 606:1 641:1 663:1 681:1 713:1 832:1 867:1 926:1 964:1 979:1 990:1 999:1 1042:1 1150:1 1228:1 1277:1 1305:1 1323:1 1466:1 1528:1 1539:1 1625:1 1635:1 1723:1 1728:1 1750:1 1759:5 1767:1 1771:1 1820:1 1832:1 2061:1 2098:1 2101:2 2134:1 2293:1 2368:1 2394:1 2443:1 2466:1 2481:1 2493:1 2494:1 2516:1 2566:2 2568:1 2610:1 2657:1 2665:1 2703:1 2708:1 2804:1 2831:1 2887:1 2915:1 2931:1 2951:1 2983:3 3143:1 3193:1 3228:1 3292:1 3298:1 3320:1 3349:1 3365:2 3420:1 3439:1 3550:2 3581:2 3634:1 3644:1 3786:1 3813:1 3820:1 3834:7 3843:1 3844:1 3850:1 3867:1 3870:1 3875:2 3927:1 3963:1 #
-0.0086792393120540493 105:1 142:1 228:1 260:1 285:1 460:1 810:1 1023:1 1060:1 1102:1 1305:1 1491:1 1579:2 1625:2 1650:1 1704:1 1759:6 2061:1 2101:1 2106:1 2210:1 2344:1 2420:1 2598:1 2663:1 2703:1 2741:1 2755:1 2778:1 2782:1 2911:1 2927:1 3112:1 3284:1 3342:2 3365:2 3550:2 3555:1 3701:1 3790:1 3813:3 3834:6 3875:1 #
-0.008227255063126224 163:1 266:1 285:1 359:1 414:1 432:1 481:1 606:1 647:1 717:1 723:2 727:2 740:1 865:1 1120:1 1168:1 1215:1 1348:1 1434:2 1448:1 1512:1 1563:2 1579:1 1648:1 1714:1 1759:2 1848:1 1871:1 1912:1 2068:1 2087:1 2091:1 2151:1 2272:1 2280:1 2356:1 2363:2 2393:1 2418:1 2533:1 2742:1 2783:1 2869:2 2931:1 2946:1 2983:3 3112:1 3133:1 3147:1 3155:1 3343:1 3365:1 3550:4 3581:2 3738:1 3797:1 3813:1 3820:1 3834:7 3838:1 3912:1 #
0.0086792393120540493 72:1 109:1 167:1 228:1 285:1 315:1 355:2 367:1 405:1 568:1 681:3 723:1 772:1 803:1 824:1 825:2 831:1 835:1 964:1 986:1 1056:1 1248:1 1273:2 1736:2 1759:2 1893:1 1902:1 1944:1 1997:1 2134:1 2424:1 2448:1 2619:1 2756:1 2822:1 2917:2 2923:1 2983:3 3365:2 3834:2 3851:1 3931:1 3932:1 #
0.008465352249472596 298:1 381:1 432:2 438:1 447:1 511:1 647:1 663:2 681:2 730:1 772:1 986:1 1005:1 1044:1 1192:1 1233:2 1277:1 1585:1 1782:1 1838:1 1944:1 1976:1 2112:1 2196:1 2363:1 2368:1 2831:1 2904:1 2917:1 2929:1 2946:1 2962:1 2983:3 3112:1 3137:2 3155:1 3168:2 3216:1 3241:1 3369:1 3581:1 3587:1 3613:1 3652:1 3660:2 3813:1 3820:1 3834:1 3838:1 3851:1 3928:1 #
0.0055645003652427319 41:1 126:1 228:1 355:1 568:1 629:1 681:3 717:2 956:1 1040:1 1241:1 1323:1 1332:1 1351:1 1370:1 1399:1 1523:1 1728:1 1759:4 1766:1 1832:1 1844:1 1888:1 1937:1 1995:1 2091:1 2134:1 2140:1 2151:1 2243:1 2338:1 2363:1 2405:1 2420:1 2462:1 2466:1 2504:1 2527:1 2588:1 2657:1 2799:1 2812:1 2931:1 2951:1 3097:1 3112:1 3145:1 3365:1 3474:1 3550:2 3608:1 3692:1 3789:1 3822:1 3825:1 3875:1 #
-0.0073192540865784552 4:1 285:1 301:1 342:1 379:1 663:1 790:1 800:1 950:1 1024:1 1305:1 1326:1 1345:1 1479:2 1585:1 1759:1 1771:1 1893:1 2101:1 2289:1 2291:1 2484:1 2550:1 2576:1 2725:1 2783:1 2831:1 2983:1 3189:1 3230:1 3317:1 3342:1 3365:1 3550:1 3581:1 3606:1 3642:1 3773:1 3834:5 3860:1 3921:1 3956:1 #
-0.0086792393120540493 109:1 231:4 251:1 301:1 367:1 379:1 470:1 504:1 540:2 591:1 608:1 681:2 873:1 902:1 948:4 950:2 1108:2 1308:1 1555:4 1558:1 1689:2 1759:1 1766:1 1875:1 2034:1 2057:1 2112:1 2290:1 2368:1 2434:1 2448:1 2504:1 2917:1 2960:1 2983:1 3216:1 3320:1 3321:1 3432:1 3492:1 3517:1 3554:2 3581:1 3616:1 3644:1 3834:1 3843:1 3850:1 3979:1 #
-0.0086792393120540493 165:1 681:1 961:1 979:1 1066:1 1221:1 1326:1 1759:1 1921:1 2101:2 2363:1 2983:1 3002:1 3365:1 3875:1 #
-0.0086792393120540493 120:1 250:1 429:1 460:1 595:1 652:1 681:1 716:1 747:1 768:1 838:1 970:1 1002:1 1023:1 1044:1 1104:2 1339:1 1362:1 1479:1 1513:1 1605:1 1625:1 1637:1 1645:1 1647:1 1662:1 1710:1 1759:2 1766:1 1772:2 1950:1 1954:1 2061:1 2091:1 2197:1 2209:1 2233:1 2287:1 2289:1 2368:1 2464:1 2571:1 2610:1 2639:1 2649:1 2871:1 2953:1 2983:3 3042:1 3112:1 3239:1 3365:2 3486:1 3581:1 3820:1 3837:1 3850:1 3903:1 #
0.0086792393120540493 258:1 285:2 381:1 663:1 718:1 723:1 1005:1 1259:1 1349:1 1490:1 1609:1 1759:4 2061:1 2101:1 2112:1 2134:1 2280:1 2363:2 2420:1 2563:1 2730:1 2831:2 2925:1 2962:1 2983:3 3000:1 3301:1 3342:1 3365:1 3493:1 3550:2 3600:1 3608:2 3637:1 3729:1 3813:2 3834:8 3952:1 #
0.0086792393120540493 82:1 109:1 206:1 220:1 394:1 400:1 568:2 588:1 956:1 962:1 982:1 1023:0 1040:1 1102:1 1104:1 1113:1 1355:2 1448:1 1466:1 1637:1 1651:1 1723:1 1759:7 1767:1 1844:1 2037:1 2061:1 2094:1 2101:1 2112:1 2144:1 2206:1 2260:1 2349:1 2420:1 2469:1 2482:1 2516:1 2580:1 2657:1 2812:1 2931:1 2983:3 3042:1 3342:1 3365:2 3474:1 3479:1 3550:3 3554:2 3581:1 3634:1 3834:7 3932:1 3952:1 3970:1 #
0.0086792393120540493 414:1 432:1 1192:1 1585:1 1609:1 1659:2 1691:1 1759:2 1856:1 1985:1 2161:1 2484:1 2568:1 2626:1 2632:1 2755:1 2784:1 2983:1 3125:1 3262:1 3365:1 3426:1 3550:1 3600:1 3613:1 3813:2 3834:7 3843:1 3851:1 #
0.0062348586930552827 109:1 110:1 149:1 460:1 521:1 629:1 681:1 723:1 979:1 1023:1 1044:1 1048:1 1277:1 1305:1 1411:1 1479:1 1491:1 1498:1 1512:1 1573:1 1579:1 1605:1 1704:1 1758:1 1759:2 2061:2 2293:1 2363:2 2368:1 2420:1 2642:1 2657:1 2700:2 2812:1 2831:1 2962:1 2983:2 3039:1 3042:1 3203:1 3342:1 3472:1 3550:1 3581:1 3773:1 3813:1 3820:2 3834:2 3928:1 #
-0.0086792393120540493 183:1 258:1 259:1 266:1 298:3 322:1 355:1 381:2 438:1 458:1 551:1 552:1 568:1 609:1 647:1 681:1 713:1 745:1 780:1 781:1 782:1 873:1 979:1 1023:0 1175:3 1221:1 1399:1 1452:1 1515:1 1517:1 1585:1 1624:1 1723:1 1766:2 1767:1 1771:1 1836:1 1869:1 2151:1 2206:1 2293:1 2368:2 2396:1 2420:2 2424:1 2516:1 2550:1 2610:1 2665:1 2678:1 2758:1 2792:1 2822:1 2831:1 2855:1 2917:1 2929:1 2934:1 2983:1 3365:4 3454:1 3550:1 3600:1 3634:2 3644:1 3834:4 3857:1 #
-0.0029643441188863203 142:1 246:1 258:1 367:1 400:3 414:1 429:1 432:1 504:1 581:1 603:1 663:1 681:1 723:1 844:2 877:1 911:1 953:1 1005:4 1023:0 1056:1 1057:1 1104:2 1251:1 1271:1 1305:1 1349:1 1396:1 1404:1 1491:1 1536:1 1585:2 1605:2 1647:1 1668:1 1714:1 1759:4 1776:1 1785:1 1791:1 1944:2 1952:2 1965:2 2034:1 2061:1 2098:1 2101:1 2143:1 2157:1 2356:1 2382:1 2449:1 2576:1 2580:2 2722:2 2822:1 2831:1 2891:1 2901:1 2962:1 2983:3 3216:1 3292:1 3342:2 3384:1 3411:1 3448:1 3491:1 3550:2 3555:1 3581:1 3642:1 3644:1 3663:1 3666:1 3733:1 3773:1 3813:1 3825:1 3834:9 3837:1 3875:1 3970:1 #
0.0086792393120540493 248:1 546:1 713:1 878:1 1024:1 1427:1 1571:1 1759:1 2091:1 2112:1 2150:1 2456:1 2493:1 2869:1 3101:1 3112:1 3176:1 3298:1 3320:1 3331:1 3342:1 3634:1 3642:1 3813:1 3834:2 #
0.0086792393120540493 165:1 1005:1 1349:1 1490:1 1704:1 1710:1 1759:2 2091:1 2434:1 2661:1 2925:1 2983:1 3143:1 3301:1 3315:1 3342:2 3365:1 3442:1 3550:1 3578:1 3637:1 3758:1 3820:1 3834:3 3837:1 3979:1 #
0.0086792393120540493 41:1 699:1 1112:1 1456:1 1491:1 1605:3 1759:1 1766:1 2101:1 2134:1 2289:1 2871:1 2983:1 3112:1 3342:1 3550:1 3637:1 3753:1 3813:1 3834:1 3964:1 #
0.0086792393120540493 73:1 114:1 367:1 414:2 427:1 492:1 508:1 629:1 647:1 681:1 740:1 1002:1 1277:1 1289:1 1308:1 1411:1 1434:1 1605:2 1759:2 2069:1 2363:1 2484:1 2502:1 2562:1 2602:1 2657:1 2983:1 3042:1 3550:1 3777:1 3813:1 3820:1 3850:1 3867:1 3920:1 #
-0.0086792393120540493 681:1 910:1 1040:1 1044:1 1394:1 1662:2 1759:2 2091:2 2484:1 2627:1 2803:1 2983:2 3112:1 3365:1 3695:1 3834:1 #
-0.0086792393120540493 414:1 458:1 720:1 831:1 833:1 867:1 1353:1 1356:1 1716:1 1759:2 1766:1 2061:1 2134:1 2296:1 2482:1 2550:1 2610:1 2703:1 2983:2 3112:1 3259:1 3342:1 3349:1 3365:2 3493:1 3550:1 3554:1 3613:1 3622:1 3637:1 3884:1 #
-0.0086792393120540493 82:1 283:1 312:1 458:1 723:1 890:1 1085:1 1625:1 1759:2 1828:1 1882:1 2289:1 2448:1 2665:1 2777:1 2937:1 2946:1 2983:1 3112:1 3133:1 3235:1 3365:1 3524:1 3550:1 3718:1 3744:1 3748:1 3834:1 3979:1 #
0.0047544987814650977 93:1 109:1 220:2 221:1 251:1 285:1 301:1 314:1 432:1 458:1 534:1 681:1 723:1 950:4 1023:3 1024:1 1048:1 1120:1 1243:1 1349:2 1375:1 1490:3 1579:3 1585:1 1605:1 1678:1 1688:1 1718:1 1759:4 1771:2 1821:1 1950:1 1971:1 2091:1 2098:2 2160:3 2206:1 2287:1 2316:1 2338:1 2339:1 2368:1 2434:1 2563:1 2610:4 2614:2 2783:1 2805:1 2835:1 2983:5 3016:1 3112:2 3145:1 3320:1 3342:1 3365:2 3494:1 3540:1 3550:2 3581:2 3616:1 3813:1 3825:1 3834:6 3938:1 #
0.0060443395563603295 258:1 323:1 394:1 429:2 432:2 568:1 588:1 681:1 713:1 740:1 771:1 885:1 970:1 1023:0 1040:1 1119:2 1149:1 1167:1 1202:1 1370:1 1374:1 1448:2 1579:2 1605:2 1625:1 1714:1 1723:2 1759:6 1767:2 1783:1 1821:1 1893:1 1944:3 2005:1 2061:1 2076:1 2077:1 2101:2 2106:1 2111:1 2316:1 2344:1 2368:2 2420:1 2453:1 2462:1 2516:2 2527:1 2566:1 2576:1 2610:3 2700:1 2722:1 2778:1 2786:1 2822:1 2831:1 2983:3 3145:1 3176:1 3188:1 3189:1 3249:1 3317:1 3321:2 3365:2 3407:1 3550:1 3554:1 3581:2 3587:1 3608:1 3616:1 3634:2 3644:1 3820:1 3834:3 3849:1 #
-0.0060545684626894421 114:1 181:1 305:1 429:1 478:1 568:1 570:1 588:1 681:1 770:1 810:1 867:1 950:1 1002:1 1052:1 1055:2 1260:1 1326:2 1387:1 1495:1 1513:2 1536:1 1585:1 1751:1 1759:4 1875:1 1921:2 1944:3 2054:1 2101:1 2286:1 2395:1 2396:1 2398:2 2610:1 2778:1 2871:1 2963:1 2983:1 3016:1 3112:2 3116:1 3355:2 3357:1 3516:1 3581:1 3773:1 3834:6 3844:1 3850:1 3921:1 3952:3 3963:1 #
-0.0086792393120540493 285:1 312:2 394:4 429:1 467:2 603:1 723:1 1023:1 1030:1 1044:1 1048:1 1277:1 1306:1 1529:1 1605:2 1625:1 1635:1 1637:1 1693:1 1759:5 1971:1 2007:1 2087:1 2091:1 2108:2 2151:1 2160:2 2293:1 2527:1 2563:1 2700:1 2794:1 2871:1 2917:1 2931:1 2983:3 3112:1 3216:1 3249:1 3342:3 3642:1 3813:2 3834:3 #
-0.0037954126905623701 53:1 142:1 239:1 367:1 504:1 549:1 606:1 663:1 667:1 681:2 699:1 713:1 850:1 964:1 1023:0 1029:1 1044:1 1149:1 1226:1 1292:1 1504:1 1559:1 1662:1 1759:3 1785:2 1957:1 2030:1 2061:1 2068:2 2098:1 2101:1 2143:1 2205:1 2263:1 2289:1 2293:1 2344:1 2368:2 2412:1 2449:1 2464:1 2493:1 2598:1 2812:1 2821:1 2931:1 2946:1 2974:1 2983:1 3236:1 3326:1 3369:2 3427:1 3436:1 3581:1 3644:1 3787:1 3825:1 3834:6 3837:1 3860:1 3879:1 3963:1 3975:1 #
-0.0066801756704303076 245:1 252:1 273:1 279:1 285:1 301:1 367:1 380:1 394:1 435:1 439:1 538:1 681:4 723:1 827:2 964:1 1005:1 1144:2 1149:1 1167:1 1308:1 1345:1 1579:1 1585:1 1605:1 1759:5 1954:1 2045:1 2061:1 2101:2 2151:1 2263:1 2287:1 2291:1 2328:1 2346:1 2363:1 2464:1 2530:1 2576:1 2610:1 2626:1 2627:1 2722:1 2782:1 2804:1 2917:2 2962:1 2983:1 3002:1 3005:1 3011:1 3042:2 3111:1 3112:2 3284:1 3292:1 3298:1 3343:1 3365:2 3550:1 3557:1 3600:1 3644:1 3813:3 3825:1 3834:7 3843:1 3875:1 3898:1 3941:1 3955:1 #
0.0086792393120540493 142:1 220:1 285:1 301:1 312:3 663:1 681:1 723:1 929:1 950:1 963:1 1273:2 1284:1 1330:1 1413:1 1659:1 1704:2 1809:1 1971:1 2143:1 2342:1 2396:1 2453:1 2568:1 2812:1 2821:1 2983:1 3112:1 3365:2 3383:1 3478:2 3613:1 3834:5 3875:1 3898:2 3913:1 #
0.0086792393120540493 216:1 258:1 285:1 642:1 663:2 681:1 723:2 1005:1 1128:1 1491:1 1625:1 1723:1 1738:1 1956:1 1971:1 2151:1 2341:1 2657:1 2683:1 2725:1 2831:1 2983:4 3008:1 3082:1 3098:1 3112:1 3246:1 3301:1 3330:1 3365:1 3428:1 3454:1 3483:1 3581:1 3613:1 3813:3 3825:1 3867:1 #
0.0080976114777115693 118:1 277:1 663:1 681:3 929:1 979:1 985:1 1249:1 1277:1 1349:1 1485:1 1605:1 1635:1 1661:1 1785:1 1921:3 1973:1 1998:1 2134:1 2317:1 2368:2 2478:1 2580:1 2822:1 2983:2 3112:1 3155:1 3298:1 3331:1 3365:2 3384:1 3448:1 3457:1 3581:1 3613:1 3616:1 3825:1 #
0.0058934208366374875 216:1 319:1 432:2 458:1 460:1 681:1 723:1 806:1 845:1 1005:1 1029:1 1083:1 1277:1 1366:1 1637:1 1759:1 1921:1 2069:1 2344:1 2363:1 2420:1 2651:1 2983:1 3080:1 3119:1 3133:1 3282:1 3342:1 3365:3 3538:1 3634:1 3813:2 3843:1 3923:1 #
-0.0086792393120540493 147:1 228:1 438:1 653:1 681:1 699:1 929:1 1243:1 1342:1 1599:1 1751:1 1759:1 1909:2 2007:1 2069:1 2274:1 2363:1 2508:1 2610:1 2626:1 2821:1 2868:1 2903:1 2911:2 3112:1 3119:1 3365:4 3478:1 3550:1 3555:2 3581:2 3613:1 3666:1 3813:1 3825:1 3834:3 3858:1 3878:1 #
-0.0086792393120540493 110:1 193:1 245:2 258:1 378:1 414:1 444:1 458:1 681:1 699:1 740:1 778:1 842:1 950:1 964:1 1062:1 1113:1 1130:1 1205:1 1212:1 1216:1 1240:1 1302:1 1382:1 1434:3 1446:1 1719:1 1723:1 1738:1 1759:1 1856:1 1860:1 1877:1 2005:1 2108:1 2112:1 2263:1 2306:1 2317:1 2354:1 2372:1 2443:1 2560:1 2586:1 2593:1 2610:1 2723:1 2797:1 2811:1 2914:1 2983:1 3196:1 3344:1 3346:1 3365:1 3428:1 3523:1 3613:1 3634:1 3644:1 3665:1 3710:1 3773:1 3786:1 3828:2 3834:3 3837:2 3903:1 #
-0.0086792393120540493 194:1 606:1 723:2 1004:1 1005:1 1038:1 1474:1 1491:1 1759:1 1769:1 2352:1 2418:1 2983:2 3042:1 3224:1 3256:1 3342:1 3365:1 3550:1 3834:2 #
-0.0014496226820456652 114:1 245:1 360:2 361:1 397:1 432:1 460:1 521:1 540:1 603:1 636:1 681:1 723:2 772:1 850:1 1023:1 1128:1 1185:1 1193:1 1222:1 1330:1 1448:1 1579:2 1604:1 1687:1 1738:1 1749:1 1769:1 1793:1 1931:1 1962:1 1971:1 1982:1 2061:1 2069:1 2229:1 2258:1 2272:1 2289:1 2333:1 2411:1 2420:1 2448:2 2610:1 2612:1 2983:2 3039:1 3342:1 3343:1 3365:2 3389:1 3428:1 3457:1 3528:1 3550:1 3554:1 3633:1 3666:1 3738:1 3834:4 3878:1 3905:1 #
0.005265669178112351 41:1 216:2 259:1 285:2 429:2 467:1 681:3 783:1 929:1 1071:1 1260:1 1274:1 1315:1 1332:1 1491:1 1585:2 1605:1 1759:6 1766:1 2106:1 2134:1 2344:2 2363:1 2610:1 2703:1 2799:1 2831:2 2884:1 2931:1 2983:2 3020:1 3039:1 3112:3 3365:4 3550:4 3692:1 3813:1 3825:1 3834:4 3850:1 3909:1 #
0.0085434989112923784 3:1 4:2 198:4 206:1 229:1 246:1 285:1 423:1 458:1 467:1 554:1 629:1 681:1 698:1 699:1 717:1 1104:1 1149:1 1197:1 1277:1 1289:1 1525:1 1659:1 1718:1 1744:1 1759:8 1792:1 1802:1 1933:1 2061:3 2082:1 2087:1 2101:1 2160:2 2288:1 2344:1 2368:1 2566:1 2799:1 2805:1 2831:1 2962:1 2983:1 3000:1 3080:1 3112:3 3149:1 3284:1 3298:1 3320:1 3454:1 3581:1 3634:1 3637:1 3638:1 3786:1 3834:5 3843:1 3847:1 3875:1 3956:1 3979:1 #
0.0013641437948427328 245:1 444:1 467:1 656:1 681:2 740:1 772:1 929:1 956:1 965:1 1008:1 1023:1 1056:1 1109:2 1326:1 1448:1 1579:1 1605:1 1637:1 1728:1 1759:6 1821:1 1888:2 1944:1 1952:1 2001:1 2002:1 2061:1 2091:1 2106:1 2112:1 2140:1 2197:1 2243:1 2290:1 2344:1 2363:2 2420:1 2566:1 2657:1 2755:1 2915:1 2931:3 2983:1 3112:2 3134:1 3145:1 3365:1 3428:1 3454:1 3474:1 3550:1 3813:2 3834:6 3850:1 #
0.0086792393120540493 114:1 460:1 646:1 699:1 970:1 978:2 1141:1 1202:1 1233:1 1276:1 1326:1 1376:1 1605:1 1741:1 1759:3 1971:1 2061:1 2091:1 2134:1 2368:1 2594:1 2703:1 2817:1 2831:1 2983:3 3115:1 3298:1 3299:1 3320:2 3365:1 3428:1 3550:2 3813:1 3834:5 #
-0.0086792393120540493 341:1 653:1 1056:1 1376:1 1558:1 1759:3 1821:1 2049:1 2061:1 2101:1 2134:1 2147:1 2164:1 2484:1 2610:1 2658:1 2778:1 2799:1 3257:1 3342:1 3450:1 3491:1 3550:3 3721:1 3834:4 #
0.0067212558602697293 4:1 258:1 285:1 603:1 681:2 723:2 772:1 950:1 1005:1 1149:1 1349:2 1563:1 1759:1 1979:1 2054:1 2263:1 2287:2 2344:1 2365:1 2700:1 2831:1 2983:1 3105:1 3128:1 3342:1 3365:3 3813:1 3825:1 3834:1 3879:1 #
-0.0086792393120540493 152:1 218:1 301:1 342:1 440:1 513:1 681:2 713:1 757:1 833:1 851:1 970:1 1002:1 1023:2 1056:1 1260:1 1308:1 1356:1 1399:1 1475:1 1504:1 1601:1 1605:1 1606:1 1687:1 1744:1 1759:2 1771:1 1839:1 1950:1 1978:1 2059:1 2061:2 2091:1 2101:1 2134:3 2351:1 2363:1 2368:1 2379:2 2608:1 2721:1 2786:1 2812:1 2822:2 2983:2 3024:1 3112:1 3281:2 3365:2 3550:1 3554:1 3634:1 3693:1 3813:1 3825:1 3834:4 3844:1 3850:1 3871:1 3905:1 3944:1 #
0.0086792393120540493 109:1 681:1 1579:1 1625:1 1759:1 2206:1 2929:1 2983:1 3137:2 3220:1 3365:2 3538:1 3614:1 3621:1 3834:2 3944:1 #
0.0086792393120540493 228:1 338:1 394:1 438:1 460:1 544:1 550:1 603:1 681:1 687:2 880:1 906:1 916:1 1025:1 1044:2 1417:1 1605:1 1625:2 1723:1 1813:1 1894:1 1973:1 2112:1 2151:1 2251:1 2281:1 2368:1 2448:1 2453:1 2462:1 2513:1 2542:1 2566:1 2925:1 3111:1 3112:1 3342:1 3365:1 3542:1 3834:5 3876:2 3892:1 #
0.0086792393120540493 187:1 259:1 367:1 394:1 432:1 681:2 746:1 810:1 1083:1 1273:1 1308:1 1491:1 1504:1 1785:1 2061:1 2134:1 2160:1 2255:1 2484:0 2561:1 2931:1 2980:1 2983:1 3199:1 3266:1 3342:1 3365:1 3614:1 3634:1 3834:2 3843:1 3850:1 3863:1 3879:1 3964:1 #
-0.0086792393120540493 213:1 283:1 460:1 521:1 681:1 841:1 851:1 910:1 929:1 950:1 979:1 1376:1 1759:1 1815:1 1956:1 1971:1 2160:1 2448:1 2493:1 2508:1 2563:1 2610:1 2658:1 2812:1 3112:2 3365:2 3550:1 3555:1 3813:1 3834:4 #
-0.0086792393120540493 330:1 359:1 460:2 963:1 1185:1 1305:1 1374:1 1448:1 2061:1 2160:1 2363:1 2462:1 2563:1 2610:2 2667:1 2703:1 2707:1 2983:1 3301:1 3365:2 3813:2 3834:3 3884:1 #
-0.0068762135403360831 52:1 138:1 568:1 603:1 663:1 681:1 698:1 807:1 909:1 910:1 950:1 964:1 1144:1 1203:1 1226:1 1448:2 1463:1 1759:2 1782:1 1821:1 2082:1 2112:1 2196:1 2204:1 2368:2 2420:1 2448:2 2465:1 2469:1 2614:1 2786:3 2817:1 2822:1 2983:1 3112:1 3128:1 3147:1 3188:1 3266:1 3314:1 3365:4 3468:1 3555:3 3614:2 3666:2 3834:6 3863:2 3878:1 3879:1 3933:1 #
-0.0086792393120540493 541:2 681:2 723:1 988:1 1005:1 1288:1 1308:1 1346:2 1360:1 1579:1 1657:1 2098:1 2248:2 2527:2 2627:1 2983:2 3002:1 3112:1 3365:2 3581:1 3600:1 3613:2 3834:3 3843:1 3941:1 #
-0.0086792393120540493 76:1 258:1 346:1 718:1 896:1 1083:1 1102:1 1306:1 1326:1 1479:1 1559:1 1605:1 1625:1 1759:2 1803:1 1893:1 1911:2 1931:1 2287:1 2368:1 2370:1 2527:1 2657:1 2831:1 2983:1 3230:1 3236:1 3365:2 3550:1 3562:1 3652:1 3834:1 3843:1 3867:1 3875:2 3932:1 #
0.0061739120798688695 5:1 41:1 127:1 301:1 303:2 336:1 394:1 458:1 467:1 568:2 588:1 599:1 617:1 631:1 681:2 757:1 806:1 817:1 870:1 979:2 1040:1 1128:1 1203:1 1255:1 1320:1 1370:1 1374:1 1420:1 1490:1 1512:1 1573:1 1625:2 1637:1 1678:1 1689:1 1714:2 1759:2 1766:1 1776:1 1788:3 1821:1 1893:1 2061:1 2065:1 2069:1 2091:1 2100:1 2151:1 2216:1 2309:1 2448:2 2490:1 2517:2 2564:1 2566:1 2703:1 2730:1 2786:2 2822:1 2860:1 2863:1 2896:1 2931:1 2946:1 2983:5 3033:1 3042:1 3070:1 3100:1 3112:3 3188:1 3199:1 3317:1 3342:2 3360:1 3365:2 3510:1 3550:2 3590:1 3610:1 3634:2 3663:1 3680:1 3702:1 3813:2 3834:3 3850:1 3867:1 3898:1 3964:1 #
0.0086792393120540493 222:2 285:2 504:1 681:1 970:1 1184:2 1504:1 1508:1 1585:1 1625:1 1656:1 1759:4 1785:1 2176:1 2213:1 2225:1 2297:1 2344:1 2363:2 2396:1 2537:1 2595:1 2610:1 2764:1 2983:3 3042:1 3239:1 3329:1 3365:2 3454:1 3528:1 3550:2 3554:1 3834:1 3862:1 3881:1 #
0.0086792393120540493 262:1 330:1 434:1 772:2 1012:1 1180:1 1185:1 1233:1 1374:3 1376:1 1404:1 1512:1 1759:4 1875:1 1962:1 2061:1 2083:1 2196:2 2229:1 2363:1 2691:1 2812:1 2831:1 2851:1 2895:1 2983:2 3106:1 3189:2 3287:1 3365:2 3550:2 3834:3 3850:1 3884:1 3934:1 #
0.0086792393120540493 221:1 246:1 330:1 381:2 425:1 514:1 534:2 681:1 723:1 867:2 1104:3 1106:1 1448:1 1490:1 1491:2 1552:1 1662:1 1721:1 1759:3 1949:1 2101:1 2112:2 2351:1 2368:1 2448:1 2462:2 2550:1 2580:1 2610:1 2819:1 2974:1 3365:2 3550:2 3634:1 3637:1 3862:1 #
0.0058926248073602706 70:1 173:1 312:1 330:1 367:1 491:1 620:1 681:2 713:1 772:1 885:1 979:1 1023:1 1062:1 1116:1 1119:1 1128:1 1243:1 1255:1 1263:1 1325:1 1370:1 1491:1 1501:1 1625:1 1637:1 1723:1 1736:2 1738:1 1759:2 1962:1 2017:1 2021:1 2114:1 2253:1 2368:1 2550:1 2610:1 2730:1 2799:1 2851:1 2983:1 3107:1 3203:1 3342:1 3365:1 3389:1 3428:2 3516:1 3550:2 3813:1 3834:1 3851:1 3926:1 #
-0.0086792393120540493 4:1 52:1 141:1 230:1 245:1 414:1 432:1 650:1 681:3 713:1 723:1 1040:1 1140:1 1504:1 1645:1 1689:1 1704:1 1759:6 1766:1 1855:1 2076:1 2101:1 2289:1 2363:1 2442:2 2443:1 2610:3 2983:1 3112:1 3365:1 3528:1 3550:2 3581:1 3622:1 3825:1 3834:1 3837:1 3850:1 3860:1 3878:1 3951:1 3963:1 #
-0.0086792393120540493 301:1 334:1 400:1 429:1 521:1 702:1 831:1 1104:2 1167:1 1194:1 1349:1 1491:2 1609:1 1642:1 1759:3 1944:1 2368:1 2580:2 2831:1 3239:1 3550:3 3634:1 3786:1 3834:3 #
0.0038721293899918081 114:1 220:2 381:1 394:1 412:1 429:1 432:1 468:1 473:1 504:1 644:1 663:1 681:1 713:1 929:1 964:1 979:1 985:1 1276:1 1277:2 1289:1 1308:1 1346:2 1438:1 1456:1 1479:1 1563:1 1574:1 1585:1 1678:1 1730:1 1744:2 1745:1 1776:1 1785:2 1944:1 1957:1 2059:1 2061:1 2082:1 2111:1 2248:1 2443:1 2505:1 2527:1 2563:1 2602:1 2731:1 2871:1 2925:1 2931:1 2973:1 2983:3 3035:1 3112:1 3195:1 3236:1 3239:1 3241:1 3298:1 3306:1 3365:1 3562:2 3573:1 3581:3 3606:1 3813:1 3825:1 3834:7 3850:1 3862:1 3917:1 3928:4 3944:1 #
0.0086792393120540493 25:1 336:1 432:2 681:2 772:1 804:1 903:2 979:1 1305:1 1349:1 1356:1 1605:1 1736:1 1759:2 1852:1 2364:1 2365:1 2610:1 2755:1 2778:1 2822:1 2958:1 3133:1 3267:1 3283:1 3365:3 3478:1 3550:2 3581:1 3773:1 3834:4 3850:1 3876:1 #
-0.0086792393120540493 64:1 222:2 251:1 379:1 381:2 432:1 515:1 565:1 588:1 646:1 672:1 762:0 850:1 881:1 1109:1 1154:1 1184:2 1306:0 1555:1 1689:1 1704:1 1759:2 1870:1 2061:2 2368:1 2397:1 2550:1 2659:1 2700:1 2722:1 2798:1 2974:1 2983:2 3014:1 3112:1 3120:1 3239:1 3243:1 3321:1 3365:1 3369:1 3452:1 3550:1 3586:1 3834:5 #
-0.0086792393120540493 438:1 568:1 588:1 663:1 681:2 832:1 950:2 1023:0 1052:1 1273:1 1308:1 1376:1 1648:1 1759:1 1788:2 1931:1 2034:1 2061:1 2108:1 2143:1 2368:1 2534:1 2563:1 2631:1 2658:1 2822:1 2860:2 2962:1 2983:1 3216:2 3365:3 3550:1 3581:3 3642:1 3713:1 3796:1 3825:1 3834:5 3850:1 3952:1 #
-0.0086792393120540493 283:1 367:1 508:1 681:1 719:1 1277:1 1333:1 1341:1 1479:2 1561:1 1581:1 1635:1 1759:2 1892:1 1971:1 1995:1 2140:1 2243:1 2359:1 2434:1 2493:1 2508:1 2703:1 2778:1 2831:1 2863:1 2983:3 3165:1 3189:1 3203:2 3235:1 3365:1 3550:2 3631:1 3686:1 3699:1 3834:3 3911:1 #
-0.0086792393120540493 200:1 379:1 465:1 555:1 588:1 610:1 623:1 648:1 681:1 770:1 821:1 903:1 1023:1 1037:1 1128:1 1209:1 1266:1 1370:1 1373:1 1439:1 1518:1 1537:1 1551:1 1579:1 1585:1 1759:2 1788:1 1882:1 1886:1 1887:1 1944:1 1969:3 2045:1 2061:1 2105:1 2143:1 2215:1 2395:1 2427:1 2438:1 2657:1 2755:1 2823:1 2860:1 2962:1 2983:3 3044:1 3115:1 3126:1 3252:1 3357:1 3424:1 3554:1 3581:1 3777:1 3787:1 3834:5 3920:1 3952:1 3963:1 #
-0.0086792393120540493 198:1 301:1 394:1 432:1 504:1 681:1 698:1 1023:1 1226:1 1704:1 1746:1 1759:3 1785:1 1920:2 1957:2 2346:1 2448:2 2493:1 2540:1 2610:1 2782:1 2831:1 2946:1 2983:1 3042:1 3155:1 3342:1 3365:1 3379:1 3428:1 3435:1 3550:2 3695:1 3713:1 3813:3 3834:3 3952:0 #
0.005722399578408241 30:1 90:1 131:1 218:2 256:1 346:1 525:1 681:3 810:1 1089:1 1289:1 1541:1 1579:2 1585:2 1636:1 1759:4 1960:1 2091:1 2134:1 2140:1 2196:1 2368:1 2390:1 2508:1 2703:1 2740:1 2831:1 2968:1 2983:1 3097:1 3339:1 3342:1 3365:1 3500:1 3504:1 3555:1 3773:1 3820:1 3825:2 3833:1 3834:1 3879:1 3920:1 3928:1 #
0.0086792393120540493 126:1 131:1 220:1 248:1 258:1 338:1 342:1 367:1 568:1 636:1 663:1 770:1 827:1 970:1 988:1 1040:1 1128:1 1185:1 1233:1 1308:1 1448:1 1504:1 1709:1 1759:4 1882:1 1952:1 2091:1 2160:1 2206:1 2216:1 2483:1 2628:1 2822:1 2831:1 2931:1 2951:1 3040:1 3081:1 3112:2 3281:1 3342:1 3365:1 3457:1 3550:3 3562:1 3634:1 3642:1 3652:1 3834:2 3879:1 3920:2 3970:1 #
-0.0046087607223487806 70:1 256:1 460:1 607:1 681:1 1697:1 1704:1 1732:1 1759:1 1793:1 1794:1 2087:1 2124:1 2263:1 2289:2 2396:1 2442:1 2550:1 2686:1 2802:1 2822:1 2983:3 3042:1 3112:2 3147:1 3289:1 3321:1 3342:1 3349:1 3365:2 3555:1 3677:1 3728:1 3740:1 3834:2 3837:2 3850:1 3860:1 #
-0.0086792393120540493 299:1 330:1 414:1 497:1 614:1 658:1 681:2 698:1 732:1 766:1 876:1 1029:1 1040:1 1208:1 1348:1 1373:1 1548:1 1579:1 1605:1 1723:1 1759:2 1776:1 1957:1 1989:1 2061:1 2101:3 2160:1 2363:3 2396:1 2448:1 2521:1 2550:1 2946:1 2983:1 3091:1 3342:2 3365:2 3428:1 3450:1 3581:1 3756:1 3820:1 3867:1 #
-0.0086792393120540493 126:2 163:1 187:1 355:1 414:1 568:1 629:2 636:2 663:1 681:1 738:1 770:1 827:1 990:1 1044:1 1102:1 1167:1 1260:1 1263:1 1299:1 1305:1 1391:1 1411:2 1485:1 1501:1 1573:1 1759:4 1802:0 2008:1 2061:1 2101:1 2134:1 2233:1 2321:1 2344:1 2356:1 2442:1 2448:1 2453:1 2563:1 2598:1 2614:1 2639:1 2722:1 2817:1 2822:1 2831:1 2916:1 2983:2 3035:1 3083:1 3112:2 3185:1 3308:1 3365:2 3428:1 3550:2 3555:1 3613:1 3644:1 3660:1 3711:1 3834:2 3920:1 #
0.0032927053346533831 681:1 723:1 730:1 770:1 947:1 974:1 1005:1 1605:1 1718:1 2112:1 2363:1 2610:2 2785:1 2831:1 3365:3 3441:1 3644:1 3766:1 3813:2 3820:1 3834:1 3879:1 #
0.0086792393120540493 212:1 245:1 330:1 359:1 432:3 772:1 1002:1 1233:1 1374:1 1637:1 1759:2 2197:1 2280:1 2602:1 2871:1 2882:1 2983:2 3365:1 3550:1 3652:1 3813:2 #
0.0086792393120540493 258:1 427:1 713:1 723:1 772:1 1308:1 1718:1 1759:2 1867:1 2482:1 2831:1 2983:1 3550:3 3813:1 3825:1 3944:1 #
0.0086792393120540493 254:1 458:2 515:1 568:1 681:1 740:1 825:2 884:1 1023:1 1277:1 1479:1 1559:1 1759:2 2091:1 2100:1 2101:2 2133:1 2566:1 3035:1 3243:1 3284:1 3365:1 3427:1 3550:1 3813:1 3834:1 #
0.0086792393120540493 330:1 413:1 663:1 1113:1 1202:1 1332:1 1376:1 1548:1 1742:1 1759:1 1785:1 2061:1 2134:1 2292:1 2453:1 2504:1 2554:1 2576:1 2610:1 2980:2 2983:1 2989:1 3492:1 3834:3 3879:1 3920:1 #
-0.0086792393120540493 71:1 109:1 427:1 432:1 607:1 718:1 1113:1 1221:1 1240:1 1305:1 1450:1 1620:1 1687:1 1704:1 1759:2 1875:1 2009:1 2087:1 2091:1 2124:1 2351:1 2368:1 2443:1 2475:1 2550:1 2721:1 2898:1 2917:1 2983:2 3357:1 3365:1 3383:1 3408:1 3494:1 3550:1 3585:2 3647:1 3825:1 3834:2 3843:1 3844:1 3862:1 3975:1 #
0.0086792393120540493 141:1 438:1 681:3 740:1 986:1 1029:1 1355:1 1759:1 1785:1 1788:2 2061:1 2091:2 2160:1 2371:1 2462:1 2614:1 2703:1 2860:2 2983:4 3000:1 3093:1 3243:1 3290:1 3365:2 3637:1 3786:1 3834:4 3964:1 #
0.0086792393120540493 220:1 432:1 568:1 681:2 694:1 772:1 824:1 1044:1 1233:1 1434:1 1605:1 1611:1 1662:1 1759:1 1893:1 1957:1 2196:1 2344:1 2363:1 2368:1 2448:1 2484:1 2530:1 2784:1 2785:1 2822:1 2946:1 2974:1 2983:3 3365:5 3554:2 3555:1 3581:1 3616:1 3813:2 3834:4 #
0.0086792393120540493 189:1 319:1 532:1 546:1 681:2 874:1 950:1 985:1 1023:0 1113:1 1355:1 1374:1 1448:2 1543:1 1609:1 1704:1 1759:1 1956:1 2061:1 2124:1 2249:1 2420:1 2464:1 2812:1 2983:2 3147:1 3316:1 3342:1 3365:2 3390:1 3505:1 3517:1 3550:1 3581:1 3600:1 3834:4 3867:1 #
0.0086792393120540493 427:1 432:1 723:1 734:1 772:1 980:1 1023:0 1277:1 1326:1 1704:1 1759:1 2030:1 2344:1 2363:1 2667:1 2703:1 2812:1 2983:3 3365:1 3550:1 3562:1 3813:2 3820:1 3834:5 3850:1 3879:1 3964:1 #
0.0076474823953528422 198:1 220:1 427:1 432:1 534:1 568:3 681:2 771:1 1002:1 1140:1 1153:1 1202:1 1274:1 1305:1 1324:1 1339:1 1374:1 1411:1 1491:1 1759:3 1867:1 1925:1 1952:1 1954:1 1957:1 2061:1 2443:1 2469:1 2610:2 2622:1 2983:2 3041:2 3112:1 3284:1 3352:1 3365:1 3414:1 3550:1 3555:1 3644:2 3786:1 3813:1 3834:6 3844:1 3920:1 #
-0.0024120533344058771 29:1 110:1 142:1 177:1 251:2 312:1 355:1 427:1 438:1 469:1 473:1 520:1 568:1 653:1 663:1 681:2 766:1 846:1 929:1 950:2 1004:1 1023:1 1123:1 1128:2 1207:1 1277:1 1305:1 1434:1 1457:1 1466:1 1579:1 1585:1 1624:1 1637:1 1723:1 1738:1 1766:1 1776:1 1944:1 1952:2 1971:1 2034:1 2091:1 2101:1 2143:1 2215:1 2340:1 2344:1 2379:1 2427:1 2610:2 2635:1 2657:1 2703:1 2722:1 2812:1 2832:1 2967:1 2983:4 3083:1 3112:1 3365:4 3428:1 3550:2 3554:1 3592:1 3600:2 3658:1 3676:1 3685:1 3773:1 3834:8 3875:1 3898:2 3934:1 3944:1 3952:2 3963:1 #
-0.0086792393120540493 93:1 301:1 560:1 647:1 723:1 794:1 840:1 901:1 1023:2 1035:1 1041:1 1092:1 1111:1 1159:1 1167:1 1273:1 1508:1 1759:1 2143:1 2398:1 2448:1 2622:1 2903:1 2983:2 3112:2 3133:1 3230:1 3239:1 3262:1 3342:1 3365:1 3493:1 3514:1 3581:2 3594:1 3743:1 3813:1 3834:2 #
-0.0086792393120540493 126:1 245:1 568:1 681:1 740:1 1052:1 1128:1 1208:1 1452:1 1514:1 1579:1 1635:1 1759:2 1836:1 1866:1 1921:1 2091:1 2100:1 2157:1 2396:1 2406:1 2448:1 2824:1 2983:2 3002:1 3235:1 3255:1 3298:1 3365:2 3554:1 3581:1 3613:1 3834:6 3963:1 #
-0.0086792393120540493 120:1 141:1 215:1 259:1 285:1 335:1 342:1 394:1 568:2 610:1 681:1 794:1 988:1 1005:1 1023:1 1056:1 1226:1 1227:1 1273:1 1305:1 1396:1 1466:1 1627:1 1704:1 1749:1 1759:1 1816:1 1893:1 1971:1 1980:1 2001:1 2090:1 2096:1 2101:1 2226:1 2310:1 2803:2 2812:1 2964:1 2983:1 3112:1 3257:1 3277:1 3296:1 3342:1 3358:1 3550:1 3581:1 3647:1 3711:1 3718:1 3723:1 3781:1 3834:6 #
-0.0086792393120540493 414:1 473:1 490:1 950:1 998:1 1345:1 1352:1 1374:3 1579:1 1759:1 1956:1 1967:1 2024:1 2061:2 2087:2 2193:1 2248:1 2280:1 2700:1 2983:3 3440:1 3541:1 3550:1 3562:1 3660:1 3679:1 3813:1 3818:1 3834:3 3843:1 3850:1 3857:1 3917:1 3970:1 3982:5 #
-0.0021132341418679521 126:1 131:1 279:1 312:2 410:1 414:1 427:1 432:1 504:1 568:1 647:1 653:1 658:1 663:1 681:2 712:1 723:1 760:3 813:1 863:1 874:1 1005:1 1246:1 1346:1 1374:1 1396:1 1479:1 1645:1 1718:1 1759:3 1766:1 1771:1 1819:1 1832:1 1956:1 2061:2 2069:1 2087:1 2248:1 2321:1 2363:1 2527:1 2670:1 2745:1 2778:1 2821:1 2822:1 2831:1 2983:3 3002:1 3067:1 3125:1 3142:1 3239:1 3259:1 3365:2 3533:1 3550:1 3594:1 3633:1 3639:1 3644:1 3711:1 3813:3 3834:6 3860:1 3941:1 3952:1 3975:1 #
-0.0068544064464866735 114:1 163:1 258:1 301:1 342:1 429:1 653:1 663:3 681:1 723:4 1008:1 1017:1 1151:1 1323:1 1373:1 1381:1 1396:2 1578:1 1585:1 1605:1 1665:1 1704:2 1714:1 1736:1 1749:1 1759:1 2005:1 2034:1 2061:1 2087:1 2091:2 2098:1 2106:1 2160:1 2243:1 2266:1 2293:1 2316:1 2336:1 2338:1 2368:2 2378:1 2443:1 2504:1 2550:1 2563:1 2601:1 2614:1 2703:1 2769:1 2778:1 2812:1 2840:1 2911:1 2961:1 2983:2 3002:1 3310:1 3342:2 3550:1 3594:1 3633:1 3712:1 3813:1 3834:2 3867:1 3875:1 #
-0.0086792393120540493 521:1 588:1 681:1 723:1 770:1 810:1 841:1 1305:1 1448:1 1759:2 1888:1 1935:1 2034:1 2143:1 2368:1 2983:2 3528:1 3550:1 3716:1 3745:1 3834:3 #
-0.0086792393120540493 150:1 258:1 312:1 327:1 438:1 460:1 588:1 647:1 723:2 950:2 979:1 1422:1 1687:1 1759:2 1867:1 1889:1 1980:1 2061:1 2363:1 2521:1 2607:1 2700:1 2712:1 2831:1 2911:1 2931:1 2983:2 3092:1 3133:1 3216:1 3342:1 3365:2 3369:2 3550:1 3834:3 3844:1 #
0.0086792393120540493 114:1 129:1 223:1 245:1 460:1 568:1 656:1 681:1 979:1 1083:1 1102:0 1594:1 1759:2 1785:2 1944:1 1967:1 2112:1 2248:1 2434:1 2452:1 2457:1 2610:1 2632:1 2821:1 3107:1 3112:1 3145:2 3365:2 3644:1 3834:1 3843:1 3952:1 #
0.0086792393120540493 29:1 82:1 161:1 417:1 432:1 723:1 762:1 771:1 797:1 866:1 956:1 1005:1 1025:1 1374:1 1491:1 1605:1 1625:1 1685:1 1759:1 1771:1 1912:1 2061:1 2263:1 2339:1 2448:1 2482:1 2730:1 2883:1 2891:1 2946:1 2983:1 3008:1 3119:1 3189:1 3202:1 3220:1 3342:1 3352:1 3581:1 3600:1 3663:1 3813:1 3834:4 3956:1 #
-0.0086792393120540493 218:1 301:1 432:1 681:1 1002:1 1305:1 1308:3 1492:1 1609:1 1759:2 1785:1 2134:1 2368:1 2563:1 2627:1 2703:1 3605:1 3660:1 3695:1 3813:2 3834:2 #
-0.0086792393120540493 171:1 248:1 606:1 681:1 723:1 901:1 929:1 1102:0 1308:1 1457:1 1605:1 1625:1 1642:1 1749:1 1759:1 2034:1 2061:1 2091:1 2101:1 2134:1 2151:1 2289:1 2389:1 2658:1 3002:1 3112:1 3189:1 3321:1 3342:1 3365:1 3746:1 3787:1 3813:1 3834:1 #
-0.0086792393120540493 168:1 174:1 653:1 681:2 717:1 1206:1 1282:1 1368:1 1373:1 1700:1 1759:3 2053:1 2069:1 2187:1 2287:2 2368:1 2698:1 2822:1 2844:1 2983:2 3133:1 3174:1 3365:3 3412:1 3834:1 3878:1 3975:1 #
0.0086792393120540493 142:2 198:1 427:1 504:1 663:1 681:1 878:1 929:1 950:2 1167:1 1180:1 1181:1 1289:1 1308:1 1374:1 1736:1 1744:2 1759:1 1965:1 1972:1 2510:1 2665:1 2725:1 2783:1 2917:1 2983:1 3112:2 3298:1 3321:1 3342:2 3352:1 3365:1 3435:1 3550:3 3573:1 3581:1 3813:1 3834:3 3920:1 #
0.0086792393120540493 312:1 761:1 1323:1 1448:1 1479:1 1491:1 1585:1 1718:1 1759:1 1785:1 1809:1 2112:1 2216:1 2703:1 2817:1 2831:1 2983:2 3112:1 3342:1 3550:1 3834:1 #
-0.0086792393120540493 5:1 231:1 245:1 251:1 269:1 504:2 552:1 681:1 770:1 867:1 1226:1 1346:1 1555:1 1793:1 1838:1 2248:1 2363:2 2368:1 2504:1 2527:1 2610:1 2817:1 2831:1 2931:1 2983:2 3002:1 3243:1 3342:1 3594:2 3820:2 3834:1 3907:1 #
0.0086792393120540493 110:1 320:1 681:1 723:1 1277:1 1305:1 1332:1 1355:1 1490:1 1749:1 1759:3 1921:1 2225:1 2280:1 2344:1 2831:1 3342:1 3365:1 3550:1 3834:3 3898:1 #
0.0059672924023880065 212:1 467:1 681:1 713:2 1040:0 1221:1 1233:1 1355:1 1411:1 1594:1 1605:1 1635:1 1637:1 1704:1 1759:4 1944:1 2034:1 2059:1 2061:1 2140:1 2148:1 2190:1 2368:1 2420:1 2550:1 2584:1 2610:2 2614:1 2812:1 2822:1 2983:1 3008:1 3115:1 3137:1 3176:1 3203:1 3365:4 3550:1 3573:1 3614:1 3644:1 3820:1 3920:1 3944:1 3964:1 #
0.0086792393120540493 216:1 261:1 312:1 611:1 681:2 1276:1 1349:1 1605:1 1705:1 1735:1 1759:2 1785:1 1888:1 2364:1 2563:1 2610:1 3208:1 3241:1 3365:4 3550:2 3777:1 3813:1 3825:1 3834:1 3898:1 #
-0.0086792393120540493 100:1 312:1 713:1 740:1 1323:1 1704:1 1759:2 1782:1 2101:1 2356:1 2363:1 2610:1 2614:1 2983:1 3002:1 3112:2 3342:1 3365:2 3528:1 3550:1 3581:1 3593:1 3613:1 3739:1 3786:1 3834:1 3878:1 3926:1 #
0.0086792393120540493 109:1 427:1 681:1 1023:1 1277:1 1490:1 1579:1 1659:1 1723:1 1767:1 1987:1 2091:1 2134:1 2227:1 2248:1 2339:1 2464:1 2516:1 2527:1 2701:1 2703:1 2831:1 2962:1 2983:2 3112:1 3203:1 3435:1 3773:1 3813:1 3825:2 3834:4 #
0.0014172974057079508 72:1 109:1 120:1 228:1 413:1 427:1 526:1 568:1 660:1 681:2 698:1 713:1 760:1 793:1 970:1 1096:1 1202:1 1233:1 1255:1 1273:1 1332:1 1346:2 1349:1 1420:1 1579:1 1583:1 1625:1 1714:1 1759:1 1829:1 1893:1 1934:1 2054:1 2083:2 2134:1 2248:2 2280:1 2527:2 2638:1 2786:1 2799:1 2817:1 2983:3 3042:1 3070:1 3298:1 3317:1 3365:1 3516:1 3550:1 3634:1 3820:1 3920:1 #
0.0086792393120540493 216:1 258:1 285:1 342:1 723:1 1010:1 1174:1 1289:1 1370:1 1491:1 1704:1 1718:1 2090:1 2091:1 2101:1 2160:1 2363:1 2756:1 2831:1 2983:1 3342:1 3442:1 3550:1 3634:1 3786:1 #
0.0042281571899571548 21:1 216:1 427:1 432:1 467:1 629:1 681:1 713:1 740:1 772:1 936:1 995:1 1121:1 1221:1 1226:1 1284:1 1299:1 1374:1 1411:2 1438:1 1491:1 1605:2 1704:1 1759:3 1776:1 1944:1 2061:1 2082:1 2091:1 2390:1 2448:1 2484:1 2527:2 2602:1 2707:1 2871:1 2968:1 2983:5 3112:1 3555:1 3813:1 3820:1 3834:2 3843:1 #
-0.0086792393120540493 259:1 361:1 663:1 723:1 790:1 929:1 1023:1 1308:1 1455:1 1585:1 2167:1 2411:1 2917:1 2983:1 3002:1 3020:1 3112:1 3342:1 3600:2 3718:1 3834:1 3961:1 #
0.0086792393120540493 216:1 245:1 330:1 367:1 432:2 473:1 669:1 681:1 718:1 723:1 768:1 791:1 881:1 973:1 1226:1 1330:1 1346:1 1548:1 1609:1 1637:1 1704:1 1759:1 1971:1 2054:1 2100:1 2248:1 2253:1 2289:1 2327:1 2356:1 2368:1 2398:1 2448:1 2527:1 2566:1 2626:1 2805:1 3232:1 3241:1 3267:1 3286:1 3342:1 3365:2 3376:1 3581:2 3599:1 3834:3 3851:1 3867:1 3879:1 3915:1 3964:1 #
0.0047110214503918715 109:1 127:1 212:1 218:2 301:1 303:1 358:1 429:1 458:1 493:1 521:1 568:1 681:2 699:1 747:1 757:1 770:1 779:1 985:1 1023:0 1189:1 1214:1 1305:1 1490:1 1579:1 1605:1 1609:1 1759:1 1765:1 1766:1 1767:1 1875:1 1916:1 1944:1 2076:1 2227:1 2263:2 2270:1 2331:1 2336:1 2368:2 2406:1 2424:1 2455:1 2553:1 2601:1 2602:1 2627:1 2803:1 2812:1 2871:1 2983:1 3298:1 3342:1 3365:2 3416:1 3457:1 3538:1 3539:1 3550:1 3581:1 3594:1 3616:1 3644:1 3773:1 3813:1 3834:4 3844:1 3879:1 #
0.0086792393120540493 248:2 362:1 588:1 614:1 644:1 681:1 718:1 979:1 1023:0 1044:1 1202:1 1374:1 1491:1 1512:1 1736:1 1785:1 1808:1 2087:1 2151:1 2215:1 2286:1 2497:1 2627:1 2638:1 2730:1 2741:1 2812:1 2822:1 2900:1 2983:3 3112:1 3266:1 3315:1 3342:1 3365:2 3396:1 3550:1 3614:1 3820:1 3825:1 3834:4 3843:1 3850:1 3863:1 3876:1 3884:1 3980:1 #
0.0086792393120540493 427:1 772:1 1100:1 1605:1 1759:1 1907:1 2983:1 3051:1 3301:1 3342:1 3364:1 3834:1 3944:1 #
0.0086792393120540493 114:1 127:1 336:1 681:1 806:1 986:1 1276:1 1308:1 1326:1 1466:1 1491:1 1583:1 1769:1 1785:1 2101:1 2134:1 2442:1 2610:1 2626:1 2730:1 2983:1 3365:2 3600:1 3644:1 3834:1 3867:1 3876:2 3944:1 #
-0.0086792393120540493 77:1 126:1 198:1 212:1 251:1 269:1 301:1 312:1 355:1 367:1 504:1 601:1 681:1 876:1 898:1 1023:1 1040:1 1308:1 1702:1 1759:2 1766:1 2074:1 2091:1 2102:1 2212:1 2395:1 2396:1 2402:1 2420:1 2462:1 2464:1 2469:1 2504:1 2691:1 2714:1 2755:1 2820:1 2822:1 2903:1 2917:2 2931:1 2983:2 3229:1 3236:1 3361:1 3365:1 3457:1 3544:1 3581:1 3660:1 3875:1 3879:3 3920:1 3963:1 #
-0.0086792393120540493 139:1 177:1 379:1 510:1 1168:1 1349:1 1585:1 2061:2 2101:2 2289:1 2363:1 2484:1 2590:1 2983:2 3002:1 3112:1 3342:1 3365:2 3644:1 3879:1 3964:1 #
0.0086792393120540493 35:1 145:1 216:1 220:1 285:1 389:1 581:1 603:1 663:1 681:1 699:1 775:1 948:2 950:1 964:1 970:1 1010:1 1270:1 1277:1 1658:1 1704:1 1902:1 2061:1 2176:1 2193:1 2863:1 3266:2 3310:2 3550:2 3600:1 3614:1 3676:1 3834:2 3850:1 3863:1 3876:2 3964:1 #
0.0086792393120540493 126:1 222:2 568:1 636:1 929:1 1025:1 1184:2 1246:1 1361:1 1448:1 1491:1 1609:1 1759:1 1838:1 2627:1 2764:1 2983:1 3035:1 3111:1 3112:1 3342:1 3404:1 3834:4 3853:1 #
0.0086792393120540493 82:1 104:1 114:1 220:2 228:1 257:1 311:1 394:1 473:1 760:1 885:1 1366:1 1539:2 1637:1 1650:1 1751:1 1759:6 1821:1 1873:1 1944:2 2196:1 2197:1 2287:3 2506:1 2576:1 2786:1 2792:1 2983:2 3111:1 3112:1 3188:1 3298:1 3344:1 3352:1 3365:2 3417:1 3428:1 3550:1 3634:1 3638:1 3721:1 3773:1 3777:1 3813:1 3834:3 #
-0.0086792393120540493 379:1 681:1 1005:1 1023:1 1081:1 1308:1 1392:1 1662:1 1759:1 1800:1 2396:1 2822:1 2837:1 2974:1 2983:1 3202:1 3357:1 3365:2 3613:1 3834:2 #
-0.0086792393120540493 212:1 427:1 438:1 663:1 681:1 692:2 723:1 790:1 791:1 817:1 901:1 952:1 1005:1 1023:0 1049:1 1113:2 1308:1 1349:1 1539:1 1571:1 1710:1 1751:1 1759:3 1785:1 1952:1 1969:1 1983:1 2082:1 2108:1 2110:1 2151:1 2287:1 2293:1 2453:1 2919:1 2983:1 3002:1 3107:1 3155:1 3216:1 3327:1 3342:2 3365:1 3538:1 3834:5 3867:1 #
-0.0086792393120540493 302:1 374:0 518:1 635:1 653:1 760:1 867:1 1056:1 1305:1 1479:1 1500:1 1579:1 1594:1 1759:1 1859:1 1893:1 2050:1 2091:1 2153:1 2189:1 2420:1 2448:1 2508:1 2865:1 2902:1 2911:1 2965:1 2983:1 3112:1 3235:1 3257:1 3342:2 3365:1 3550:1 3554:1 3738:1 3756:1 3813:1 3834:3 #
-0.0086792393120540493 82:1 136:1 252:1 338:1 409:1 432:1 663:1 723:1 835:1 950:1 1005:1 1305:1 1330:1 1455:1 1536:1 1643:1 1759:1 1893:1 1971:1 2134:1 2263:1 2267:1 2352:1 2378:1 2550:1 2586:1 2700:1 2782:1 2812:1 2961:1 2983:1 3230:1 3342:1 3353:1 3397:1 3555:1 3560:1 3600:1 3788:1 3834:3 #
-0.0086792393120540493 126:1 132:1 173:2 429:1 772:1 1023:1 1029:1 1208:1 1352:1 1579:1 1637:1 1723:1 1759:5 1767:1 2061:1 2087:3 2134:1 2191:2 2215:1 2368:1 2389:1 2396:1 2420:1 2432:2 2484:2 2516:1 2703:2 2722:1 3020:1 3176:1 3216:1 3451:1 3550:1 3834:4 3850:1 3875:1 3964:1 #
0.0039748747580840502 109:2 143:1 147:1 258:1 301:1 432:1 458:1 534:1 587:2 663:1 681:1 723:1 772:1 950:1 970:1 1104:1 1373:1 1376:1 1491:1 1605:2 1662:2 1714:1 1718:1 1759:3 1808:1 1809:1 1817:1 1821:2 1832:1 1906:1 2034:1 2061:1 2069:1 2098:1 2280:1 2368:1 2504:1 2530:1 2571:1 2580:4 2610:1 2755:1 2778:1 2784:1 2831:1 2917:1 2974:2 2983:2 2991:1 3216:1 3342:1 3365:2 3416:1 3550:2 3618:1 3634:1 3637:1 3644:1 3729:1 3813:1 3834:6 3850:1 3862:1 #
0.0013960804112422719 57:1 67:1 82:1 198:1 258:1 432:1 458:1 521:2 568:3 663:3 681:2 723:1 806:1 874:1 929:1 950:1 964:1 1002:2 1005:1 1167:1 1170:1 1175:1 1211:1 1233:1 1374:1 1420:1 1430:1 1448:1 1496:1 1513:1 1536:1 1579:2 1605:3 1747:1 1759:2 1821:1 1851:1 1951:1 1957:1 2087:1 2127:1 2206:1 2263:1 2280:1 2310:1 2368:1 2440:1 2448:1 2510:1 2566:1 2631:1 2724:1 2783:1 2822:1 2831:1 2931:3 2962:1 2983:3 3070:1 3112:1 3203:1 3216:1 3349:1 3365:3 3505:1 3550:1 3581:1 3587:1 3594:1 3642:1 3644:2 3663:1 3736:1 3813:1 3825:1 3834:9 3837:1 3841:1 3934:1 3952:1 #
0.0032582469816012541 245:1 414:3 429:2 432:1 681:1 723:1 772:1 791:1 874:1 970:1 979:1 1023:0 1260:1 1414:1 1491:1 1504:1 1598:1 1605:1 1680:1 1736:1 1759:3 1776:1 1885:1 1939:1 1957:1 1967:1 1971:1 2061:1 2091:1 2112:1 2248:1 2280:1 2363:4 2364:1 2484:1 2722:1 2812:2 2817:1 2983:1 3112:1 3133:1 3186:1 3203:1 3342:2 3349:1 3365:2 3757:1 3813:1 3825:1 3834:4 3879:1 3917:1 #
-0.0075074811189631942 52:1 181:1 187:1 220:1 298:1 306:1 360:1 636:1 681:2 876:1 918:1 1285:1 1396:1 1448:2 1483:1 1535:1 1624:1 1662:1 1759:5 1821:1 1853:1 1956:1 2061:1 2082:1 2087:1 2198:1 2363:1 2368:1 2431:1 2493:1 2508:1 2667:1 2688:1 2693:1 2703:1 2938:1 2983:1 3042:1 3074:1 3188:1 3266:1 3357:1 3365:1 3416:1 3450:2 3500:1 3550:2 3606:1 3614:1 3642:1 3742:1 3812:1 3834:7 3863:1 3878:1 3964:2 #
-0.0086792393120540493 258:1 271:1 285:1 312:1 367:1 663:1 681:2 723:1 847:1 950:1 1434:1 1605:1 1625:1 1687:1 1723:2 1736:1 1751:1 1759:1 1785:1 2061:1 2098:1 2101:3 2449:2 2588:1 2610:1 2786:1 2821:1 2831:1 2917:1 2983:3 3112:1 3236:1 3342:1 3365:2 3550:1 3660:1 3711:1 3813:1 3825:1 3834:4 3844:1 3952:1 #
-0.00042355807000216041 114:1 161:1 163:1 181:1 342:1 414:1 429:1 477:1 599:1 603:1 681:2 702:1 723:1 831:1 888:1 918:1 963:1 979:1 984:1 985:1 988:1 1023:4 1030:1 1056:1 1102:1 1128:1 1277:1 1305:1 1448:2 1486:1 1539:1 1609:1 1714:1 1723:2 1751:1 1759:5 1767:1 1771:1 1821:2 2061:1 2082:1 2083:1 2091:1 2134:2 2160:1 2216:1 2339:1 2349:1 2359:1 2379:1 2411:1 2484:1 2516:1 2662:1 2696:1 2703:2 2740:1 2749:1 2797:1 2866:1 2931:1 2961:1 2983:3 3002:1 3111:1 3112:1 3115:1 3155:1 3188:1 3189:1 3235:1 3292:1 3342:1 3349:1 3500:1 3550:2 3610:1 3773:3 3813:1 3834:6 3863:1 3927:1 3979:1 #
-0.004452756197783605 175:1 245:1 252:1 269:1 274:1 301:3 379:1 429:1 568:1 629:1 631:1 667:1 681:1 702:1 723:2 730:1 740:1 762:1 799:1 862:1 950:1 1008:2 1030:1 1102:1 1113:1 1277:1 1349:1 1396:2 1448:1 1579:2 1605:1 1658:1 1682:1 1704:1 1759:3 1766:1 1769:2 1781:1 1821:1 1867:1 1944:1 2091:5 2098:1 2124:1 2157:1 2227:1 2312:1 2336:1 2364:1 2420:1 2464:1 2472:1 2592:1 2601:1 2610:1 2626:1 2658:1 2692:1 2703:1 2753:1 2756:1 2805:2 2821:1 2822:1 2945:1 2983:5 3083:1 3097:1 3112:2 3133:1 3179:1 3188:1 3202:1 3290:1 3303:1 3308:1 3365:1 3493:1 3554:1 3583:1 3594:1 3644:1 3752:1 3786:1 3813:1 3834:6 3837:1 #
-0.0086792393120540493 136:1 379:1 438:1 460:1 648:1 663:1 681:2 730:1 740:1 762:1 1015:1 1066:1 1131:1 1240:1 1263:1 1448:1 1645:1 1751:1 1759:3 1797:1 1921:2 2045:1 2147:1 2151:1 2448:1 2464:1 2563:1 2657:1 2803:1 2831:1 2865:1 2871:1 2931:1 2983:3 3112:1 3342:1 3365:2 3555:1 3581:1 3663:1 3834:4 3837:1 3898:1 3975:1 #
-0.0086792393120540493 222:1 271:1 359:2 663:1 929:1 945:1 1007:1 1023:0 1143:1 1178:1 1184:1 1233:1 1305:1 1308:1 1321:1 1376:1 1579:1 1662:1 1759:5 2289:2 2344:1 2898:1 2983:3 3011:1 3112:1 3115:1 3236:1 3320:2 3550:1 3676:1 3773:1 3813:1 3834:2 #
-0.0086792393120540493 301:1 414:1 498:1 681:2 730:1 794:1 832:1 1023:1 1066:1 1081:1 1308:1 1387:1 1396:1 1585:1 1625:1 1688:1 1759:2 2215:1 2482:1 2537:1 2627:1 2822:1 2962:1 2968:1 2983:1 3002:1 3137:2 3235:1 3365:1 3554:1 3614:2 3813:3 3834:3 3898:1 #
-0.0086792393120540493 212:1 268:1 464:1 473:1 681:1 697:1 723:1 810:1 1023:0 1113:1 1222:2 1305:1 1505:1 1788:1 2030:1 2034:2 2069:1 2092:1 2340:2 2521:2 2600:1 2602:1 2822:1 2860:1 2978:1 2983:1 3112:1 3305:2 3365:3 3555:1 3592:2 3600:1 3634:1 3661:1 3834:3 #
-0.0086792393120540493 187:1 198:2 258:1 311:1 323:1 603:1 628:1 681:1 715:1 810:1 827:1 1005:1 1056:1 1226:1 1326:1 1759:2 1791:1 1912:1 1944:1 1952:1 2101:1 2134:1 2153:1 2160:1 2387:1 2462:1 2537:1 2576:1 2586:1 2722:1 2822:1 2850:1 3008:1 3230:1 3365:2 3390:1 3491:1 3517:1 3550:1 3555:1 3691:1 3726:1 3834:1 3920:1 3952:1 #
-0.0063609599786477967 30:1 31:1 52:1 70:1 189:1 394:1 429:1 599:2 663:1 681:2 1023:1 1055:1 1120:1 1305:1 1306:1 1430:1 1479:1 1714:1 1723:2 1749:1 1759:2 1875:1 1893:1 2293:1 2368:1 2420:2 2448:1 2481:1 2527:1 2550:2 2563:1 2639:1 2895:1 2983:1 3015:1 3042:1 3365:1 3399:1 3550:1 3632:1 3834:1 3837:1 #
-0.0086792393120540493 301:1 312:1 342:1 663:1 681:1 713:1 730:1 929:1 1005:1 1605:1 1662:1 1759:1 1785:1 1821:1 2290:1 2534:1 2786:1 2974:1 2983:1 3002:1 3112:1 3147:1 3235:1 3239:1 3365:2 3554:1 3713:1 3834:3 3883:1 #
0.0036492341492174764 232:1 240:1 330:1 367:1 583:1 723:1 878:1 1376:1 1585:1 1605:1 1736:2 1785:1 1931:1 2061:1 2086:1 2112:1 2176:1 2363:1 2657:1 2983:1 3342:1 3428:1 3538:1 3834:1 3876:1 #
-0.0031367652472266221 52:1 70:1 260:1 266:1 267:1 391:1 429:1 432:1 458:1 467:1 546:1 620:1 681:1 713:1 797:1 947:1 970:1 979:1 990:1 1023:1 1029:1 1056:1 1149:1 1305:1 1308:1 1376:1 1585:1 1687:1 1751:1 1759:4 1766:1 1836:1 1957:1 2082:1 2134:2 2172:1 2233:1 2287:1 2296:1 2368:1 2379:1 2420:1 2508:1 2540:2 2555:1 2659:1 2778:1 2790:1 2805:2 2822:1 2946:1 2983:5 3020:1 3042:1 3235:1 3284:1 3299:2 3342:1 3365:2 3398:1 3528:1 3550:1 3581:1 3622:1 3695:1 3763:1 3773:1 3834:3 3837:1 3843:1 3920:2 3966:1 #
-0.0046952718820833291 132:1 222:1 260:1 301:1 319:1 432:1 473:1 663:3 681:1 772:1 996:1 1031:1 1056:1 1128:3 1151:1 1170:1 1221:1 1308:1 1323:1 1339:2 1517:1 1689:1 1759:5 1766:1 1841:1 1846:1 1988:1 2068:1 2082:1 2091:1 2101:1 2124:1 2356:1 2411:1 2420:1 2448:1 2576:1 2598:1 2602:1 2610:2 2700:1 2722:1 2799:1 2831:1 2962:1 2983:4 3112:1 3203:1 3277:1 3357:1 3365:3 3386:1 3550:4 3585:1 3600:1 3738:1 3813:3 3834:2 3850:1 3867:1 3898:1 #
-0.0075799959107219917 3:1 4:1 52:1 139:1 320:1 338:1 427:1 657:1 663:1 681:1 729:1 874:1 1005:2 1008:1 1364:1 1396:1 1556:1 1585:2 1625:1 1759:1 2026:1 2061:1 2151:1 2263:1 2346:1 2368:2 2443:1 2448:1 2469:1 2576:1 2586:2 2614:1 2658:1 2821:1 2870:1 3042:1 3112:1 3277:1 3365:3 3383:1 3478:1 3786:1 3834:3 3837:2 3843:1 #
-0.0073544264716160004 20:1 52:1 136:1 172:1 341:1 521:1 541:1 568:1 663:2 681:2 762:1 847:1 874:1 929:1 1005:1 1194:1 1277:1 1309:1 1326:1 1352:1 1396:1 1630:1 1749:1 1759:2 1837:1 2054:1 2061:1 2101:1 2152:1 2263:1 2363:1 2484:1 2563:1 2576:1 2610:1 2736:1 2983:1 3002:1 3112:2 3234:1 3342:2 3365:2 3384:1 3550:1 3637:1 3763:1 3813:1 3834:5 3837:1 3850:1 3898:1 3942:1 3952:1 3955:1 3963:1 #
0.0086792393120540493 356:1 681:2 740:1 752:1 1305:1 1308:1 1574:1 1637:1 1718:1 1759:1 2091:1 2160:1 2227:1 2316:1 2831:1 3112:1 3199:1 3365:1 3493:2 3550:1 3761:1 3825:1 3834:2 3944:1 #
0.0086792393120540493 3:1 52:1 69:1 120:1 770:2 950:2 970:1 979:1 986:1 1040:1 1181:1 1233:2 1277:1 1287:1 1305:1 1374:1 1418:1 1536:1 1591:1 1759:4 2034:1 2253:1 2368:1 2405:1 2448:1 2517:1 2594:1 2610:1 2931:1 3112:1 3342:1 3477:1 3550:2 3554:1 3581:3 3640:1 3813:1 3834:1 3850:1 3863:1 3920:1 3927:1 3934:1 #
0.0086792393120540493 220:1 379:1 681:2 1029:1 1141:1 1276:1 1308:1 1376:1 1490:1 1579:1 1759:3 1967:1 2045:1 2061:1 2151:1 2160:2 2746:1 2845:1 2885:1 2946:1 2996:1 3000:1 3042:1 3365:1 3373:1 3550:2 3581:1 3634:1 3644:1 3786:1 3834:1 3837:1 3920:1 3944:1 #
0.0086792393120540493 206:1 220:1 367:1 432:1 458:2 504:1 516:1 604:1 631:1 681:1 770:1 794:1 950:1 1128:1 1167:1 1308:2 1448:1 1605:1 1666:1 1759:1 1913:1 1914:1 2083:1 2091:1 2368:1 2484:1 2566:1 2626:1 2721:1 2871:1 2887:1 3111:1 3220:1 3330:1 3365:1 3550:1 3834:2 3837:1 3952:1 #
0.0086792393120540493 109:1 222:2 251:1 356:1 486:1 504:1 663:1 681:1 713:1 723:1 964:1 1005:1 1184:2 1233:1 1466:1 1504:1 1605:1 1656:1 1736:1 1759:1 1809:1 2101:1 2105:1 2112:2 2146:1 2168:1 2227:1 2610:1 2627:1 2764:1 2783:1 2917:1 2946:1 2983:3 3125:1 3145:1 3189:1 3336:1 3342:1 3365:2 3405:1 3562:1 3834:5 3944:1 #
0.0086792393120540493 198:1 473:1 568:1 1233:1 1605:1 1756:1 1759:1 1821:1 2193:0 2484:1 2983:1 3112:1 3230:1 3298:1 3365:2 3550:1 3644:1 3813:2 3834:3 3879:1 3920:2 #
0.0086792393120540493 82:1 381:1 438:1 607:1 613:1 663:1 681:1 1044:1 1276:1 1277:1 1308:1 1376:1 1430:1 1491:1 1559:1 1659:1 1704:1 1759:1 1788:2 1870:1 1944:1 2061:2 2098:1 2112:1 2190:1 2286:1 2344:1 2448:1 2464:1 2484:1 2665:1 2755:1 2784:1 2786:1 2824:1 2860:1 2929:1 2931:1 2946:1 2983:2 3083:1 3111:1 3112:1 3116:1 3189:1 3279:1 3352:1 3365:1 3373:1 3454:1 3500:1 3813:3 3825:1 3834:5 3843:1 3934:1 #
0.00448400967303273 271:1 330:1 432:1 438:1 460:1 564:1 568:1 681:1 723:1 783:1 964:1 1023:0 1128:1 1149:1 1289:1 1491:2 1585:1 1689:1 1704:1 1759:2 1821:1 2018:1 2091:1 2100:1 2134:1 2206:1 2282:2 2368:1 2398:1 2443:1 2484:1 2566:1 2941:1 2962:1 2983:2 3042:1 3128:1 3267:1 3292:1 3342:2 3365:1 3384:1 3526:1 3550:2 3554:1 3581:1 3644:1 3663:1 3813:1 3825:1 3834:6 3934:1 #
0.0086792393120540493 432:1 681:1 772:1 979:1 1289:1 1704:1 1759:1 2651:1 2946:1 2983:1 3035:1 3112:1 3266:1 3301:1 3342:1 3365:1 3550:1 3614:1 3813:4 3834:3 3863:1 #
-0.0086792393120540493 835:1 867:1 1260:1 1308:2 1558:1 1944:1 1950:1 2157:1 2368:1 2396:1 2530:1 2563:1 3002:1 3119:1 3342:1 3350:1 3365:2 3428:1 3494:1 3528:1 3562:1 3581:1 3738:1 3813:1 3834:3 3844:1 #
-0.0086792393120540493 116:1 142:1 379:2 414:1 432:1 606:1 723:1 762:1 1023:1 1029:1 1033:1 1052:1 1308:1 1490:1 1710:1 1758:1 1759:3 2059:1 2363:1 2598:1 2626:1 2722:1 2745:2 2831:1 2983:1 3035:1 3133:1 3239:1 3550:3 3813:3 3834:3 3863:1 3952:1 #
0.0086792393120540493 120:1 186:1 216:1 222:1 772:1 1167:1 1183:1 1184:1 1277:1 1309:1 1448:1 1558:2 1579:1 1605:1 1759:4 1821:1 1950:1 2091:2 2101:1 2106:1 2134:1 2344:1 2363:1 2365:1 2576:1 2651:1 2786:1 2846:1 2895:1 2983:1 3042:2 3147:1 3300:1 3342:1 3365:1 3550:1 3581:1 3653:1 3786:1 3834:1 3909:1 3959:1 #
0.0086792393120540493 69:1 110:1 301:1 330:1 427:1 525:1 617:1 681:1 770:1 970:1 979:1 1202:1 1273:1 1400:1 1717:1 1759:2 1888:1 1891:1 2098:1 2344:1 2638:1 2799:1 2821:1 2831:1 2980:1 2983:1 3342:1 3352:1 3365:1 3555:1 3581:1 3666:1 3813:1 3834:2 3884:1 #
0.0086792393120540493 216:1 220:1 454:1 489:1 681:1 723:1 929:1 1355:1 1491:1 1585:2 1759:3 1785:1 1944:1 1987:1 2045:1 2227:1 2270:1 2394:1 2504:1 2610:1 2703:1 2817:1 2983:1 3112:1 3145:1 3199:1 3445:1 3550:1 3813:1 3820:2 3834:3 3841:1 #
0.0086792393120540493 330:1 568:1 681:1 950:1 1192:1 1759:1 1794:1 1921:1 2280:1 2566:1 2610:1 2755:1 2928:1 2983:1 3342:1 3500:1 3550:1 3581:1 3753:1 3834:2 3944:1 3952:2 #
0.0039010865507876705 126:1 248:1 336:1 427:1 518:1 681:1 713:1 740:1 1233:1 1289:1 1305:1 1718:1 1723:2 1759:5 1767:1 1785:1 1794:1 1987:1 2067:1 2091:2 2111:1 2134:2 2150:1 2516:1 2527:1 2597:1 2614:1 2703:1 2817:1 2831:1 2931:1 3112:1 3248:1 3365:1 3539:1 3813:1 3825:1 3834:4 3995:1 #
-0.0060825728657219113 301:1 379:1 394:1 437:1 504:1 658:1 681:1 756:1 806:1 1040:1 1119:1 1305:1 1361:1 1448:1 1558:1 1609:1 1625:1 1758:1 1759:1 1875:2 2034:2 2075:1 2299:1 2917:1 2983:2 3002:1 3236:1 3260:1 3266:1 3428:1 3500:1 3614:1 3834:2 3863:1 3934:1 #
0.0086792393120540493 110:1 198:2 797:1 970:1 1233:2 1308:1 1325:1 1328:1 1718:1 1759:2 1898:1 2522:1 2831:1 2871:1 2983:2 3112:1 3365:2 3506:1 3786:1 3813:3 3820:1 3834:1 #
0.0059709784312166232 220:1 245:1 330:1 367:2 458:1 492:1 681:1 718:1 723:1 936:1 970:1 985:1 1023:1 1202:1 1258:1 1448:3 1583:1 1637:1 1704:1 1759:3 1902:1 2054:1 2061:1 2094:1 2101:1 2363:1 2368:2 2681:1 2931:1 2983:1 3342:2 3365:1 3473:1 3650:1 3813:5 3834:7 3837:2 3843:1 3851:1 3898:1 #
-0.0010512033269115611 50:2 163:1 238:1 245:1 355:1 432:1 473:1 504:1 519:1 543:1 681:2 800:3 858:1 867:1 1023:0 1161:1 1305:1 1308:1 1399:1 1448:1 1743:1 1749:1 1759:2 1870:1 1893:1 1921:2 2061:1 2068:1 2098:1 2101:1 2134:1 2151:1 2197:1 2344:1 2356:1 2363:2 2431:1 2448:2 2642:1 2703:1 2726:1 2786:1 2983:2 3026:1 3365:1 3417:1 3484:1 3502:1 3550:1 3555:1 3575:2 3663:1 3701:1 3813:1 3834:5 3837:1 3850:1 3911:2 3920:1 3921:3 #
0.0043915217176799769 228:1 281:1 516:1 681:1 845:1 878:1 950:1 979:1 1128:1 1323:1 1491:1 1536:1 1738:1 1844:1 1846:1 2091:1 2134:1 2142:1 2196:1 2243:1 2316:1 2338:1 2363:1 2602:1 2657:1 2691:1 2911:1 2982:1 3058:1 3130:1 3145:1 3320:1 3342:1 3365:1 3428:2 3466:1 3554:2 3611:1 3637:1 3834:4 3850:1 3879:2 #
-0.0060222300865099493 114:1 228:2 409:1 431:1 504:2 601:1 663:1 681:1 713:1 867:1 956:1 1023:1 1222:1 1323:2 1376:1 1751:1 1759:1 1832:2 1951:2 2034:1 2061:1 2216:2 2289:1 2449:1 2488:1 2504:2 2550:1 2576:1 2640:1 2700:1 2713:2 2769:1 2811:1 2822:1 2983:2 3112:2 3187:1 3365:1 3493:1 3530:1 3554:2 3622:1 3834:3 #
0.0086792393120540493 458:1 663:1 681:1 698:1 929:1 956:1 1002:1 1289:1 1583:1 1605:2 1635:1 1759:2 1891:1 2112:1 2344:1 2420:1 2983:1 3112:1 3298:1 3310:1 3550:2 3875:1 #
-0.00343995289752025 148:1 149:1 223:1 312:1 388:1 403:1 432:1 568:1 646:1 681:1 804:1 806:1 829:1 852:1 876:1 950:1 1011:1 1023:1 1056:1 1167:1 1168:1 1338:1 1370:1 1396:1 1635:2 1710:2 1749:2 1767:1 1771:1 1788:1 1806:1 1912:1 1927:1 1931:1 2098:1 2165:1 2188:1 2206:1 2351:1 2356:1 2368:1 2396:1 2404:1 2448:1 2553:1 2692:1 2755:1 2778:1 2785:2 2786:1 2807:1 2822:1 2860:1 2893:1 2983:2 3119:1 3292:1 3320:2 3342:1 3343:1 3357:1 3365:1 3367:1 3503:1 3536:1 3612:1 3613:1 3636:1 3825:1 3829:1 3834:3 3851:1 3862:1 3863:1 3875:1 3882:1 3936:1 3956:1 3985:1 #
-0.0065333551355405348 312:2 379:1 521:1 653:1 663:1 681:1 1005:1 1023:0 1044:1 1167:1 1376:1 1396:1 1637:1 1645:1 1723:1 1759:1 1801:1 2082:1 2127:2 2196:1 2197:1 2464:2 2484:1 2786:1 2821:1 2983:1 3067:1 3112:2 3173:1 3352:1 3365:1 3411:1 3517:1 3528:2 3613:1 3738:2 3813:1 3834:3 3850:1 3975:1 #
0.0086792393120540493 109:1 429:1 432:1 681:3 702:1 713:1 772:1 979:1 1128:1 1202:1 1326:1 1346:1 1689:1 1759:1 1785:1 1907:1 2091:1 2248:1 2280:1 2317:1 2368:1 2527:1 2783:1 3365:1 3813:1 3834:4 3841:1 3898:1 #
-0.0062549560916364318 142:1 414:1 429:1 432:2 521:1 638:1 663:1 681:2 730:1 743:1 979:1 1113:1 1125:1 1140:1 1185:1 1243:1 1346:2 1349:2 1376:1 1396:1 1448:1 1579:1 1585:3 1702:1 1736:1 1752:1 1759:4 1910:1 1944:1 2045:1 2061:4 2083:1 2101:1 2248:2 2344:1 2368:1 2418:1 2527:2 2610:1 2721:1 2758:1 2929:1 2974:1 2983:3 3216:1 3365:4 3500:1 3550:1 3697:1 3724:1 3813:2 3830:1 3834:7 3843:1 3878:2 3898:1 3963:1 #
-0.0031319748910689726 151:1 271:1 414:2 432:1 438:1 460:2 636:1 658:1 663:1 680:1 681:2 723:2 795:1 874:1 881:1 965:1 1102:1 1287:1 1305:1 1399:1 1413:1 1484:1 1516:1 1625:1 1650:1 1668:1 1704:1 1759:3 1769:1 2053:1 2082:1 2107:1 2151:1 2344:1 2363:1 2398:1 2484:1 2496:1 2605:1 2610:2 2783:1 2915:1 2917:1 2983:2 3023:2 3125:1 3137:2 3147:1 3186:1 3189:1 3262:1 3281:1 3356:1 3365:2 3550:1 3581:1 3600:1 3612:1 3613:1 3614:2 3634:1 3834:5 3863:1 3875:1 3972:1 #
-0.0086792393120540493 252:1 361:1 432:1 709:1 723:1 790:1 979:1 1005:1 1326:1 1356:1 1662:1 1687:1 1759:1 1785:1 2351:1 2576:1 2586:1 2610:1 2871:1 2946:1 2974:1 2980:1 2983:2 3002:1 3239:1 3243:1 3365:1 3450:1 3516:1 3550:2 3684:1 3813:1 3834:6 3879:1 #
0.0086792393120540493 159:1 228:1 432:1 740:1 771:1 880:3 1210:1 1276:1 1599:1 1605:2 1627:1 1756:1 1759:1 1922:1 1952:1 2368:1 2576:1 2829:1 2983:2 3112:1 3145:1 3315:1 3365:1 3550:1 3616:1 3693:1 3758:1 3813:1 3820:1 3825:1 3834:3 3850:1 3944:1 #
0.0019962589311833269 110:1 223:1 251:1 404:1 563:1 568:1 588:1 681:1 723:2 772:2 817:1 838:1 905:1 929:1 949:1 1005:1 1044:1 1233:1 1289:1 1308:1 1374:1 1466:1 1490:1 1659:1 1718:1 1759:1 1766:1 1767:1 1821:1 1921:3 1926:1 1944:1 2061:1 2098:1 2101:1 2134:1 2184:1 2209:1 2344:1 2584:1 2614:1 2712:1 2831:1 2845:1 2871:2 2946:1 2983:1 3112:1 3298:1 3336:1 3342:1 3349:1 3365:1 3517:1 3581:1 3616:1 3786:1 3827:1 3834:7 3878:1 3952:1 #
0.0026029450914055721 126:1 220:1 289:1 330:1 388:1 427:1 663:1 681:2 698:1 713:1 723:1 1202:1 1346:2 1545:1 1605:1 1756:1 1813:1 2286:1 2484:1 2665:1 2728:1 2799:1 2823:1 2920:1 2931:1 2983:2 3342:1 3427:1 3782:1 3820:1 3834:3 3876:1 3920:2 #
-0.0019994421298674633 110:1 147:1 359:1 432:1 458:1 723:1 827:2 929:1 1303:1 1308:1 1373:2 1374:1 1376:1 1539:1 1687:1 1704:1 1714:1 1759:3 1767:2 1832:1 1893:1 1971:1 1973:1 2061:1 2091:1 2098:1 2160:1 2193:1 2289:1 2363:1 2379:1 2431:1 2516:2 2527:2 2563:1 2658:2 2688:1 2703:4 2957:1 2983:2 3042:1 3112:3 3342:1 3550:4 3555:1 3600:1 3666:1 3813:2 3834:4 3843:1 #
-0.0032315795334035163 130:1 184:1 301:2 313:1 367:1 381:1 412:1 414:1 432:1 433:1 438:2 473:2 504:1 510:1 568:2 603:1 681:2 740:1 767:1 772:1 776:1 790:1 829:1 838:1 849:1 947:1 950:1 1023:0 1056:1 1087:1 1088:1 1190:1 1208:1 1243:1 1273:1 1277:1 1356:1 1376:2 1387:1 1414:1 1484:1 1512:1 1556:1 1585:1 1586:1 1618:1 1626:1 1652:1 1679:1 1688:1 1751:1 1759:2 1799:1 1810:1 1827:1 1850:1 1916:1 1921:1 1944:4 1947:1 1971:1 1983:1 2061:3 2082:1 2098:1 2101:2 2134:1 2193:1 2213:1 2289:2 2346:1 2363:1 2378:1 2391:1 2544:1 2548:1 2576:1 2579:1 2610:1 2703:2 2722:1 2786:1 2962:1 2978:1 2983:1 3005:1 3039:1 3042:1 3160:1 3239:1 3277:1 3342:1 3365:2 3407:1 3410:1 3427:1 3550:2 3562:1 3581:2 3599:1 3637:2 3813:1 3825:1 3834:8 3851:1 3860:1 3867:1 3875:1 3878:1 3879:1 3953:1 #
0.0025430609420502041 228:1 285:1 568:2 592:1 681:1 950:1 977:1 1128:1 1167:2 1243:1 1260:1 1308:1 1346:1 1607:1 1625:1 1718:1 1759:3 1771:1 2064:1 2184:1 2206:1 2315:1 2343:1 2448:1 2822:1 2831:1 2874:1 3291:1 3298:1 3342:1 3365:2 3399:1 3550:4 3581:1 3637:1 3644:2 3790:1 3813:1 3825:1 3834:2 3944:1 3952:1 #
0.0036532361338213332 330:1 427:2 483:1 681:2 764:1 804:1 919:1 929:1 956:1 979:1 994:1 1002:1 1149:1 1167:2 1243:1 1346:3 1376:2 1411:1 1448:1 1466:1 1490:1 1607:1 1625:2 1759:2 1957:1 2061:1 2101:1 2151:1 2209:1 2247:2 2291:1 2411:1 2448:1 2527:2 2610:1 2626:1 2667:1 2755:1 2831:1 2956:1 3000:1 3054:1 3097:1 3112:1 3342:2 3365:4 3627:1 3737:1 3798:1 3820:1 3834:2 3944:1 #
0.0042471765164741413 126:1 212:1 220:2 245:1 251:1 458:1 504:1 646:1 698:1 979:1 1029:1 1233:1 1276:1 1277:1 1305:1 1323:1 1346:1 1434:1 1448:1 1491:1 1668:1 1744:1 1759:2 2098:1 2151:2 2243:1 2368:1 2448:1 2566:1 2635:1 2663:1 2831:1 2871:1 2931:1 3053:1 3342:1 3365:6 3550:2 3554:1 3666:1 3834:2 3898:1 3928:1 3979:1 #
-0.0014084254014455891 53:1 228:1 245:1 297:1 323:1 336:1 412:1 445:1 460:1 647:1 663:2 681:1 723:2 760:2 780:1 837:1 896:1 929:1 950:1 1011:1 1023:1 1101:1 1151:1 1153:1 1308:1 1309:1 1376:1 1391:1 1444:1 1637:1 1662:1 1748:1 1759:1 1931:1 1967:1 1980:1 1999:1 2030:1 2034:3 2105:1 2151:1 2157:1 2248:1 2263:1 2344:1 2349:1 2420:1 2484:1 2638:1 2658:2 2670:1 2744:1 2778:1 2835:1 2879:1 2907:1 2917:1 2983:3 3064:1 3112:2 3133:1 3321:1 3342:3 3365:3 3454:1 3552:1 3600:1 3615:1 3623:1 3626:1 3756:1 3773:1 3834:4 3867:2 3903:1 3944:1 #
-0.0024120877845221723 126:1 172:3 245:1 285:1 301:1 336:1 355:1 568:1 588:1 617:1 661:1 681:1 723:1 806:1 809:1 817:1 862:1 865:1 929:1 1040:1 1049:1 1167:1 1233:1 1262:1 1305:3 1455:1 1485:1 1512:1 1558:1 1605:1 1620:2 1625:2 1647:1 1714:1 1757:1 1759:1 1766:1 1875:1 1977:1 2001:2 2007:1 2069:1 2105:1 2200:1 2363:1 2405:1 2411:2 2586:1 2703:2 2812:1 2823:1 2908:1 2917:1 2949:1 2983:2 3002:1 3112:1 3126:1 3277:2 3365:1 3444:1 3517:1 3581:1 3593:1 3594:1 3600:1 3728:1 3813:1 3820:1 3834:3 3844:1 3876:1 3964:1 #
0.0032042422801348688 174:1 206:1 429:1 460:1 588:1 606:1 642:1 658:1 663:1 681:1 740:1 777:1 950:1 970:1 979:1 1044:1 1104:1 1181:1 1490:2 1491:2 1547:1 1550:1 1579:1 1629:1 1662:2 1736:1 1759:2 1838:1 1992:1 2061:2 2091:1 2101:1 2151:1 2206:1 2209:1 2396:1 2504:1 2525:1 2566:1 2580:4 2594:1 2610:1 2620:1 2766:1 2812:1 2822:1 2831:2 2954:3 2974:3 2983:1 3112:1 3136:1 3249:1 3342:1 3343:1 3600:1 3634:2 3652:1 3834:3 3843:1 3853:1 #
0.0052538994014528764 120:1 218:2 220:1 355:1 442:1 458:1 568:1 622:3 629:1 681:2 730:1 765:1 770:1 772:1 854:1 979:1 1005:1 1263:1 1273:1 1308:1 1356:1 1366:2 1376:1 1458:1 1501:1 1505:1 1625:2 1736:1 1759:2 1776:1 1999:1 2114:1 2134:1 2215:1 2368:1 2420:1 2448:1 3216:1 3352:1 3365:1 3550:1 3594:1 3825:1 3834:2 #
0.0086792393120540493 216:1 427:1 681:1 713:1 727:1 772:1 950:1 1260:1 1292:1 1491:1 1759:1 1965:1 2061:1 2091:1 2610:1 2871:1 3112:1 3365:1 3443:1 3550:2 3637:1 3834:2 3843:2 3944:1 #
0.0032232045423854099 29:1 93:1 187:1 248:1 282:1 394:2 458:2 579:1 681:1 770:1 772:1 1044:1 1233:2 1379:1 1759:4 2022:1 2113:1 2134:1 2180:1 2368:1 2504:1 2508:1 2540:1 2577:1 2628:1 2786:1 2821:3 2831:1 2979:1 2983:1 3083:1 3112:3 3215:1 3301:1 3312:1 3321:1 3352:1 3365:1 3457:1 3581:2 3634:1 3644:1 3813:1 3834:1 #
-0.0010654800528247881 52:1 74:1 145:1 147:1 180:1 213:1 218:2 245:1 260:1 269:1 312:2 340:1 428:1 429:2 432:1 440:1 476:1 521:2 534:1 614:1 647:1 681:1 715:1 730:1 864:1 950:2 964:1 1005:1 1044:1 1104:2 1194:1 1202:1 1249:1 1283:1 1323:2 1330:1 1404:1 1434:1 1490:3 1491:1 1609:1 1642:1 1645:1 1759:1 1766:1 1767:1 1946:1 2098:1 2157:1 2263:2 2396:1 2448:1 2458:1 2459:1 2464:1 2540:1 2580:2 2602:1 2724:1 2739:1 2782:1 2821:2 2831:1 2917:2 2931:2 2978:1 2983:3 3002:1 3052:1 3095:1 3115:1 3175:1 3189:1 3223:1 3315:1 3365:6 3463:1 3550:1 3581:1 3600:1 3613:1 3711:1 3771:1 3825:1 3834:5 3837:1 3920:2 3932:1 3952:3 #
-0.00037496826337369611 3:1 52:1 126:1 187:1 271:1 458:1 681:1 725:1 812:1 897:1 964:1 1005:2 1008:1 1102:0 1207:1 1308:1 1323:1 1342:1 1723:1 1759:2 1788:1 1894:1 2082:1 2091:1 2108:1 2151:2 2272:1 2289:1 2349:1 2448:1 2521:1 2530:1 2534:1 2563:2 2576:1 2591:1 2610:1 2651:1 2665:1 2817:1 2983:2 3001:1 3002:1 3039:1 3088:1 3236:1 3282:1 3283:1 3320:1 3342:2 3365:3 3384:1 3441:1 3550:1 3562:1 3642:1 3777:1 3825:1 3834:2 3844:1 3873:1 3902:1 3952:1 #
-0.0036550911244724853 172:1 187:1 212:1 245:1 312:1 355:1 379:1 447:1 568:1 681:3 699:1 713:1 794:1 810:1 964:1 979:1 988:1 1005:1 1023:0 1205:1 1257:1 1277:1 1308:1 1479:1 1625:1 1645:1 1648:1 1749:1 1759:2 1766:1 1944:1 1956:1 2054:1 2061:1 2098:1 2124:1 2268:1 2349:1 2464:1 2659:1 2786:2 2817:1 2917:1 2983:4 3042:1 3112:1 3243:1 3365:4 3394:1 3457:1 3550:3 3600:1 3634:1 3637:1 3644:1 3686:1 3813:1 3834:4 3963:1 #
-0.0056417530701951399 245:1 312:1 432:1 439:1 647:1 681:1 703:1 850:1 1023:0 1029:1 1113:1 1326:1 1448:1 1662:1 1759:2 2105:1 2109:1 2420:1 2431:1 2462:1 2484:1 2493:1 2817:1 2911:1 2917:1 2931:1 2983:3 3002:1 3119:1 3275:1 3342:1 3365:1 3392:1 3550:2 3555:1 3581:1 3594:1 3660:1 3663:1 3695:1 3765:1 3813:2 3834:5 3934:1 #
0.0037629405820207452 41:1 220:1 291:1 444:1 681:1 983:1 1323:1 1355:1 1605:2 1759:3 1766:1 1769:1 2112:1 2157:1 2368:1 2420:1 2651:1 2703:1 2778:1 2812:1 2993:1 3017:1 3042:1 3342:1 3365:1 3428:1 3517:1 3550:1 3562:1 3644:1 3799:1 3834:3 3867:2 #
0.0034003667519893013 173:1 259:1 367:1 427:1 599:0 692:1 740:1 876:1 1166:1 1280:1 1349:1 1374:3 1605:2 1637:1 1704:1 1759:3 1832:1 1957:1 2091:1 2101:1 2133:1 2140:1 2243:1 2280:1 2336:1 2363:2 2462:1 2478:1 2504:1 2527:1 2601:1 2610:3 2703:1 2718:1 2780:1 3088:1 3097:1 3365:1 3457:1 3550:3 3786:1 3789:1 3813:4 3834:3 3850:1 3918:1 3944:0 3952:1 #
0.0061519907091702438 285:1 368:1 663:1 681:1 723:1 950:1 1181:1 1277:2 1445:1 1536:1 1555:1 1605:1 1625:1 1718:1 1759:4 1838:1 1944:1 2098:1 2101:1 2285:1 2344:2 2610:1 2831:1 2931:1 2983:1 3112:1 3145:1 3301:1 3365:1 3493:1 3550:2 3586:1 3644:2 3813:1 3834:3 3879:1 #
0.0023721114644509591 172:1 256:1 427:1 432:1 458:1 1355:1 1704:2 1759:2 1785:1 1838:1 2112:1 2159:2 2610:1 2722:1 2983:1 3197:1 3220:1 3342:1 3365:1 3427:1 3550:1 3813:1 3820:1 3825:1 3834:3 3867:1 3898:1 #
-0.0029766102132211081 126:1 149:1 248:1 405:1 414:1 460:1 504:1 636:2 681:2 713:1 793:1 867:1 963:1 1023:1 1086:2 1305:2 1346:2 1396:1 1429:1 1490:1 1491:1 1648:1 1704:1 1759:3 1771:1 1794:1 1832:1 1853:1 2023:1 2059:1 2061:1 2083:1 2091:1 2260:1 2368:2 2419:1 2527:1 2703:1 2778:2 2786:1 2821:1 2831:1 2907:1 2911:1 2983:3 3125:1 3239:1 3243:1 3281:1 3342:1 3349:1 3358:1 3421:1 3434:1 3454:1 3542:1 3660:1 3834:4 3902:1 3920:1 #
0.0022462784168050514 141:1 276:1 342:1 367:1 389:1 394:1 458:1 495:1 568:1 626:1 681:1 713:1 845:1 1040:1 1203:1 1270:1 1289:1 1308:1 1356:1 1491:1 1704:1 1723:1 1736:1 1759:1 1767:1 1844:1 2030:1 2037:1 2087:1 2094:1 2101:1 2150:1 2151:1 2286:1 2310:1 2516:1 2566:1 2610:1 2657:1 2718:1 2730:1 2983:3 3112:1 3119:1 3199:1 3342:1 3550:1 3843:1 3850:1 3876:1 3928:1 #
-0.0013782464064904497 143:1 211:1 251:1 312:1 379:1 497:1 504:1 529:1 620:1 663:1 783:1 1005:1 1023:0 1349:1 1585:1 1735:1 1758:1 1759:3 1807:1 1950:1 2003:1 2059:1 2290:1 2368:1 2389:1 2448:2 2703:1 2812:1 2983:5 3020:1 3155:1 3217:1 3235:1 3385:1 3550:2 3554:1 3623:1 3650:1 3655:3 3756:1 3813:2 3820:2 3834:3 3844:1 3898:2 3920:1 3927:1 #
0.0011026627254687007 218:1 276:1 312:1 371:1 427:2 429:1 432:1 521:1 526:1 663:2 681:2 705:1 713:2 768:1 772:1 876:1 950:2 985:1 1005:1 1044:1 1161:1 1233:1 1260:1 1276:1 1326:1 1332:1 1337:1 1379:2 1455:1 1479:1 1501:1 1512:1 1605:2 1678:1 1704:1 1759:3 1821:1 1946:1 1957:1 2005:1 2087:1 2184:1 2280:1 2286:1 2368:1 2464:1 2482:1 2627:1 2784:1 2831:1 2917:1 2941:1 2962:1 2983:4 3008:1 3112:1 3145:1 3147:1 3155:1 3203:1 3216:1 3342:1 3365:2 3370:1 3427:1 3445:1 3461:1 3483:1 3550:1 3581:1 3600:1 3637:1 3652:1 3711:1 3820:1 3825:1 3834:7 #
0.00502217746793135 355:1 434:1 458:1 541:1 568:2 681:1 806:1 885:1 1023:0 1044:1 1202:1 1260:1 1370:1 1655:1 1704:1 1736:1 1759:3 2030:1 2106:1 2215:1 2280:1 2610:1 2980:1 2983:2 3360:1 3365:2 3428:1 3493:1 3550:1 3634:1 3644:1 3773:1 3786:1 3825:1 3834:1 3850:1 3920:1 #
0.0038570536590298689 211:1 285:1 681:2 698:1 713:1 772:1 825:1 904:1 1349:1 1376:2 1660:1 1705:1 1736:1 1759:2 2061:1 2112:1 2356:1 2651:1 2983:1 3017:1 3342:1 3365:1 3813:2 3834:2 3859:1 3930:1 #
-0.00027726266265194988 187:1 432:1 588:1 709:1 812:1 1005:1 1023:1 1024:1 1052:1 1056:1 1066:1 1326:1 1476:1 1585:2 1714:1 1759:2 1956:1 2061:1 2076:1 2108:1 2151:1 2263:1 2344:1 2368:2 2434:1 2484:1 2703:1 2715:1 2799:1 2934:1 2983:1 3083:1 3116:1 3216:1 3239:1 3292:1 3365:1 3550:2 3637:1 3663:1 3695:1 3813:3 3834:3 3952:1 3955:1 #
