SVM-light Version V6.02
0 # kernel type
3 # kernel parameter -d 
1 # kernel parameter -g 
1 # kernel parameter -s 
1 # kernel parameter -r 
empty# kernel parameter -u 
4727 # highest feature index 
560 # number of training documents 
364 # number of support vectors plus 1 
-0.11201709 # threshold b, each following line is a SV (starting with alpha*y)
-0.0088707099149721389 192:1 262:1 439:1 464:1 544:1 626:1 803:1 860:1 938:1 954:1 993:1 1009:1 1342:1 1881:2 1966:1 2010:1 2015:1 2142:2 2143:3 2154:3 2157:1 2162:1 2358:1 2404:1 2458:1 2464:1 2487:1 2518:1 2553:1 2564:2 2692:1 2705:1 2716:1 2779:1 2812:2 3169:2 3208:1 3352:1 3545:5 3854:1 3866:1 3870:1 4037:1 4196:0 4200:1 4231:1 4306:2 4469:1 4492:2 4512:1 4522:1 4523:2 4528:1 4535:1 4583:1 4586:1 4718:1 #
-0.0019879038900081714 327:1 515:2 528:1 533:1 543:1 662:2 877:1 896:1 930:1 938:3 998:1 1005:1 1067:1 1109:2 1213:1 1271:1 1342:1 1356:0 1541:2 1710:1 1726:1 1782:1 1822:1 1894:1 1933:1 1938:1 2143:2 2287:1 2367:2 2411:1 2490:1 2535:1 2643:1 2741:1 2930:1 2949:1 3021:1 3071:1 3255:2 3285:1 3362:1 3371:1 3511:1 3545:4 3564:1 3705:1 3711:1 3866:1 3871:1 3966:2 4231:2 4492:1 4523:3 4676:1 #
-0.0088707099149721389 759:1 921:1 998:1 1138:1 1321:1 1356:0 1552:1 1852:1 2143:1 2483:1 2505:1 2746:1 2819:1 3356:1 3457:1 3545:2 3673:1 3812:1 3907:1 4231:1 4523:3 4564:1 #
-0.0088707099149721389 418:1 592:1 926:1 980:1 1095:1 1249:1 1267:1 1800:1 1966:1 1994:1 2143:1 2313:1 2464:1 2487:1 2500:2 2819:1 3107:1 3142:1 3545:2 3673:1 3822:1 3825:1 3945:1 3951:1 3966:1 4001:1 4160:1 4403:1 4419:1 4492:1 4523:2 4638:1 #
-0.0014573027048600279 95:1 371:1 424:1 455:2 524:1 648:1 662:1 673:1 771:1 860:1 938:1 954:1 1291:1 1294:1 1342:3 1356:1 1393:1 1492:1 1515:1 1541:1 1622:1 1640:1 1681:2 1714:1 1719:1 1738:1 1836:1 1881:1 1933:2 1938:1 1966:2 1973:1 1994:1 2029:1 2074:1 2143:3 2157:1 2191:1 2228:1 2272:1 2297:1 2430:1 2458:1 2483:1 2487:1 2505:1 2515:1 2630:1 2661:1 2728:1 2738:1 2762:1 2829:1 2880:1 3021:1 3071:1 3089:1 3107:2 3116:3 3142:2 3172:1 3357:1 3371:1 3475:1 3501:1 3545:1 3605:1 3754:1 3824:1 3871:1 3907:1 3945:4 3954:1 3966:4 4138:2 4173:1 4196:5 4231:1 4292:2 4302:1 4523:5 4528:3 4696:1 #
0.0088707099149721389 781:1 879:1 998:1 1372:1 1822:1 1834:1 1948:1 1949:1 1952:1 2143:2 2363:1 2523:1 2794:1 2819:1 2982:1 3094:1 3179:1 3545:1 4196:1 4254:1 4440:0 4523:1 4588:1 #
0.0057671119339690576 6:2 134:1 155:1 502:1 633:1 641:1 645:1 650:1 729:1 781:1 849:1 874:1 954:2 986:1 1052:1 1141:1 1148:1 1149:1 1174:1 1271:2 1292:1 1340:1 1474:1 1528:1 1593:1 1620:1 1683:1 1705:1 1768:2 1822:3 1933:1 2004:1 2025:1 2100:1 2116:1 2143:4 2157:1 2369:1 2396:1 2432:1 2479:1 2487:1 2515:1 2520:1 2523:1 2585:1 2657:1 2829:1 2890:1 2918:1 3003:1 3070:1 3089:1 3142:1 3291:1 3357:1 3408:2 3439:1 3478:1 3545:3 3634:1 3673:1 3816:1 3831:1 3849:1 3966:4 4073:1 4196:3 4271:3 4282:1 4505:1 4523:4 4582:1 4586:1 #
0.0039596446294492471 220:1 550:1 938:1 954:1 998:1 1411:1 1456:1 1476:2 1639:1 1822:1 1835:1 1966:1 2058:1 2074:1 2143:1 2403:1 2487:1 2506:1 2941:1 3047:2 3147:1 3377:1 3432:1 3513:1 3545:1 3769:1 3945:1 4196:1 4523:2 4535:1 #
0.0039596196545227669 350:1 420:1 455:1 495:1 524:1 548:1 577:1 710:1 747:1 842:1 938:2 1158:1 1245:1 1267:1 1342:2 1372:1 1479:2 1603:1 1608:1 1640:1 1692:1 1710:2 1822:1 1966:2 2074:2 2084:1 2143:2 2353:3 2479:1 2483:2 2487:1 2506:1 2593:1 2627:3 2630:1 2794:1 2819:1 3094:1 3107:2 3159:1 3262:1 3296:1 3320:1 3356:2 3496:1 3524:1 3545:2 3607:1 3673:3 3824:1 3945:1 3963:1 4090:1 4104:1 4138:1 4148:1 4196:1 4200:1 4208:1 4231:1 4238:1 4266:1 4492:1 4523:7 4535:2 #
0.0088707099149721389 155:1 228:1 692:1 699:1 748:1 1524:1 1635:1 1938:1 1966:1 2105:1 2148:1 2487:1 2819:1 2829:1 3047:1 3545:1 3966:1 4271:1 4443:1 4473:1 4523:3 #
-0.0088707099149721389 372:1 418:1 463:1 550:1 590:1 617:1 648:1 692:1 823:1 938:1 1015:1 1231:1 1411:1 1428:1 1454:1 2056:1 2563:1 2741:1 2794:1 2929:1 2931:1 2990:1 3110:1 3165:1 3181:1 3228:1 3254:1 3545:1 3816:1 3829:1 4078:1 4492:3 4523:2 4535:1 4540:1 4607:1 #
-0.0051487598360548592 7:1 60:1 104:1 135:1 220:1 242:1 335:1 382:1 463:2 493:1 537:1 569:1 590:1 615:1 626:2 691:1 759:1 781:3 810:1 877:1 908:2 913:1 930:4 954:2 986:1 1033:1 1055:1 1067:1 1085:1 1087:1 1365:1 1372:1 1430:1 1434:2 1478:1 1584:1 1608:1 1635:1 1707:2 1725:1 1747:2 1756:1 1780:1 1822:5 1843:1 1966:1 2128:1 2143:1 2287:1 2353:2 2393:1 2458:1 2479:1 2483:1 2564:1 2614:1 2678:1 2716:1 2741:1 2747:1 2760:1 2794:2 2819:2 2823:1 2829:1 2928:1 2947:1 2952:1 2975:1 3147:1 3152:1 3166:1 3169:1 3179:2 3223:1 3254:1 3403:1 3472:1 3545:3 3816:1 3868:1 3898:1 3929:1 3951:1 3957:1 3966:1 4067:1 4111:2 4115:1 4196:3 4215:1 4229:1 4272:1 4564:2 4565:1 4635:2 4684:1 #
-0.0043425670677432644 155:1 353:1 577:1 633:1 650:2 651:1 804:1 821:2 938:1 1000:1 1145:1 1271:1 1380:1 1398:1 1435:1 1596:1 1710:1 1731:1 1762:1 1768:1 1806:1 2008:2 2143:2 2175:1 2263:1 2381:1 2432:1 2479:1 2500:1 2505:1 2612:1 2829:2 2952:1 3117:1 3129:1 3281:1 3295:1 3507:1 3607:1 3621:1 3629:1 3705:0 3781:1 3784:1 3966:2 4140:1 4196:1 4254:1 4392:1 4523:1 4563:1 4630:1 4641:2 #
-0.0077784218915726107 6:1 7:1 56:1 191:1 517:1 648:1 845:1 1210:1 1372:1 1474:3 1479:1 1537:3 1966:2 2136:1 2143:1 2171:1 2386:1 2411:1 2487:1 2500:2 2587:1 2683:1 2724:1 2829:2 2929:1 2947:1 2990:1 3005:1 3210:1 3302:1 3544:1 3545:1 3849:1 3945:1 3961:1 3966:1 4142:1 4196:1 4231:1 4254:1 4523:2 4528:1 4564:2 4607:1 #
-0.0088707099149721389 21:1 96:1 484:1 563:1 613:1 633:1 648:2 650:1 694:2 811:1 1020:1 1197:1 1323:1 1414:1 1425:1 1622:1 1627:1 1710:1 2152:2 2174:1 2179:1 2353:4 2474:1 2479:1 2487:1 2492:1 2520:1 2657:1 2819:1 2929:1 2940:1 2947:1 2964:1 2983:1 3030:2 3039:1 3047:1 3071:2 3080:1 3084:1 3165:1 3198:1 3318:1 3356:1 3478:1 3545:2 3724:1 3816:3 3868:1 4041:1 4061:1 4196:1 4199:1 4238:1 4492:1 4505:1 4523:9 4542:1 4572:1 #
0.0086843547054592431 215:1 285:1 318:1 348:1 465:1 474:1 485:2 492:1 493:1 502:2 509:1 524:2 544:1 613:1 633:1 650:1 654:1 692:1 694:2 748:1 791:1 842:1 874:1 930:1 954:1 1024:1 1033:2 1042:1 1060:2 1080:1 1082:1 1095:1 1109:1 1117:1 1149:1 1249:1 1271:1 1299:1 1342:3 1369:1 1372:1 1377:2 1396:1 1401:1 1501:1 1537:1 1595:1 1608:1 1640:2 1653:1 1677:5 1704:1 1714:1 1734:1 1782:1 1822:1 1835:1 1881:1 1966:2 1973:1 1994:1 2023:1 2140:1 2143:4 2210:2 2387:1 2403:1 2404:2 2432:1 2436:1 2458:1 2483:1 2523:1 2528:1 2543:1 2564:1 2566:1 2614:1 2631:1 2638:1 2679:1 2694:1 2716:1 2793:1 2812:1 2881:1 2915:1 2941:1 3002:1 3011:1 3023:1 3047:2 3048:1 3091:1 3095:1 3116:2 3129:2 3159:1 3193:1 3208:1 3218:1 3254:1 3255:1 3257:1 3259:1 3314:1 3361:2 3362:1 3428:2 3463:2 3478:1 3501:1 3545:6 3637:1 3640:1 3643:1 3665:1 3673:1 3685:1 3715:1 3721:1 3764:1 3772:1 3806:2 3816:1 3851:1 3914:1 3945:2 3955:2 3965:1 3966:7 4056:1 4061:1 4086:1 4090:1 4127:1 4128:1 4176:1 4196:2 4199:1 4231:1 4264:1 4292:1 4314:1 4449:1 4473:1 4505:1 4512:1 4523:6 4548:1 4549:1 4582:1 4657:1 #
0.0088707099149721389 20:1 60:1 94:1 95:1 276:1 463:1 515:1 563:2 590:1 611:2 632:1 633:1 648:1 650:4 672:1 692:1 729:1 811:1 842:1 850:2 869:1 890:1 962:1 998:1 1004:1 1034:1 1052:1 1080:1 1083:1 1095:1 1110:1 1174:1 1280:1 1356:0 1361:1 1425:1 1435:1 1445:2 1492:1 1574:2 1627:1 1664:1 1667:1 1721:1 1734:1 1768:1 1822:3 1858:1 1859:1 1926:1 1933:2 1938:2 2070:1 2179:1 2191:1 2229:1 2270:1 2367:1 2381:1 2447:2 2452:1 2479:1 2483:1 2657:2 2687:2 2783:1 2929:2 2947:2 2952:1 3024:1 3037:1 3089:3 3128:1 3165:1 3172:1 3205:1 3229:2 3310:2 3342:1 3350:1 3403:1 3501:2 3513:1 3545:8 3584:3 3665:1 3738:1 3781:2 3822:1 3825:4 3852:2 3866:1 4090:1 4144:1 4147:1 4148:1 4172:1 4196:3 4200:1 4210:1 4215:1 4228:1 4231:1 4280:1 4307:1 4318:2 4328:1 4330:1 4340:4 4471:2 4475:1 4492:1 4505:1 4523:4 4540:1 4544:1 4644:0 4687:1 4692:1 4698:2 #
0.0088707099149721389 20:1 94:1 219:1 463:1 474:1 515:1 517:3 524:2 585:2 648:2 650:2 654:1 662:1 671:1 673:1 695:1 710:1 757:1 771:1 781:2 879:1 930:2 938:1 954:2 965:3 969:1 1033:1 1052:1 1054:0 1086:1 1093:1 1095:1 1124:1 1147:1 1167:1 1211:1 1271:1 1280:1 1312:1 1342:1 1356:0 1384:1 1492:1 1504:1 1543:1 1564:1 1607:1 1655:1 1768:1 1782:1 1833:2 1835:1 1903:1 1933:2 1938:6 1966:3 1994:1 2056:1 2074:0 2088:1 2136:1 2142:2 2143:2 2157:1 2171:1 2223:1 2287:1 2313:1 2347:2 2411:1 2458:2 2528:3 2616:1 2678:1 2711:1 2741:2 2794:1 2819:1 2829:4 2845:1 2928:1 2940:2 2964:3 2990:1 3021:1 3047:2 3145:1 3223:2 3228:1 3264:3 3314:1 3320:1 3342:1 3352:2 3356:2 3357:1 3450:1 3457:1 3478:1 3545:2 3607:1 3673:2 3755:1 3767:1 3774:1 3796:1 3945:2 3966:2 3998:1 4007:0 4061:1 4087:1 4144:2 4196:3 4199:1 4221:1 4254:1 4263:1 4297:1 4302:2 4314:1 4463:2 4473:2 4492:2 4519:2 4523:10 4526:2 4528:1 4564:1 4622:1 4627:1 4676:1 4683:1 4690:1 #
-0.0013589462205877503 60:1 71:1 219:1 286:1 590:1 672:1 699:1 781:1 927:1 938:2 1003:1 1033:1 1220:1 1229:1 1237:1 1249:1 1271:1 1296:1 1356:0 1371:1 1375:1 1692:1 1774:1 1886:1 1924:1 1938:1 1956:1 2121:1 2143:3 2174:1 2199:1 2287:1 2411:1 2458:1 2462:1 2483:1 2722:1 2785:1 2923:1 2941:1 3071:2 3136:1 3142:1 3228:1 3229:1 3267:1 3460:1 3511:1 3607:1 3649:1 3673:1 3678:1 3801:1 3966:1 3975:1 4176:1 4196:4 4244:1 4330:1 4340:1 4409:1 4452:1 4492:1 4523:2 4535:1 4544:1 4622:1 #
0.0027182230862730617 6:1 45:1 84:1 119:1 186:1 220:1 316:1 327:1 396:1 401:1 403:1 408:1 422:1 463:1 502:3 633:1 645:2 650:1 662:1 694:1 699:1 720:0 739:2 842:1 860:1 912:1 938:2 954:3 966:1 1007:1 1012:1 1052:1 1077:0 1087:1 1095:1 1177:0 1185:1 1271:2 1312:2 1342:1 1356:1 1435:1 1445:2 1588:1 1640:1 1681:1 1687:1 1704:1 1768:2 1781:1 1809:1 1835:1 1844:1 1938:2 1966:6 2004:1 2021:1 2029:1 2033:1 2050:0 2091:2 2143:5 2174:1 2184:1 2198:1 2209:1 2249:1 2275:1 2304:2 2384:1 2396:1 2444:1 2447:1 2458:1 2464:1 2473:1 2483:1 2500:2 2505:3 2570:1 2698:1 2767:1 2819:3 2829:2 2924:1 2947:2 2952:1 3021:1 3056:3 3057:1 3089:1 3129:0 3164:1 3166:1 3223:1 3239:1 3352:1 3405:1 3418:1 3457:1 3478:1 3521:1 3545:5 3624:1 3637:0 3767:1 3785:1 3802:1 3930:1 3966:2 4026:1 4060:1 4073:1 4196:1 4208:1 4231:1 4245:1 4247:1 4264:1 4267:1 4292:1 4326:1 4350:1 4449:1 4486:1 4492:1 4505:3 4523:10 4535:1 4540:1 4563:1 4564:1 4656:1 4680:1 4682:1 #
0.0088707099149721389 219:1 664:1 748:1 954:2 1033:1 1149:1 1271:1 1310:1 1686:1 1966:2 2128:1 2143:2 2161:1 2171:1 2203:1 2483:1 2505:1 2726:2 2741:1 2913:1 3142:1 3364:1 3496:1 3545:2 3582:1 3637:1 3673:2 3777:1 3907:1 3966:2 4160:1 4196:2 4302:1 4314:1 4523:6 4581:1 4641:1 4642:1 #
-0.0088707099149721389 242:1 368:1 380:1 433:1 471:1 650:1 748:1 930:1 938:1 954:3 1132:2 1204:1 1342:1 1356:1 1384:1 1471:1 1492:1 1537:1 1555:1 1966:4 1983:1 2015:1 2128:1 2143:3 2210:1 2230:1 2374:1 2464:1 2483:1 2485:1 2736:1 3269:1 3371:1 3413:1 3519:1 3545:3 3564:1 3673:2 3678:1 3816:1 3945:1 3966:3 4159:1 4196:2 4263:1 4272:1 4326:1 4378:1 4397:1 4420:1 4520:1 4523:3 4583:1 4676:1 #
-0.0088707099149721389 79:1 287:1 369:1 499:1 545:1 650:1 748:1 779:1 781:1 954:1 966:1 1018:1 1101:1 1249:1 1267:1 1361:1 1543:1 1681:1 1808:1 2143:2 2166:1 2191:1 2201:1 2260:1 2505:1 2841:1 2890:1 2902:1 2918:3 2940:1 3021:1 3084:1 3194:1 3361:1 3451:1 3463:1 3501:1 3513:1 3520:1 3636:1 3673:1 3767:1 3934:1 3966:1 4045:1 4090:1 4118:1 4196:2 4254:1 4302:1 4439:1 4469:1 4523:1 4572:1 #
-0.0088707099149721389 241:1 517:1 622:1 662:1 694:1 781:2 820:1 888:1 967:1 1169:1 1330:1 1356:1 1433:1 1474:1 1491:1 1552:1 1572:1 1601:1 1640:1 1653:1 1768:1 2088:1 2093:1 2143:3 2239:1 2277:1 2287:1 2390:1 2625:1 2684:1 2687:1 2794:1 2879:1 2911:1 2940:1 2947:3 2964:2 3071:1 3246:1 3342:1 3364:1 3371:2 3544:2 3915:1 3966:3 4171:1 4247:1 4523:1 #
0.0088707099149721389 121:1 261:1 433:2 490:1 514:1 524:1 631:1 729:1 748:1 783:1 954:1 1121:1 1163:1 1271:1 1294:1 1323:1 1608:1 1640:1 1732:1 1768:1 1782:1 1822:1 1933:4 1966:1 2143:2 2287:1 2369:1 2478:1 2487:2 2819:1 2929:1 2947:1 2990:1 3150:1 3228:1 3318:1 3545:2 3781:1 4095:1 4314:1 4340:1 4492:2 4505:1 4523:6 4568:1 4673:1 #
0.0088707099149721389 954:1 1456:1 1655:1 2143:1 2239:1 2404:1 2487:1 2505:1 2947:1 3094:1 3179:1 3725:1 3816:1 4196:1 4199:1 4582:1 #
0.0088707099149721389 385:1 645:1 993:1 1015:1 1060:1 1356:1 1372:1 1474:2 1515:2 1564:1 1933:1 2143:1 2483:1 2487:1 2505:1 2800:2 2819:1 3089:2 3142:3 3160:1 3296:1 3545:1 3725:2 3728:1 3776:1 3816:1 4492:2 4535:1 4563:1 4641:1 #
0.0088707099149721389 429:1 471:1 545:1 998:1 1093:1 1095:1 1342:1 1966:1 2736:1 2819:1 2947:1 3545:1 3640:1 3945:1 3966:1 4174:1 4196:1 4231:1 4492:2 #
0.0088707099149721389 191:2 692:1 924:1 954:1 1361:1 1411:1 1933:2 2004:1 2143:3 2458:1 2483:1 2513:1 2550:1 2675:1 2960:2 3365:1 3545:1 3966:1 4037:1 4196:3 4231:1 4292:1 4492:3 4535:1 4548:1 #
-0.0088707099149721389 502:2 710:1 874:1 1015:1 1384:1 1620:1 1933:2 1966:4 2143:1 2388:1 2487:1 2765:1 2789:1 3142:1 3228:1 3371:1 3440:1 3478:2 3545:1 3673:2 3725:2 3728:1 4183:1 4345:1 4475:1 4523:1 4535:1 #
-0.0088707099149721389 645:1 1312:1 1564:2 1593:1 1835:1 1966:1 1994:1 2143:1 2487:1 2627:1 2726:1 3364:1 3545:1 3945:1 3966:1 4523:1 4535:1 4642:1 #
-0.0088707099149721389 471:1 479:1 563:0 611:2 759:2 875:1 879:1 1019:1 1052:1 1094:1 1269:1 1342:1 1403:1 1492:1 1556:1 1614:1 1834:1 1938:1 1956:1 1966:1 2011:1 2017:1 2020:1 2115:2 2143:3 2201:1 2249:1 2257:1 2487:1 2611:1 2657:1 2783:1 2819:1 2829:4 2969:1 2980:1 3128:1 3142:1 3252:1 3371:1 3395:1 3447:1 3584:1 3640:1 3696:4 3845:3 3945:1 3966:2 4196:1 4235:2 4267:1 4463:1 4523:1 4697:1 #
-0.0088707099149721389 155:1 191:1 220:1 241:1 613:1 694:1 823:1 874:1 954:1 1375:1 1435:2 1494:1 1653:1 1768:3 1833:1 1911:1 1938:1 1980:1 2091:1 2179:1 2487:1 2546:1 2685:1 2741:1 2787:1 2883:1 3047:1 3071:2 3179:1 3609:1 3659:1 3957:1 3966:1 4053:1 4078:1 4196:2 4231:1 4264:1 4472:1 4473:1 4505:2 4523:1 4586:1 #
0.0088707099149721389 94:2 241:1 316:3 320:1 455:1 517:1 519:1 564:1 599:1 632:1 633:1 644:1 648:1 650:1 656:1 694:1 710:2 729:1 748:1 781:1 908:1 930:1 1020:1 1051:1 1055:2 1077:1 1167:2 1271:1 1342:1 1356:2 1365:1 1504:1 1510:1 1537:1 1655:1 1718:1 1734:1 1747:1 1768:1 1822:2 1905:1 1956:2 1966:1 2013:1 2033:2 2125:1 2143:1 2148:1 2171:1 2187:1 2273:1 2274:1 2287:2 2353:2 2392:1 2400:1 2404:1 2487:1 2515:2 2564:1 2657:1 2819:1 2829:2 2844:1 2880:1 3047:2 3071:1 3094:1 3129:1 3255:1 3261:1 3350:1 3535:2 3545:8 3570:1 3584:2 3725:1 3963:1 3966:1 3979:1 4009:1 4065:1 4186:1 4231:1 4264:1 4463:4 4492:1 4505:2 4510:1 4523:14 4553:1 4565:1 4580:1 4586:1 4590:1 4641:2 4659:1 #
0.0088707099149721389 58:1 94:3 155:1 347:1 353:1 366:1 474:1 563:1 577:3 650:1 710:1 729:2 748:1 753:2 781:2 786:1 823:1 904:1 921:1 924:1 931:1 938:1 989:1 1020:1 1055:1 1105:1 1294:1 1342:1 1356:1 1372:2 1420:2 1456:1 1572:1 1607:1 1640:1 1684:1 1714:1 1835:2 1859:1 1994:1 2004:1 2018:1 2074:1 2106:2 2115:1 2143:5 2157:1 2161:1 2209:1 2369:1 2380:1 2458:1 2464:1 2479:1 2487:1 2657:1 2800:1 2834:1 2838:1 2844:2 2947:2 2954:1 3021:1 3117:2 3233:1 3296:2 3381:1 3461:1 3496:2 3508:1 3545:6 3572:1 3599:1 3755:1 3816:1 3865:1 3898:1 3945:1 3961:1 3966:2 4001:1 4009:1 4128:1 4134:1 4196:5 4199:1 4200:1 4231:1 4294:1 4492:3 4523:10 4528:1 4531:1 4535:1 4540:1 4579:1 4667:1 4676:1 4682:1 #
0.0088707099149721389 94:1 155:1 219:1 328:1 350:1 368:1 433:2 463:2 524:1 541:1 648:2 710:1 747:1 748:1 781:1 823:1 860:1 901:3 954:2 966:1 1033:1 1086:1 1095:1 1119:1 1185:1 1249:1 1319:1 1389:1 1424:1 1492:1 1607:2 1608:1 1614:1 1655:1 1686:1 1714:1 1782:2 1827:1 1829:1 1834:2 2074:1 2083:1 2143:4 2154:1 2223:1 2304:1 2374:1 2403:1 2411:1 2430:1 2538:1 2570:1 2794:1 2799:1 2819:1 2829:1 2964:3 3026:1 3094:1 3156:1 3159:1 3169:1 3300:1 3316:1 3342:1 3346:1 3352:1 3375:1 3447:1 3457:1 3463:1 3513:1 3545:5 3673:2 3721:1 3957:1 3966:1 3998:1 4060:1 4188:1 4196:3 4231:2 4313:1 4314:1 4350:1 4512:1 4523:11 4572:1 4586:1 #
0.0085461749846639026 316:1 455:1 463:1 478:1 560:1 577:1 580:2 611:2 710:1 879:1 1055:1 1158:1 1264:1 1312:1 1339:1 1556:1 1571:1 1629:1 1649:1 1666:1 1681:1 1686:1 1710:2 1834:1 1835:1 1933:1 2002:1 2034:1 2143:3 2291:2 2353:1 2454:1 2458:1 2479:1 2487:1 2698:1 2782:1 2807:2 2829:1 3017:1 3142:2 3193:1 3356:2 3478:2 3545:4 3607:1 3648:1 3659:1 3725:1 3945:1 3966:1 4060:1 4079:1 4196:2 4231:1 4254:1 4272:1 4463:1 4492:1 4523:8 4544:1 4607:1 4659:1 #
0.0088707099149721389 59:1 71:1 93:1 128:1 241:1 517:1 523:1 577:1 590:1 611:2 662:1 692:1 694:1 729:1 781:1 892:1 926:1 934:1 968:1 991:1 998:1 1015:1 1082:1 1121:2 1225:1 1356:1 1372:1 1474:1 1492:1 1526:1 1564:1 1585:1 1608:1 1686:1 1696:1 1734:1 1768:1 1926:1 1933:1 2061:1 2099:1 2142:1 2143:3 2152:1 2223:1 2353:1 2357:1 2432:1 2458:1 2483:1 2553:1 2616:1 2868:1 2929:1 2947:3 2952:1 2964:1 2977:1 3186:1 3314:1 3342:1 3447:1 3463:1 3478:2 3545:2 3673:3 3769:1 3825:1 3854:2 3876:1 3966:1 4128:1 4161:1 4162:1 4196:1 4199:1 4200:2 4208:1 4231:1 4307:1 4338:1 4465:1 4492:3 4512:1 4523:10 4529:1 4610:1 4634:1 4641:1 #
-0.00053031878128807536 36:1 71:1 94:2 191:1 360:1 398:1 414:1 495:1 517:1 611:1 633:1 648:1 650:1 662:1 692:1 694:1 726:1 748:1 763:1 954:1 998:1 1020:1 1037:2 1052:1 1077:1 1314:1 1435:1 1437:1 1494:1 1593:1 1655:2 1732:1 1782:1 1822:1 1835:1 1886:1 1933:1 1994:1 2033:1 2062:1 2143:3 2150:1 2166:1 2291:1 2353:2 2357:1 2360:1 2411:1 2451:1 2479:2 2483:1 2487:1 2505:1 2524:1 2600:1 2667:1 2711:1 2819:1 2947:1 2964:1 2966:1 2990:1 3165:1 3191:2 3277:2 3310:1 3320:1 3350:1 3356:2 3357:1 3374:1 3375:1 3501:2 3545:5 3673:1 3705:1 3751:1 3769:1 3816:2 3827:1 3897:1 3945:2 3957:2 3966:4 3996:1 4060:1 4061:1 4087:2 4159:1 4196:1 4224:1 4231:1 4324:1 4378:1 4428:1 4499:1 4523:14 4528:1 4580:1 4647:1 4667:1 #
-0.0054310248283938132 94:1 155:1 191:1 298:1 330:1 370:1 396:1 443:1 463:1 476:1 483:1 486:2 515:1 572:1 592:1 611:1 631:1 633:2 642:1 650:1 661:1 692:1 710:2 729:1 804:2 814:2 829:1 845:1 921:2 944:1 954:1 958:2 1055:1 1092:1 1149:1 1177:1 1240:1 1271:1 1280:1 1342:4 1384:1 1435:2 1455:1 1470:1 1520:1 1570:1 1572:2 1676:1 1687:1 1693:1 1717:1 1780:1 1822:1 1871:1 1933:2 1938:1 1976:1 1978:1 1981:1 2011:1 2069:1 2084:1 2107:1 2136:1 2137:1 2142:1 2143:2 2171:1 2230:1 2330:1 2353:1 2374:1 2403:2 2412:1 2427:1 2447:1 2453:1 2462:1 2475:1 2487:1 2496:1 2505:2 2577:1 2621:1 2639:1 2657:1 2685:1 2794:2 2812:1 2816:2 2819:1 2845:1 2890:1 2901:1 2915:1 2964:1 2987:1 3021:1 3039:1 3129:1 3142:1 3151:1 3152:1 3159:3 3164:2 3165:1 3194:1 3203:1 3320:2 3478:3 3513:1 3524:1 3539:1 3545:4 3578:1 3580:1 3593:1 3599:1 3607:2 3619:1 3636:1 3671:1 3673:2 3738:1 3767:1 3772:2 3781:1 3801:2 3812:1 3866:2 3884:1 3945:1 3966:2 4010:1 4057:1 4114:1 4119:1 4128:1 4137:2 4231:2 4243:1 4262:1 4263:1 4270:1 4272:2 4378:2 4392:1 4440:1 4443:1 4463:3 4492:4 4512:1 4523:13 4547:1 4564:1 4614:1 4618:1 4630:1 4672:4 4689:1 4696:1 #
0.0035978870047192425 191:1 219:3 545:1 559:1 633:1 652:1 662:1 781:1 820:1 823:1 1121:1 1167:1 1257:1 1608:1 1620:1 1674:1 1717:1 2046:1 2058:1 2074:2 2083:1 2143:2 2161:1 2304:1 2353:1 2454:1 2487:1 2543:1 2657:1 2774:1 2829:1 3003:1 3040:1 3142:1 3150:1 3204:1 3326:1 3371:1 3513:1 3545:2 3607:1 3624:1 3673:1 3945:1 3955:1 3957:1 3966:2 4079:1 4128:1 4177:1 4196:3 4309:1 4372:1 4373:1 4523:1 4563:1 4641:1 4659:1 #
0.0088707099149721389 502:1 580:1 694:1 754:2 849:1 954:2 986:1 991:1 1371:1 1603:1 1639:1 1640:1 2088:1 2143:2 2480:1 2500:1 2550:1 2675:2 2783:2 2794:1 2879:1 3071:1 3128:2 4116:1 4492:1 4535:1 #
0.0088707099149721389 192:1 398:1 433:1 439:1 633:1 650:1 954:1 998:1 1103:1 1598:1 1639:1 1966:1 2826:1 3047:1 3545:1 3658:1 3673:1 3914:1 4492:1 4505:1 4659:1 #
0.0088707099149721389 49:1 437:1 650:1 993:1 1067:1 1169:1 1356:1 1620:1 1639:1 1859:1 2143:1 2152:2 2437:1 2464:1 2879:1 2931:1 2933:1 3030:2 3122:1 3142:1 3342:1 3501:1 3545:2 3691:1 3966:2 4090:1 4127:1 4200:1 4523:1 4664:1 4698:1 #
0.0088707099149721389 23:1 219:1 367:1 474:1 529:1 588:1 611:1 687:1 930:1 934:1 1268:1 1271:1 1312:1 1593:1 1653:1 1681:1 1696:1 1966:1 2353:1 2487:1 2515:1 2550:1 2610:1 2675:1 2698:1 2829:1 2940:1 3371:2 3478:1 3545:1 3673:1 3945:1 3966:1 4147:1 4207:1 #
-0.0088707099149721389 349:1 446:1 463:1 502:1 626:1 631:1 633:1 1020:1 1060:1 1147:1 1153:1 1202:1 1356:1 1425:1 1608:1 1711:1 1734:1 1747:1 1762:1 1933:2 2004:1 2025:1 2056:1 2143:2 2197:1 2234:1 2464:1 2487:1 2577:1 2669:1 2819:1 2912:1 2931:1 2961:1 3107:1 3151:1 3220:1 3292:1 3307:1 3493:1 3501:1 3545:2 3816:1 3963:1 3966:1 4162:1 4196:1 4235:1 4324:1 4330:1 4440:1 4492:1 4523:1 4548:1 4562:1 4564:1 4690:1 #
-0.0088707099149721389 499:1 517:1 563:1 647:1 915:1 924:1 1015:1 1093:1 1439:1 1505:1 1687:1 2074:1 2083:1 2161:1 2210:1 2229:1 2283:1 2464:1 2522:1 2569:1 2657:1 2829:1 3142:1 3181:1 3255:1 3276:1 3432:1 3545:1 3649:1 3711:1 3903:1 3945:2 3966:2 4014:1 4196:1 4266:1 4282:1 4307:1 4383:1 4425:1 4492:1 4544:1 4613:1 4622:1 4698:1 #
-0.0088707099149721389 524:1 558:1 709:1 761:1 781:2 938:1 973:1 1033:1 1124:1 1127:1 1237:1 1280:2 1640:1 1780:1 1822:1 1994:1 2143:1 2157:1 2223:1 2313:1 2483:1 2522:1 2740:1 2794:1 2819:1 2881:1 2918:1 3018:1 3228:1 3607:1 3673:1 3685:1 3755:1 3966:1 4160:1 4222:1 4231:2 4297:1 4417:1 4544:1 4586:1 #
-0.0088707099149721389 349:0 781:1 854:1 1369:1 1372:1 1398:1 1681:1 1822:2 1933:1 1946:1 1994:1 2013:1 2118:1 2139:1 2143:1 2232:1 2274:1 2374:2 2483:1 2564:1 2577:1 2916:1 3027:1 3429:1 3513:1 3545:0 3616:1 3678:1 3966:1 4087:1 4196:1 4292:1 4350:1 4475:1 4715:1 #
-0.0088707099149721389 191:1 211:1 219:1 277:1 529:1 571:4 699:1 748:1 877:1 938:1 1174:1 1271:1 1430:1 1543:1 1641:1 1903:1 2087:1 2143:1 2698:1 2891:1 3142:1 3399:1 3463:1 3469:1 3496:1 3545:1 3607:1 3962:1 3964:1 3966:2 4196:2 4254:1 4325:1 4516:1 4584:1 #
0.0088707099149721389 544:1 550:1 563:1 580:1 633:1 692:1 807:1 823:1 938:1 954:1 1271:1 1510:1 1620:1 1717:1 1886:1 2369:1 2403:1 2487:1 2497:1 2577:1 2657:1 2767:1 2786:1 2819:1 3179:1 3510:1 3545:1 3673:1 3781:1 3966:1 4003:1 4111:1 4309:1 4344:1 4492:1 4523:2 4535:1 #
-0.0010242456952190774 7:1 24:1 252:1 278:1 316:2 328:1 349:1 406:5 420:1 423:2 455:1 498:1 517:2 524:1 545:1 580:1 650:1 759:1 796:1 803:1 923:2 938:1 954:1 965:1 1086:2 1197:1 1314:2 1321:1 1342:1 1356:0 1384:2 1435:1 1498:2 1543:1 1556:1 1559:1 1640:1 1710:1 1714:1 1728:1 1732:1 1750:2 1834:2 1835:2 1932:1 1938:1 1945:1 1966:1 2001:1 2036:1 2074:2 2108:1 2143:2 2157:1 2223:1 2313:2 2353:1 2383:1 2411:1 2412:3 2500:2 2577:1 2667:2 2684:1 2698:1 2738:1 2756:3 2791:2 2868:1 2964:2 3056:1 3107:1 3156:2 3161:1 3169:1 3255:1 3285:1 3350:1 3361:2 3362:1 3404:1 3473:2 3545:2 3649:1 3673:2 3678:2 3732:1 3885:1 3916:1 4007:2 4048:1 4095:1 4120:1 4151:1 4162:2 4193:1 4196:1 4247:1 4424:1 4515:1 4523:7 4528:1 4563:2 4586:1 4634:2 4667:3 4687:1 #
0.0088707099149721389 502:1 517:1 998:1 1030:1 1505:1 1564:1 1933:1 2074:1 2143:1 2150:1 2385:1 2716:1 2819:1 2829:1 3089:1 3356:1 3545:1 3640:1 3945:1 3966:2 4492:3 4523:3 4586:1 4607:1 #
-0.005252059098386901 408:1 439:1 455:1 536:1 613:1 650:2 987:1 1012:1 1132:2 1174:1 1242:1 1537:1 1564:1 1640:1 1844:1 2105:1 2143:3 2384:1 2393:1 2483:1 2487:1 2577:1 2619:1 2637:1 2716:1 2794:1 2800:1 2820:1 2941:1 2952:1 3059:1 3274:1 3371:1 3545:1 3951:1 3954:1 3966:2 4009:1 4196:1 4200:1 4231:1 4307:1 4492:1 4523:1 4698:1 #
0.0041612005744582218 155:1 478:1 650:1 701:1 842:1 860:1 916:1 1055:1 1112:1 1435:1 1581:1 1608:1 1822:2 1835:1 1938:1 1966:1 2021:1 2161:1 2201:1 2487:1 2510:1 2543:1 2670:1 2794:1 2829:1 2923:1 3159:1 3432:1 3513:1 3945:2 3966:2 4061:1 4137:1 4196:1 4443:1 4492:1 4523:4 4667:1 4670:1 #
-0.0026056289734499613 6:2 7:1 94:1 155:1 219:1 318:2 349:2 354:1 569:1 577:1 590:1 607:1 611:2 633:1 650:1 694:2 699:2 781:1 821:1 829:1 837:1 885:1 978:1 986:1 1129:1 1143:1 1158:1 1167:1 1204:1 1271:1 1278:1 1292:1 1356:1 1422:1 1474:1 1554:1 1593:1 1607:1 1642:1 1695:1 1710:1 1724:1 1774:1 1782:1 1861:1 1886:1 1933:4 1938:1 1963:1 1966:5 1975:1 2072:1 2088:1 2143:1 2150:1 2199:1 2308:1 2336:1 2380:1 2432:2 2458:4 2505:2 2511:2 2538:1 2564:1 2614:1 2627:1 2684:1 2767:1 2781:1 2819:1 2820:1 2844:2 2952:1 3107:1 3129:1 3223:1 3341:1 3342:1 3356:2 3382:1 3404:1 3501:1 3513:1 3545:4 3613:1 3673:2 3719:1 3781:1 3816:1 3851:2 3866:2 3888:1 3913:1 3957:3 4018:1 4032:1 4061:2 4090:1 4196:1 4199:2 4200:1 4208:1 4236:1 4244:1 4266:1 4492:1 4505:1 4523:9 4593:1 4630:1 4641:1 #
0.0088707099149721389 155:1 563:1 633:1 729:2 954:1 1185:1 1653:1 1677:1 2143:1 2347:1 2353:1 2458:1 2653:1 2675:1 2829:1 2869:1 3545:1 3869:1 3945:1 4238:1 4469:1 4505:1 4650:1 4659:1 #
0.0088707099149721389 433:1 590:1 650:1 695:1 716:1 781:1 954:1 967:1 1023:1 1095:1 1166:1 1245:1 1321:1 1342:1 1556:1 1620:1 1653:1 1698:1 1826:1 1944:1 1960:1 1994:1 2074:1 2088:2 2143:1 2287:1 2340:1 2487:1 2523:1 2741:1 2818:1 2918:1 3055:1 3142:1 3264:1 3285:1 3307:1 3545:1 3685:1 3913:1 3945:1 3966:2 4061:1 4079:1 4196:2 4231:1 4326:1 4390:1 4593:1 #
0.0086129500024491601 458:2 492:1 519:1 541:1 559:1 581:1 648:1 650:1 836:2 904:1 954:1 998:1 1054:1 1134:1 1158:1 1249:2 1270:2 1342:1 1411:1 1444:1 2020:1 2143:1 2161:1 2171:1 2325:2 2360:1 2380:1 2500:1 2505:1 2513:1 2564:1 2617:1 2657:1 2705:1 2724:1 2878:1 2879:1 3123:1 3165:1 3236:2 3463:1 3545:1 3673:2 3907:1 3915:1 3945:4 3966:1 4110:1 4176:1 4196:2 4384:1 4494:1 4523:1 4535:1 4544:1 4548:1 4586:3 4689:1 #
0.0042810789551519868 318:1 544:1 633:1 650:1 692:1 938:2 953:1 954:3 998:2 1569:1 1710:1 2115:1 2403:1 2563:1 2564:1 2812:1 3094:1 3163:1 3362:1 3496:1 3545:1 3548:1 3607:2 3800:1 3854:1 3966:3 4078:1 4271:1 4277:1 4314:1 4544:1 4564:1 #
0.0088707099149721389 94:1 611:1 694:1 954:1 986:1 1015:1 1164:1 1269:1 1342:1 1608:1 1835:1 1852:1 2004:2 2074:2 2143:2 2339:1 2345:1 2347:1 2381:2 2600:1 2794:1 2829:1 2918:1 3122:1 3362:1 3437:1 3545:1 3945:1 3966:3 4443:1 #
-0.0088707099149721389 71:1 75:1 94:1 191:1 348:1 447:1 483:1 495:1 502:1 524:1 567:1 633:1 650:1 692:1 842:1 885:1 986:1 988:2 998:2 1055:2 1119:1 1173:1 1204:1 1214:1 1264:2 1271:1 1272:1 1292:1 1361:1 1380:1 1411:1 1455:1 1492:1 1531:1 1537:1 1572:1 1608:1 1635:1 1639:1 1655:1 1710:1 1768:1 1782:1 1826:1 1835:1 1859:1 1966:1 1985:1 2015:1 2025:1 2074:1 2116:2 2143:5 2201:1 2220:1 2353:1 2367:1 2396:1 2403:2 2487:1 2499:1 2500:1 2515:2 2555:1 2563:2 2586:1 2657:3 2675:1 2699:1 2721:1 2786:1 2794:3 2806:1 2812:1 2829:1 2869:2 2916:1 2941:1 2952:1 2983:1 3005:1 3024:1 3047:1 3080:1 3089:3 3115:1 3142:1 3164:1 3165:1 3179:1 3255:1 3285:1 3291:1 3292:1 3318:1 3437:1 3473:1 3513:1 3545:5 3558:1 3570:1 3581:1 3671:1 3673:2 3685:2 3725:1 3763:1 3776:2 3796:1 3811:1 3812:1 3816:3 3822:1 3869:1 3876:1 3893:1 3897:2 3901:1 3945:1 3947:1 3959:1 3966:1 4009:6 4012:1 4020:1 4081:2 4183:1 4196:1 4200:2 4340:1 4379:1 4409:1 4417:1 4465:2 4473:1 4492:7 4505:1 4511:1 4523:3 4528:1 4535:2 4540:1 4542:1 4548:2 4572:1 4641:2 4655:1 4667:1 #
-0.0088707099149721389 80:1 694:1 954:1 1129:1 1278:1 1556:1 1687:1 1707:1 1708:1 1822:1 1978:1 2143:2 2333:1 2447:1 2647:1 2829:1 2845:1 2902:1 3047:2 3135:1 3165:1 3342:1 3481:1 3570:1 3849:1 3949:1 3966:2 3998:1 4009:2 4173:1 4198:1 4307:1 4492:2 4523:2 4535:1 4564:1 4572:1 4585:1 #
-0.0088707099149721389 327:1 418:1 455:1 464:1 502:1 523:1 650:1 694:1 842:2 908:1 954:4 1020:1 1052:1 1055:1 1095:1 1109:1 1145:1 1172:1 1185:1 1456:2 1537:1 1608:1 1610:2 1640:1 1655:1 1666:1 1681:1 1768:1 1933:1 2074:1 2142:1 2143:3 2179:1 2209:1 2384:1 2464:1 2483:2 2487:1 2603:1 2617:1 2627:1 2684:1 2698:1 2792:1 2819:1 2880:1 2930:1 3089:3 3116:1 3179:1 3254:1 3269:1 3292:1 3501:1 3510:1 3513:1 3545:1 3711:1 3816:1 3825:3 3896:1 3966:1 4078:1 4128:1 4148:1 4196:2 4199:1 4200:1 4247:1 4252:1 4330:1 4492:2 4523:4 4535:2 4572:1 4586:1 4634:1 4644:1 4659:1 #
-0.0088707099149721389 94:1 677:2 781:1 1271:1 1320:1 1554:1 1564:1 1570:1 1835:1 1973:1 2074:1 2143:1 2432:1 2819:1 3496:1 3671:1 3672:1 3966:2 4247:1 4492:1 4523:1 4584:1 4593:1 #
-0.0088707099149721389 650:1 821:1 954:1 998:1 1063:1 1551:1 1642:1 1886:1 2057:1 2143:3 2550:1 2552:1 2572:1 2675:1 2940:1 3361:1 3496:2 3545:1 3595:1 3685:2 3933:1 3945:1 3966:1 4196:1 4516:1 4665:1 4667:1 #
0.0088707099149721389 316:1 350:1 354:1 418:1 502:2 517:2 519:1 611:1 626:1 633:1 650:1 654:1 694:1 827:1 837:1 998:2 1018:1 1020:1 1111:1 1119:1 1369:1 1425:1 1435:1 1500:1 1505:1 1620:1 1692:1 1782:1 1859:1 1933:2 1966:1 2004:1 2011:1 2143:3 2152:2 2161:1 2268:1 2353:1 2400:1 2403:3 2455:1 2458:1 2465:1 2480:1 2515:2 2523:1 2549:1 2558:2 2559:1 2675:1 2728:1 2812:1 2819:1 2868:1 2869:1 2933:1 3021:1 3030:2 3089:1 3179:1 3228:1 3255:1 3316:1 3411:1 3496:1 3530:1 3545:7 3636:2 3673:2 3685:1 3812:1 3816:1 3822:1 3845:1 3858:1 3859:1 3870:1 3929:1 3931:1 3943:1 3966:1 4061:2 4196:2 4231:1 4236:1 4443:1 4463:1 4475:1 4492:1 4505:1 4523:5 4544:1 4584:2 4586:1 4670:1 4672:1 #
0.0072482894516028001 164:1 464:1 560:1 632:1 633:2 650:1 662:2 692:1 748:1 860:1 954:1 1022:1 1055:1 1094:1 1199:1 1271:1 1342:2 1435:1 1439:1 1754:1 1768:1 1835:1 1966:2 2001:1 2014:1 2046:1 2074:1 2331:1 2353:1 2454:1 2458:1 2523:1 2543:1 2759:1 2794:1 2819:1 2923:1 2952:1 2964:1 3107:1 3116:1 3255:1 3316:1 3352:1 3362:1 3545:4 3581:1 3604:1 3624:1 3648:1 3673:2 3796:2 3839:1 3966:2 3998:1 4079:1 4199:1 4263:1 4264:1 4302:1 4329:1 4340:1 4478:1 4505:1 4523:8 4546:1 4572:1 4607:2 4659:1 4666:1 4697:1 #
0.0088707099149721389 6:1 60:1 94:1 187:1 193:1 219:1 276:1 392:1 429:1 517:2 524:2 560:1 577:2 615:1 633:1 650:1 673:1 735:1 748:2 781:1 874:1 1033:1 1080:1 1174:1 1510:1 1607:1 1635:1 1664:1 1710:1 1711:1 1714:1 1738:1 1768:1 1782:2 1822:1 1867:1 1881:1 1933:2 1966:2 2127:1 2143:2 2148:1 2150:1 2154:1 2161:1 2179:1 2458:1 2483:1 2492:1 2530:1 2546:1 2767:1 2814:1 2819:1 2829:3 2845:1 2878:1 2947:2 2964:1 3033:1 3051:1 3056:1 3089:1 3169:1 3228:1 3318:1 3361:1 3437:2 3471:1 3475:1 3513:1 3545:6 3613:1 3673:3 3725:1 3769:1 3816:2 3824:1 3828:1 3848:1 3924:1 3938:1 3961:1 3963:1 3966:1 4009:1 4018:1 4061:1 4073:1 4105:1 4196:1 4247:2 4263:2 4443:3 4473:1 4492:3 4523:8 4563:1 4593:1 4698:3 #
-0.0088707099149721389 96:1 219:1 397:1 459:1 474:1 611:1 642:1 930:1 957:1 1148:1 1271:1 1292:1 1593:1 1834:1 1858:1 2143:1 2353:2 2458:1 2483:1 2487:1 2834:1 3437:2 3545:1 3966:1 4200:1 4352:1 4461:1 4492:1 4512:1 4523:2 #
0.0088707099149721389 474:1 517:1 576:1 650:1 677:1 699:1 796:1 842:1 849:1 874:1 896:1 954:3 998:1 1008:1 1280:1 1342:1 1361:1 1454:1 1456:1 1524:1 1593:1 1933:1 1938:1 1966:1 1994:1 2015:1 2057:1 2074:2 2143:4 2157:1 2207:1 2272:1 2458:1 2658:1 2687:1 2819:1 2947:1 2990:1 3047:2 3089:1 3142:1 3228:1 3241:1 3318:1 3342:1 3457:1 3511:1 3545:4 3796:1 3831:1 3898:1 3907:1 3945:1 3955:1 3966:1 4090:1 4117:3 4196:1 4208:1 4231:1 4307:1 4463:1 4492:2 4523:5 4577:1 #
-0.0088707099149721389 75:1 545:1 678:1 881:1 1204:1 1425:1 1537:2 1767:1 1768:2 1790:1 2088:1 2143:3 2424:1 2458:1 2483:1 2819:1 2947:1 3005:1 3084:1 3348:1 3501:1 3520:1 3636:1 3685:1 3816:1 3945:1 3949:1 3966:1 4196:1 4231:2 4292:1 4492:1 4522:1 4523:3 4582:1 #
0.0088707099149721389 474:1 539:1 769:1 785:1 903:1 925:1 954:1 1289:1 1395:1 1564:2 1567:1 1603:1 1610:1 1681:1 1686:1 1690:1 1696:1 1835:1 1908:1 1914:1 1938:1 1994:1 2100:1 2106:1 2114:1 2139:1 2143:4 2157:1 2230:1 2353:1 2476:1 2483:1 2614:1 2698:1 2716:1 2931:1 3059:1 3142:3 3208:1 3342:1 3357:1 3704:1 3781:1 3904:1 3907:1 3966:4 4037:1 4176:1 4196:4 4199:1 4231:1 4252:1 4271:1 4492:3 4584:2 #
0.0088707099149721389 136:2 157:1 455:1 648:1 823:1 920:1 954:2 1185:1 1196:1 1280:1 1331:1 1411:1 1607:1 1608:1 1618:1 1687:1 1876:1 1897:1 1933:1 1966:1 2004:1 2018:1 2088:1 2093:1 2100:1 2143:3 2209:1 2257:1 2458:1 2487:1 2596:1 2617:1 2918:1 3142:1 3228:1 3307:1 3356:1 3501:1 3545:1 3957:2 3966:1 3970:1 4196:2 4324:1 4535:1 4676:1 #
0.0088707099149721389 94:2 327:3 411:1 492:1 567:1 645:1 662:1 729:1 845:1 908:1 1009:1 1055:1 1312:1 1435:1 1510:1 1534:1 1537:1 1558:1 1608:1 1734:1 1737:1 1747:1 1768:1 1822:1 1933:1 2287:1 2479:1 2657:1 3165:1 3262:1 3478:1 3496:1 3513:1 3640:1 3816:1 3944:1 3958:1 4208:1 4231:1 4463:1 4647:1 #
-0.0088707099149721389 485:1 633:1 650:1 902:1 1710:1 1772:1 1827:1 1966:1 2088:1 2187:1 2404:1 2458:1 2487:1 3237:1 3545:1 4492:1 4505:1 4630:1 #
-0.0088707099149721389 60:1 286:1 502:1 885:1 916:1 1076:1 1103:1 1132:1 1242:1 1435:2 1680:1 1821:1 1835:1 1966:1 2004:2 2143:3 2157:1 2208:1 2430:1 2483:1 2487:1 2558:1 2564:1 2931:1 2987:1 3037:1 3080:1 3119:1 3277:1 3411:1 3478:1 3545:1 3945:1 4196:2 4340:1 4463:1 4492:1 4535:1 4540:2 4698:1 #
-0.0088707099149721389 71:1 80:1 170:1 218:1 242:1 330:1 430:2 692:1 719:1 788:1 823:2 986:2 1015:1 1146:1 1384:1 1412:1 1425:0 1583:1 1622:1 1711:1 1768:3 1834:2 1858:1 2004:1 2114:1 2143:2 2152:1 2257:1 2396:1 2783:1 2812:1 2873:1 2874:1 2910:1 2919:1 2947:1 2952:1 3117:1 3128:1 3350:1 3356:1 3475:1 3501:1 3545:2 3777:1 3782:1 3873:1 3955:1 3963:1 3966:3 4001:1 4012:1 4097:1 4117:1 4271:1 4314:1 4327:1 4334:1 4423:1 4469:1 4505:2 4512:1 4523:2 4540:1 4581:1 4634:1 #
-0.0088707099149721389 8:1 191:3 290:1 367:1 524:1 577:1 648:1 748:2 890:1 954:2 998:1 1299:1 1312:1 1456:1 1664:1 1933:3 1938:1 1966:1 2143:3 2157:1 2194:1 2324:1 2453:1 2487:1 2505:1 2691:1 2794:1 2929:1 2931:2 2954:1 2990:1 3021:2 3160:1 3228:1 3229:3 3342:1 3371:1 3646:1 3868:1 3870:1 3945:1 3966:1 4060:1 4090:1 4167:1 4196:5 4208:1 4319:1 4324:1 4429:1 4440:1 4523:3 4586:1 #
0.0088707099149721389 36:1 56:1 214:1 409:1 611:1 633:1 694:1 710:1 748:1 954:1 998:2 1188:1 1264:1 1294:1 1356:1 1474:1 1515:1 1608:2 1635:1 1903:1 1933:1 1966:1 2022:1 2029:1 2088:1 2143:2 2154:1 2236:1 2282:1 2349:1 2411:1 2432:1 2465:2 2639:1 2726:1 2794:2 2819:1 2829:5 2951:1 2973:1 3047:1 3088:1 3142:1 3223:1 3228:1 3277:1 3318:1 3350:1 3356:1 3357:1 3501:1 3545:5 3607:1 3640:1 3769:1 3794:1 3945:1 3966:1 4061:1 4208:1 4351:1 4383:1 4440:1 4492:2 4523:7 4667:1 #
0.0088707099149721389 94:2 155:1 191:1 349:1 524:1 537:1 541:1 611:1 631:1 650:1 694:1 699:1 756:1 763:1 920:1 954:1 998:2 1060:1 1121:1 1361:1 1368:1 1411:1 1594:1 1603:1 1608:1 1610:1 1640:1 1710:1 1768:1 1782:1 1822:1 1933:2 1982:1 2100:2 2143:5 2351:1 2353:1 2367:1 2403:1 2432:1 2464:1 2479:1 2487:1 2505:1 2546:1 2570:1 2583:1 2657:2 2675:1 2716:1 2819:2 2867:1 2869:1 2880:1 2890:1 2914:1 2952:1 3021:1 3034:1 3089:1 3172:1 3193:1 3228:1 3360:1 3513:1 3530:1 3545:7 3607:1 3666:1 3725:1 3738:1 3809:1 3888:1 3906:1 3958:1 3966:1 4009:1 4061:1 4199:1 4270:2 4330:1 4340:1 4443:1 4463:1 4492:3 4505:1 4523:5 4535:1 4544:1 4590:1 4641:1 4667:1 4670:1 #
-0.0088707099149721389 560:1 577:1 633:2 650:3 799:1 1148:1 1461:1 1630:1 1683:1 1768:1 1859:1 1881:1 1993:1 2369:1 2487:1 2796:1 3165:1 3172:2 3310:1 3457:1 3539:1 3545:3 3781:1 3796:1 3816:1 4330:1 4523:1 4675:1 #
-0.0088707099149721389 187:1 349:1 560:1 611:1 645:1 879:1 930:1 942:1 1095:1 1135:1 1138:1 1148:1 1191:1 1299:1 1772:1 1933:3 2143:2 2483:1 2487:1 2554:1 2829:1 3181:2 3214:1 3220:1 3350:1 3545:3 3649:1 3673:2 3738:1 3816:1 4134:1 4302:1 4404:1 4492:6 4523:7 4564:1 #
-0.0088707099149721389 155:1 392:1 435:1 823:1 885:2 1242:1 1267:1 1356:0 1380:1 1596:1 1640:1 1655:1 1768:1 2143:3 2199:1 2235:1 2483:1 2577:1 2794:1 2819:2 2931:1 3437:1 3545:1 3957:1 4196:1 4228:1 4378:1 4492:3 4523:3 4672:1 4698:1 #
0.0088707099149721389 524:1 580:1 672:1 769:1 831:1 1299:1 1312:1 1534:1 1603:1 1654:1 1768:1 1881:1 1938:1 1966:1 2143:2 2458:1 2461:1 2523:1 3297:1 3356:1 3545:1 3966:1 4098:1 4196:2 4231:1 4243:1 #
0.0088707099149721389 404:1 429:1 493:1 545:1 759:1 954:1 966:1 991:1 1055:1 1128:1 1148:1 1271:0 1339:1 1361:1 1476:1 1524:1 1603:1 1627:1 1635:1 1892:1 1933:1 2004:1 2020:1 2028:1 2142:1 2207:1 2325:2 2347:1 2487:1 2564:1 2572:1 2617:1 2627:1 2630:1 2650:1 2794:1 2843:1 2869:1 2918:1 2947:1 3155:1 3538:1 3663:1 3673:1 3816:2 3945:2 3966:1 4081:1 4231:1 4264:1 4272:1 4307:1 4383:1 4389:2 4522:1 4523:2 4564:1 #
0.0088707099149721389 6:1 60:1 94:1 155:1 191:1 501:1 517:1 524:1 650:2 676:1 864:1 938:1 1055:1 1086:1 1095:2 1197:1 1226:2 1271:1 1340:1 1556:1 1628:1 1676:1 1710:1 1858:1 1886:1 1994:1 2029:1 2048:1 2088:1 2143:3 2150:1 2154:1 2249:1 2353:1 2380:1 2411:1 2430:1 2446:1 2577:1 2698:2 2712:1 2726:2 2741:2 2953:1 3089:1 3116:1 3241:1 3285:3 3370:1 3457:1 3463:2 3478:1 3541:1 3545:1 3575:2 3673:3 3924:1 3955:1 4121:2 4144:1 4231:1 4267:1 4282:1 4339:1 4467:1 4492:2 4523:1 4544:2 4572:1 4607:1 4626:1 #
-0.0079920662430119343 48:1 155:2 285:1 316:1 429:1 435:1 473:1 560:1 611:2 662:1 667:1 673:1 904:1 930:1 938:1 954:1 998:1 1015:1 1033:1 1052:1 1055:1 1086:1 1249:1 1267:1 1282:1 1291:1 1372:1 1452:1 1474:1 1512:1 1539:2 1571:1 1626:1 1853:2 1916:1 1932:2 1994:1 2004:3 2056:1 2097:1 2143:2 2287:1 2314:2 2347:1 2428:1 2444:1 2458:1 2502:1 2577:1 2591:1 2599:1 2619:1 2684:1 2685:1 2741:1 2829:3 2931:1 2947:3 2968:1 3014:1 3071:1 3084:1 3147:1 3197:1 3246:1 3296:1 3433:1 3437:1 3463:1 3478:2 3529:1 3545:5 3578:1 3601:1 3636:1 3673:5 3945:1 3966:3 4009:1 4061:1 4090:1 4177:1 4196:1 4247:1 4523:3 4544:1 4665:1 4698:2 #
-0.0045925004560279778 94:1 146:1 183:1 187:2 219:1 242:1 262:1 285:2 354:1 363:1 522:1 524:1 577:1 748:2 842:1 846:1 877:2 1052:1 1135:1 1174:1 1356:0 1375:1 1430:1 1602:1 1653:1 1744:1 1822:2 1834:2 2143:2 2252:1 2412:2 2487:1 2505:1 2706:1 2728:3 2736:2 2819:2 2829:1 2918:1 2947:1 2990:1 3021:1 3116:1 3199:1 3255:1 3290:1 3342:2 3402:1 3545:4 3607:1 3642:1 3664:1 3966:2 4134:1 4202:1 4231:1 4254:3 4314:2 4523:2 4576:1 4584:1 #
-0.0088707099149721389 6:1 94:3 155:1 219:1 316:1 367:1 392:1 502:1 517:1 650:1 694:1 860:1 926:1 954:1 998:1 1037:1 1158:1 1167:1 1411:1 1492:1 1653:1 1682:1 1684:1 1933:2 1938:1 2143:2 2250:1 2363:1 2505:1 2518:1 2684:1 2741:1 2794:1 2829:3 2947:2 3142:1 3318:1 3463:1 3545:4 3725:1 3868:1 3884:1 3915:1 3994:1 4005:1 4009:1 4118:1 4231:1 4447:1 4492:3 4495:1 4523:2 4535:1 4607:1 4641:1 4698:1 #
-0.0088707099149721389 94:1 459:1 517:1 587:1 642:1 771:1 1190:1 1474:1 1537:2 1608:1 1822:1 1835:1 1934:1 1938:3 1966:1 1994:1 2084:1 2313:1 2479:1 2487:1 2523:1 2694:1 2724:1 2741:1 2819:1 2931:1 2947:1 2975:1 3264:1 3287:1 3545:1 3649:1 3665:1 3755:1 3945:1 3966:1 4314:1 4492:1 4523:2 4635:1 4698:1 #
-0.00041484917183625975 6:1 103:1 219:1 418:2 533:1 617:1 648:1 650:1 719:1 856:1 874:1 930:1 934:1 939:1 942:1 966:1 1055:1 1080:1 1095:1 1138:1 1223:1 1348:1 1372:1 1406:1 1428:1 1435:1 1438:1 1439:1 1471:1 1486:1 1623:1 1694:1 1714:1 1902:1 1966:1 2084:2 2119:1 2143:1 2179:1 2206:1 2246:1 2331:1 2363:1 2384:1 2393:1 2419:1 2458:1 2505:2 2564:1 2728:1 2741:1 2759:1 2762:1 2819:1 2880:1 2952:1 2964:1 3112:1 3122:1 3178:1 3181:1 3302:1 3355:1 3463:1 3471:1 3484:1 3501:1 3513:1 3545:2 3570:1 3673:3 3721:2 3873:1 3900:1 3954:1 3957:1 3963:1 4017:1 4169:1 4173:2 4196:1 4292:1 4302:1 4307:1 4492:2 4523:4 4544:1 4563:3 4661:1 4687:1 4715:3 4716:1 #
0.0023061635264328474 316:1 348:1 354:1 390:1 433:1 434:1 492:1 590:1 692:1 781:1 823:1 882:1 1015:1 1075:1 1095:1 1174:1 1280:1 1281:1 1342:1 1356:1 1357:1 1372:1 1439:1 1455:1 1535:1 1555:1 1607:1 1640:2 1655:2 1758:1 1781:1 1808:1 1835:1 1859:1 1866:1 1926:1 1933:1 1966:3 2074:2 2143:5 2157:1 2187:1 2264:1 2301:2 2325:1 2336:1 2385:1 2432:2 2487:2 2505:1 2564:1 2572:1 2577:2 2638:2 2662:1 2754:1 2800:1 2912:1 2990:1 3089:1 3117:1 3163:1 3235:1 3265:1 3316:1 3318:2 3362:1 3467:1 3478:1 3545:2 3600:2 3615:1 3658:1 3672:1 3673:2 3778:1 3896:1 3898:1 3966:2 4030:1 4037:1 4060:1 4090:1 4144:1 4196:2 4263:1 4324:2 4383:1 4443:1 4463:1 4492:2 4512:1 4523:10 4544:1 4582:1 4634:1 4676:1 #
-0.0088707099149721389 85:1 152:1 313:1 418:1 423:1 458:1 517:1 524:2 562:1 597:1 645:1 648:1 748:1 781:3 860:1 874:2 938:1 954:1 998:1 1052:1 1271:1 1380:1 1433:1 1515:2 1551:3 1561:1 1570:1 1667:1 1731:1 1768:3 1781:1 1782:2 1843:1 1938:2 1939:1 1966:2 2004:1 2074:1 2088:1 2091:1 2092:1 2118:1 2143:1 2171:2 2209:1 2331:1 2353:1 2500:1 2698:2 2741:1 2819:1 2880:1 2929:1 2975:1 3099:1 3173:1 3223:1 3241:1 3255:1 3356:1 3429:1 3496:1 3545:4 3599:1 3721:3 3776:1 3905:1 3959:1 3961:1 3966:2 4090:1 4109:1 4208:2 4231:1 4247:1 4254:1 4383:1 4473:1 4492:3 4505:1 4523:7 4556:1 4583:1 4607:3 4609:1 #
-0.0088707099149721389 349:1 354:1 405:1 429:1 452:1 502:2 517:1 567:1 595:1 675:1 759:1 998:2 1356:0 1435:1 1687:1 1689:1 1768:1 1772:1 1852:1 1911:1 1966:1 2074:1 2143:2 2209:1 2411:2 2479:1 2483:2 2487:1 2515:1 2657:1 2786:1 2819:2 2829:3 2952:1 2987:1 3208:1 3285:1 3371:1 3545:1 3572:1 3637:1 3753:1 3893:1 3945:1 4009:1 4013:1 4087:1 4291:1 4492:2 4505:1 4523:7 4535:2 4564:1 4593:1 #
-0.0068777214357579625 6:1 155:1 191:1 385:1 414:1 595:1 650:3 704:1 926:1 938:1 954:3 967:1 998:4 1015:1 1055:1 1137:1 1231:1 1271:2 1342:1 1415:1 1417:1 1615:1 1640:1 1710:1 1714:1 1774:1 1799:1 1817:1 1875:1 1933:1 1938:3 1966:1 2048:1 2056:1 2143:7 2154:1 2157:1 2171:1 2366:1 2368:1 2369:1 2458:1 2480:1 2535:2 2550:1 2675:1 2736:1 2786:2 2803:1 2829:4 2908:1 2990:1 3089:1 3255:1 3318:1 3356:1 3358:1 3362:1 3457:1 3496:1 3513:1 3521:1 3545:6 3556:1 3592:1 3705:1 3718:1 3755:1 3781:1 3816:1 3871:1 3888:1 3897:1 3966:3 4138:1 4183:1 4196:2 4208:1 4229:1 4247:1 4282:1 4366:1 4505:1 4523:5 4540:1 4607:1 4675:1 4680:1 #
0.0088707099149721389 502:1 611:2 842:1 965:1 1492:1 1835:1 1994:1 2075:1 2142:1 2479:1 2705:1 3094:1 3318:1 3545:1 3898:1 3945:1 4183:1 4492:1 4586:1 4617:1 4642:1 #
0.0088707099149721389 316:1 383:1 476:1 645:1 710:1 748:1 954:2 986:1 1271:1 1294:1 1597:1 1637:1 1712:1 1822:1 2100:1 2143:1 2152:1 2458:1 2483:1 2520:1 2931:2 3030:1 3478:1 3545:2 3725:1 3738:1 3796:1 3816:1 3868:1 3915:1 3966:1 4068:1 4231:1 4292:1 4443:1 4535:1 4634:1 4660:1 #
0.0088707099149721389 392:1 662:1 673:1 1033:1 1059:1 1271:1 1342:1 1435:1 1456:1 1835:1 2088:1 2100:1 2123:1 2237:1 2260:1 2525:1 2715:1 3107:2 3228:1 3521:1 3545:1 3673:2 3725:1 3893:1 3907:1 3966:2 4079:1 4196:1 4203:1 4231:1 4235:1 4523:1 4529:1 4530:1 4544:1 4698:1 #
-0.0088707099149721389 316:1 430:1 455:1 890:1 919:1 1070:1 1346:1 1356:1 1492:1 1709:1 1866:1 1921:1 1994:2 2128:1 2143:2 2223:1 2318:1 2445:1 2548:1 2572:1 2620:1 2953:1 3047:3 3213:1 3275:1 3362:1 3379:1 3427:1 3496:1 3650:1 3673:3 3773:1 3778:2 3945:1 3955:1 3966:2 3991:1 4196:2 4200:1 4383:1 4463:1 4473:2 4485:1 4523:2 4677:1 4687:1 #
0.0079086104608449784 139:1 155:1 214:1 367:1 455:1 471:1 517:1 577:2 590:1 599:1 611:1 633:1 648:1 650:1 699:1 735:1 781:1 820:1 842:2 930:1 938:1 954:1 959:1 998:1 1020:1 1024:1 1055:1 1077:1 1167:1 1223:1 1356:0 1512:1 1515:1 1551:1 1603:2 1607:1 1686:1 1687:1 1768:1 1798:1 1822:1 1832:1 1833:1 1835:1 1938:1 1966:1 1978:1 2015:1 2026:1 2053:1 2056:1 2059:1 2074:1 2143:6 2149:1 2353:1 2380:1 2384:2 2403:1 2483:1 2523:1 2577:2 2684:1 2787:1 2819:1 2829:2 2947:1 3047:1 3089:1 3107:1 3129:1 3165:1 3225:1 3229:1 3250:1 3255:1 3318:1 3320:1 3352:1 3371:1 3478:1 3501:2 3545:6 3564:1 3605:1 3781:1 3966:4 3998:1 4061:1 4176:1 4196:2 4200:1 4264:1 4271:1 4307:1 4443:1 4463:1 4492:2 4523:5 4544:1 4572:1 4607:1 4614:1 4622:2 4696:2 4700:1 #
-0.0088707099149721389 71:1 318:1 569:1 609:1 623:1 759:1 857:1 883:1 954:1 1060:1 1069:1 1280:1 1456:1 1505:1 1572:1 1593:1 1639:1 1747:1 1782:1 1933:2 1966:1 2003:1 2143:1 2544:1 2625:1 2639:1 2819:1 2869:1 2871:1 2931:1 2947:1 2981:1 3107:1 3225:1 3228:1 3342:1 3469:1 3478:3 3545:5 3673:2 3769:1 3966:3 4066:1 4128:1 4196:2 4231:1 4271:1 4463:1 4464:1 4475:1 4492:1 4523:6 4564:2 4584:1 4698:1 #
-0.0055843648184078073 350:1 361:1 502:1 529:1 541:1 590:1 633:1 650:1 654:1 748:1 769:2 799:1 921:2 1033:3 1055:2 1125:1 1271:2 1278:1 1342:1 1356:2 1405:1 1603:1 1745:2 1766:1 1858:1 1859:1 1873:1 2033:1 2074:1 2128:1 2143:2 2154:4 2298:1 2353:2 2366:1 2393:1 2430:1 2444:1 2458:1 2480:2 2487:1 2572:1 2610:1 2726:1 2797:1 2879:1 2881:1 2919:1 2964:1 3089:1 3124:1 3129:1 3147:1 3255:1 3320:1 3342:1 3457:2 3545:2 3571:1 3607:2 3673:1 3777:1 3803:1 3851:2 3910:1 3915:1 4061:1 4081:1 4128:1 4199:1 4231:1 4463:1 4492:2 4505:1 4523:5 4544:1 4564:1 4581:1 4584:1 4659:1 #
0.0088707099149721389 191:1 435:1 502:1 640:1 642:1 729:2 986:1 998:1 1026:1 1478:1 1512:1 1645:1 1794:1 1927:1 2058:1 2093:1 2105:1 2143:2 2230:1 2353:1 2472:1 2487:1 2931:1 2947:1 3114:1 3215:1 3292:1 3371:1 3513:3 3584:1 3945:1 4282:1 4288:1 4440:1 #
0.0088707099149721389 433:1 772:1 785:1 986:1 2143:1 2206:1 2396:1 2487:1 2657:1 2878:1 3255:1 3545:1 3673:1 4175:1 4196:1 4492:1 4505:2 4523:1 #
0.0088707099149721389 430:1 611:1 781:1 998:1 1030:1 1055:1 1141:1 1822:1 2393:1 2487:1 2577:1 2786:1 3142:1 3478:1 3944:1 3966:1 4523:1 #
-0.0088707099149721389 191:1 492:1 633:1 694:1 775:1 781:1 815:1 842:1 954:6 998:1 1068:1 1342:1 1447:1 1462:1 1627:1 1639:1 1687:1 1768:1 1876:1 1994:1 2015:1 2017:1 2044:1 2100:7 2143:2 2257:2 2458:2 2500:1 2819:2 2829:1 2845:1 2947:1 3039:1 3142:1 3223:1 3277:2 3545:2 3817:1 3945:1 3957:1 3966:4 4061:1 4081:1 4196:2 4231:1 4235:1 4252:1 4340:1 4492:1 4523:2 4572:1 #
-0.0083553772627936555 349:1 459:1 560:3 590:2 623:1 915:1 987:1 1102:1 1121:1 1267:1 1280:6 1800:2 1844:2 1966:2 2143:1 2353:1 2564:1 2577:1 2890:1 2947:2 3059:1 3089:1 3116:1 3194:1 3268:1 3463:1 3501:1 3545:2 3584:1 3607:1 3654:1 3673:1 3816:1 4160:2 4307:1 4582:2 #
-0.0088707099149721389 150:1 418:1 516:1 748:1 842:1 954:1 967:1 1002:1 1077:1 1109:1 1158:1 1249:1 1492:1 1551:1 1607:1 1640:1 1886:1 1933:1 2100:1 2143:3 2487:1 2577:1 2627:1 2990:1 3277:1 3673:1 3861:1 3966:1 4093:1 4196:1 4238:1 4272:1 4512:1 4632:1 #
-0.0088707099149721389 48:1 55:1 56:1 318:1 373:1 438:2 645:1 648:1 970:1 1122:1 1143:1 1148:1 1542:1 1620:1 1768:3 2083:1 2143:2 2208:1 2214:1 2313:1 2358:1 2464:1 2487:1 2523:1 2829:3 2844:2 2929:1 3242:1 3318:1 3419:1 3501:2 3767:1 3774:2 3796:1 3797:1 3888:1 3890:1 3945:2 3966:2 4009:1 4196:1 4292:1 4314:1 4475:1 4523:4 4553:1 4659:2 4687:1 #
-0.0088707099149721389 191:1 377:1 478:1 1180:1 1280:1 1299:1 1598:1 1620:1 1710:1 1858:1 1966:2 2136:1 2143:2 2313:1 2458:2 2487:2 2596:0 2931:1 2954:1 3208:1 3254:1 3545:2 3581:1 3607:1 3816:1 3868:0 3957:1 3966:1 4196:2 4451:1 4463:1 4544:1 4613:1 4667:1 #
0.0061384631662273976 480:1 519:1 524:1 533:1 550:1 631:1 650:1 676:1 938:1 998:3 1055:1 1148:1 1171:1 1271:1 1342:1 1356:1 1515:1 1607:1 1635:1 1655:1 1675:1 1677:1 1703:1 1775:1 1835:1 1858:1 1933:1 2143:1 2150:1 2154:1 2209:1 2396:1 2404:1 2483:1 2505:2 2523:1 2609:1 2645:1 2657:1 2679:1 2716:1 2783:2 2829:1 2947:1 3047:1 3107:1 3128:2 3129:1 3255:1 3273:1 3320:1 3342:1 3447:1 3463:1 3478:1 3496:1 3545:2 3824:1 3851:1 3966:2 4148:1 4231:1 4238:1 4360:1 4435:1 4505:1 4523:4 4528:1 4593:1 4607:1 4672:1 #
0.0088707099149721389 77:1 210:1 284:1 314:1 367:1 633:0 642:1 756:1 781:1 954:1 1082:1 1095:1 1611:1 1681:1 1734:1 1757:1 1768:1 1782:1 1832:1 1885:1 1893:1 1933:1 1936:1 2059:1 2074:1 2363:1 2487:1 2741:1 2829:1 2947:2 3150:1 3232:1 3342:1 3478:1 3496:1 3545:1 3673:1 3812:0 3966:1 3972:1 3981:1 4128:1 4196:1 4221:1 4316:1 4330:1 4340:1 4492:4 4518:1 4523:8 4528:1 4564:1 4676:1 #
-0.0088707099149721389 94:1 172:1 176:1 207:1 242:1 262:1 316:1 439:1 463:1 483:1 485:2 500:1 515:1 633:1 650:6 696:1 711:2 712:2 821:2 842:1 860:1 938:1 970:1 997:1 998:2 1024:2 1055:1 1067:2 1095:1 1109:1 1119:1 1268:2 1271:2 1356:0 1435:1 1492:1 1537:2 1574:1 1607:1 1608:1 1620:1 1633:1 1677:2 1681:1 1686:1 1707:1 1768:2 1787:1 1822:2 1966:1 2101:1 2115:1 2143:3 2171:2 2209:1 2340:1 2353:1 2384:1 2396:1 2458:1 2483:1 2487:1 2500:1 2515:1 2523:1 2612:1 2680:1 2783:1 2788:1 2793:1 2819:1 2918:1 2947:1 2975:1 3047:2 3071:1 3128:1 3142:1 3179:3 3218:1 3303:1 3350:1 3437:1 3478:1 3496:1 3501:1 3545:4 3698:2 3755:1 3784:1 3873:1 3966:1 4111:2 4117:2 4170:1 4176:1 4196:2 4314:1 4336:1 4379:1 4381:1 4392:1 4492:1 4502:1 4505:2 4523:7 4528:1 4535:1 4544:1 4622:1 4667:1 #
-0.0088707099149721389 94:1 349:1 502:1 553:1 590:1 633:1 650:2 748:1 842:1 886:1 1004:1 1384:1 1445:1 1966:1 2056:1 2142:1 2143:1 2157:1 2162:1 2227:1 2283:1 2458:1 2487:1 2515:1 2596:1 2638:1 2829:2 2844:2 2896:1 2952:1 3056:1 3226:1 3310:2 3316:1 3371:1 3509:1 3542:1 3545:2 3738:1 3818:1 3935:1 4196:1 4199:1 4231:1 4307:1 4340:2 4378:1 4409:1 4418:1 4463:1 4489:1 4492:2 4523:7 4564:1 4659:1 4671:1 #
-0.0088707099149721389 34:1 198:1 320:1 325:1 331:1 600:1 706:1 1045:1 1046:1 1082:1 1264:1 1443:1 1537:1 1574:1 1620:1 1768:1 2041:1 2072:1 2136:1 2143:2 2152:1 2325:1 2454:1 2458:1 2465:1 2483:1 2487:1 2505:1 2518:1 2691:1 2819:1 3129:1 3165:1 3381:1 3478:1 3496:1 3545:2 3725:1 3781:1 3816:1 3945:1 3966:1 3982:1 4196:1 4404:1 4492:4 4523:6 4540:1 4630:1 #
0.0088707099149721389 380:2 429:1 517:1 569:1 842:1 954:2 967:1 1001:1 1069:1 1127:1 1264:1 1582:1 1635:2 1653:1 1819:1 1835:1 1852:1 2002:1 2004:2 2015:1 2143:6 2204:1 2353:1 2422:1 2431:1 2476:1 2515:1 2518:1 2524:1 2575:1 2698:1 2767:1 2812:3 2964:1 3159:1 3164:1 3320:1 3331:1 3348:1 3501:2 3673:1 3897:1 3945:1 3961:1 3966:1 4056:1 4176:1 4196:1 4231:1 4270:1 4292:1 4307:1 4465:1 4498:1 4522:2 4523:2 #
-0.0088707099149721389 155:1 219:1 455:1 524:1 577:1 885:1 926:1 1158:1 1289:1 1350:1 1380:1 1411:1 1445:1 1452:1 1574:1 1602:1 1635:2 1642:2 1698:1 1932:1 2004:1 2061:1 2115:2 2143:2 2367:1 2458:1 2493:2 2527:1 2577:1 2693:1 2812:1 2829:1 2907:1 3107:1 3228:1 3342:2 3362:1 3578:1 3673:1 3685:2 3725:1 3790:1 3812:1 3918:1 3957:1 3966:3 4021:1 4137:2 4196:3 4199:1 4231:1 4292:1 4316:1 4328:1 4440:1 4492:1 4696:1 #
-0.0088707099149721389 282:1 327:1 403:1 547:1 643:1 650:1 738:1 826:1 1019:1 1024:1 1132:1 1148:1 1593:1 1710:1 1953:1 2053:1 2143:3 2165:1 2209:1 2388:1 2400:1 2458:1 2464:2 2474:1 2487:1 2506:1 2518:1 2716:1 2844:1 2983:1 3063:1 3080:1 3381:1 3501:1 3513:1 3545:2 3776:1 3777:1 3966:2 3996:2 4173:1 4196:2 4286:1 4492:1 4505:1 4540:1 4542:1 4653:1 #
-0.0088707099149721389 455:1 648:2 694:1 779:1 874:2 936:1 1356:0 1369:1 1639:1 1681:1 1838:1 1893:1 1900:2 1966:1 2001:1 2143:8 2500:1 2515:1 2577:1 2728:1 3047:3 3122:1 3139:1 3545:1 3607:1 3777:1 3916:2 3966:1 4196:1 4199:1 4236:1 4523:1 4535:3 4586:1 4607:1 4676:1 #
-0.0025508646715263761 94:1 155:1 262:1 285:1 392:1 502:1 528:1 560:1 567:1 608:1 633:2 662:1 729:3 739:1 781:1 820:1 853:2 921:1 954:2 986:1 1033:1 1050:1 1086:1 1087:1 1095:1 1215:1 1249:1 1321:2 1380:1 1435:2 1455:1 1579:1 1635:2 1640:2 1643:1 1731:1 1732:1 1752:1 1768:1 1779:1 1808:1 1822:1 1824:1 1933:1 1994:4 2015:1 2025:1 2143:3 2152:1 2468:2 2483:1 2487:1 2505:1 2506:1 2581:1 2640:1 2645:1 2657:1 2716:1 2788:1 2818:1 2829:1 2846:1 2918:1 2939:1 2947:2 2953:1 2963:1 3030:1 3056:1 3059:1 3160:1 3167:1 3214:1 3225:1 3239:2 3252:1 3277:1 3285:3 3445:1 3475:1 3521:4 3545:6 3561:1 3673:1 3678:1 3683:1 3711:2 3764:1 3792:1 3816:1 3855:1 3958:1 3966:3 4183:1 4196:1 4208:1 4240:1 4247:1 4270:2 4307:1 4392:1 4400:1 4463:1 4505:4 4523:7 4535:1 4635:1 4641:1 4659:1 4667:1 4672:1 4698:2 #
-0.0028902844623012501 173:1 337:1 375:1 567:1 611:1 623:1 633:1 694:1 842:1 885:1 954:2 1015:1 1069:1 1174:1 1251:1 1456:1 1463:1 1492:1 1635:3 1747:1 1933:2 2088:1 2143:4 2465:1 2487:1 2505:2 2546:1 2577:1 2657:1 2786:1 2794:1 2820:1 2829:1 2880:1 2881:1 2931:1 2933:1 2947:1 3005:1 3071:1 3097:1 3142:1 3164:1 3191:1 3228:3 3307:2 3320:2 3357:2 3383:1 3521:1 3545:3 3711:1 3767:2 3845:1 4066:1 4200:1 4231:1 4270:1 4292:1 4340:1 4523:6 4535:2 4584:1 4590:1 4690:1 #
-0.0088707099149721389 327:1 455:1 471:1 490:1 577:1 613:1 694:1 748:1 842:3 908:1 938:1 1028:1 1033:1 1095:1 1123:1 1167:2 1196:1 1271:1 1351:1 1362:1 1369:1 1492:1 1647:1 1822:1 1898:1 2114:1 2148:1 2150:4 2257:1 2287:1 2342:1 2462:1 2502:1 2535:1 2615:1 2829:1 2880:1 2947:1 2952:1 2974:1 2987:1 3142:1 3371:1 3545:5 3673:1 3725:1 3958:1 3966:2 4334:1 4365:1 4523:4 4535:1 4540:1 4580:1 4641:1 4667:1 #
0.0045460395348363124 439:1 502:3 550:2 611:1 633:1 650:1 692:2 785:1 842:1 966:1 986:1 992:1 1055:2 1342:1 1536:1 1752:2 1859:1 1938:1 2004:1 2024:1 2143:2 2174:1 2396:1 2458:1 2483:1 2523:1 2726:1 2787:1 2819:2 2829:1 2952:1 3208:1 3292:1 3356:1 3521:1 3545:1 3689:1 3699:1 3776:1 3795:1 3897:2 3966:1 4174:1 4272:1 4492:2 4505:1 4564:1 4667:2 #
0.0088707099149721389 595:1 694:1 842:1 1068:1 1312:1 1478:1 1620:1 2143:2 2436:1 2487:1 2523:1 2550:1 2596:1 2675:1 2829:1 3097:1 3301:1 3307:1 3711:1 3966:1 4081:1 4314:1 4535:1 4617:1 #
0.0088707099149721389 475:1 998:1 1095:1 1342:1 1439:1 1603:1 1665:1 2154:1 2819:1 3159:1 3496:1 3545:1 3781:1 3945:1 3966:2 3989:1 4137:2 4345:1 4492:1 4523:1 4584:1 4659:1 #
0.0088707099149721389 7:1 48:1 316:1 353:1 387:1 502:1 650:2 1015:1 1055:1 1252:1 1265:1 1268:1 1515:1 1597:1 1661:0 1772:1 1835:1 2004:2 2093:1 2143:3 2458:1 2487:1 2505:1 2523:1 2819:1 2980:1 3310:1 3371:1 3545:2 3613:1 3725:1 3750:1 3796:1 3800:1 3817:1 3898:1 3945:1 4137:1 4187:1 4492:2 4523:1 #
-0.0088707099149721389 144:1 164:1 413:1 626:1 648:1 650:1 821:1 998:1 1052:1 1077:1 1174:1 1197:1 1210:1 1356:0 1457:1 1473:1 1516:1 1834:1 1931:1 1938:2 2011:1 2115:1 2120:1 2143:2 2316:1 2775:1 2829:1 3415:1 3668:2 3966:3 4073:1 4123:1 4196:1 4523:1 4676:1 #
-0.0088707099149721389 571:1 781:1 998:1 1052:1 1114:1 1249:1 1294:1 1342:1 1356:1 1822:1 1933:1 2143:2 2369:1 2444:1 2572:1 2918:1 2940:1 2947:1 3255:2 3310:1 3463:1 3495:1 3545:2 3961:1 3966:1 4061:2 4118:1 4160:2 4196:1 4247:1 4328:1 #
-0.0088707099149721389 315:1 332:1 418:1 455:2 464:1 524:1 527:1 648:1 650:1 662:1 934:1 1082:1 1242:1 1325:1 1627:1 1710:1 1773:1 1896:1 2025:1 2029:1 2074:1 2154:1 2174:1 2422:1 2458:1 2799:1 3037:1 3081:1 3129:2 3158:1 3357:1 3513:1 3673:1 3767:1 3796:2 3804:1 3966:1 4085:1 4247:1 4523:0 4540:1 #
-0.0088707099149721389 430:1 517:1 590:1 667:1 1055:0 1095:1 1249:2 1294:1 1340:1 1342:1 1438:1 1640:1 1734:1 1938:1 1973:1 2073:2 2143:1 2185:1 2273:1 2353:1 2432:2 2444:1 2754:1 2931:1 3074:1 3145:1 3181:1 3475:1 3545:1 3673:2 3868:1 3966:1 4144:1 4465:1 4492:2 4523:3 4535:1 4593:2 #
0.0080678398128028114 48:1 214:1 276:1 348:1 537:1 550:1 633:1 650:2 739:1 823:1 843:1 874:1 921:2 998:1 1029:2 1055:1 1080:1 1092:1 1177:1 1254:1 1271:1 1299:1 1342:1 1510:1 1603:1 1620:1 1686:1 1707:2 1782:1 1822:1 1886:1 1933:1 1938:1 2018:1 2040:1 2127:1 2174:2 2287:2 2349:1 2384:1 2403:2 2430:1 2483:1 2577:1 2813:1 2829:1 2918:1 2947:2 3021:1 3047:1 3142:1 3159:1 3229:1 3478:1 3521:1 3545:3 3588:1 4037:1 4196:1 4505:1 4523:7 4572:1 4650:1 #
0.0051179667499740228 433:1 458:1 648:1 650:2 692:1 954:1 986:1 1052:1 1055:1 1312:1 1361:1 1415:1 1456:1 1537:1 1603:1 1607:1 1692:1 1699:1 1733:1 1740:1 1835:1 1933:1 2143:2 2347:1 2487:1 2523:1 2550:1 2577:1 2675:1 2783:1 2794:1 2845:1 3128:1 3155:1 3318:1 3371:1 3545:1 3640:1 3673:1 3774:1 3930:1 3966:1 4117:3 4196:3 4231:2 4307:1 4314:1 4505:1 4523:4 4563:1 4631:1 4698:1 #
-0.0088707099149721389 519:1 633:1 650:2 657:1 694:1 754:1 967:1 992:1 1015:1 1022:1 1046:1 1299:2 1456:1 1714:1 1720:1 1815:1 1933:1 1966:1 2004:1 2143:1 2174:1 2313:1 2353:1 2358:1 2451:1 2458:2 2487:1 2537:1 2819:2 2957:1 2990:1 3129:2 3159:1 3371:1 3405:1 3545:2 3644:1 3898:1 3966:1 4208:1 4492:5 4523:5 #
-0.0088707099149721389 340:1 524:1 595:2 611:1 676:1 695:1 757:1 796:1 954:2 958:1 1033:1 1249:1 1277:1 1356:4 1384:1 1435:1 1438:1 1542:1 1710:1 1745:1 1938:1 1966:1 2029:1 2074:3 2123:1 2458:1 2523:1 2577:1 2732:3 2741:1 2947:1 2952:1 3037:1 3089:1 3234:1 3312:1 3356:1 3457:2 3673:1 3849:1 3945:2 3966:2 4199:1 4231:1 4292:1 4492:1 4523:1 4557:2 4564:1 4642:1 #
-0.0088707099149721389 181:1 408:1 439:1 478:1 633:1 654:1 692:1 902:1 930:1 1052:1 1124:1 1167:1 1356:1 1603:1 1695:1 1768:1 1822:1 1834:1 1859:1 1938:1 1966:3 2143:2 2425:1 2543:1 2555:1 2705:1 2947:1 2990:1 3037:1 3071:1 3147:1 3179:1 3545:2 3725:1 3771:1 3777:1 3816:1 3913:1 3915:1 3947:2 3966:4 4061:1 4199:1 4200:1 4231:1 4314:3 4492:1 4511:1 4523:7 4540:3 4564:1 #
-0.0088707099149721389 449:1 502:1 611:1 633:1 967:1 1109:2 1340:0 1542:1 1592:1 1651:1 1966:1 2074:1 2143:1 2157:1 2200:1 2432:1 2483:1 2515:1 2565:1 2728:1 2794:1 2819:1 2860:1 2931:1 3021:1 3119:1 3149:1 3478:1 3545:2 3583:1 3745:1 3769:1 3822:1 3825:1 3966:2 3970:1 4095:1 4163:1 4196:1 4523:6 #
0.0088707099149721389 316:1 455:1 471:1 517:1 524:1 567:1 694:1 879:1 938:1 954:2 1112:1 1135:1 1249:1 1312:1 1504:1 1512:1 1607:1 1615:1 1710:1 1866:1 1973:1 2143:5 2154:1 2171:1 2230:1 2396:1 2657:1 2786:1 2940:1 3052:1 3241:1 3271:1 3312:1 3318:2 3356:1 3371:1 3451:1 3457:2 3473:1 3673:2 3966:3 4061:3 4196:2 4206:1 4254:1 4292:1 4314:1 4492:2 4505:1 4523:2 4593:1 4659:1 #
0.0088707099149721389 167:1 330:1 463:1 517:1 748:3 1024:1 1188:1 1271:1 1312:1 1356:2 1376:1 1456:1 1505:1 1608:1 1620:1 1768:1 2143:7 2209:1 2305:1 2447:1 2564:1 2703:1 2706:0 2819:1 2829:2 3021:1 3055:1 3356:1 3475:1 3496:1 3545:2 4148:1 4238:1 4443:1 4523:2 4582:1 4584:1 #
0.0088707099149721389 307:1 439:1 563:1 580:2 710:1 748:1 2143:3 2148:1 2393:1 2487:1 2657:1 3003:1 3179:1 3307:1 3521:1 3545:2 4038:1 4208:1 4306:1 4475:1 4492:1 4523:1 #
0.0088707099149721389 94:1 242:0 276:1 455:1 459:1 517:1 729:1 748:1 849:1 938:1 993:1 1100:1 1223:1 1226:1 1299:2 1361:1 1510:1 1616:1 1714:1 1882:1 1893:1 1938:1 1966:2 1971:1 2057:2 2093:1 2116:1 2143:6 2353:1 2464:1 2487:1 2563:1 2617:1 2669:1 2829:2 2844:1 2880:1 2931:1 2961:1 3023:1 3035:1 3089:0 3142:1 3371:1 3450:1 3510:1 3545:2 3605:1 3673:1 3716:1 3816:1 4037:1 4196:1 4254:1 4378:1 4492:1 4523:3 4535:1 4540:2 4586:1 4618:0 #
-0.0088707099149721389 95:1 127:1 155:1 204:1 208:1 219:1 247:1 355:1 389:1 455:1 479:1 517:1 611:1 748:1 954:1 1094:2 1171:1 1271:1 1327:1 1356:1 1541:1 1603:1 1691:1 1822:1 1835:1 1886:1 1933:2 2004:1 2143:5 2228:1 2287:1 2349:1 2483:1 2572:1 2643:1 2683:1 2794:1 2829:1 2844:1 2845:1 2919:1 2931:1 3195:1 3357:2 3364:1 3447:1 3467:1 3478:1 3545:3 3673:1 3915:1 3945:1 3955:1 3961:1 3966:1 4196:1 4222:3 4243:1 4288:1 4292:2 4505:1 4523:2 4533:1 #
-0.0088707099149721389 524:1 537:1 633:1 650:1 1055:1 1204:1 1504:1 1515:1 1714:2 1782:1 1835:1 1933:1 2074:1 2143:4 2152:2 2209:1 2353:1 2553:1 2561:1 2829:1 2988:1 3071:1 3122:1 3235:2 3255:1 3307:1 3478:1 3545:1 3572:1 3673:3 3945:1 4196:1 4339:1 4523:4 4530:1 4622:2 4698:3 #
-0.0088592988479064601 24:1 60:1 343:1 381:1 392:1 398:1 407:1 429:1 459:2 471:1 502:1 517:1 524:2 526:1 648:1 668:1 694:1 795:1 842:1 895:1 926:1 954:1 1132:1 1143:1 1249:2 1312:1 1342:1 1356:0 1372:1 1435:1 1451:1 1537:2 1572:1 1626:1 1679:1 1763:2 1790:1 1834:1 1966:1 2004:2 2083:1 2139:1 2143:6 2230:2 2240:1 2243:1 2413:1 2483:1 2487:1 2682:1 2684:1 2698:1 2819:1 2879:1 2931:1 2947:2 2998:1 3017:1 3071:1 3089:3 3097:1 3142:1 3147:1 3356:3 3371:2 3463:1 3478:1 3501:1 3607:1 3670:1 3673:1 3725:1 3728:1 3767:1 3769:1 3815:1 3840:1 3861:1 3945:2 3949:1 3966:2 4098:1 4137:2 4196:3 4199:1 4231:1 4512:1 4523:2 4528:1 4535:2 4665:1 4698:1 #
0.0088707099149721389 59:1 297:1 433:1 438:1 672:1 694:1 757:1 998:1 1000:1 1052:1 1335:1 1342:1 1435:1 1456:1 1635:0 1724:1 1768:1 2056:1 2203:1 2221:1 2325:1 2447:1 2487:1 2571:1 2694:1 2844:1 2947:1 2952:1 3169:0 3545:1 3673:1 3966:1 4009:1 4307:1 4523:4 4696:1 #
0.00089613492061154407 7:2 211:1 218:1 403:1 423:1 497:1 611:1 692:1 738:1 910:1 923:2 954:1 986:1 1015:1 1077:0 1188:1 1424:1 1492:1 1572:1 1608:1 1610:1 1699:1 1822:1 2018:1 2143:1 2339:1 2347:1 2444:1 2458:1 2487:1 2515:1 2523:1 2550:1 2604:1 2675:1 2683:2 2783:1 3142:1 3223:1 3501:1 3725:1 3861:1 4015:1 4032:1 4160:1 4196:2 4254:2 4282:1 4523:9 4535:5 4607:1 4617:1 4682:1 4687:1 4691:1 #
0.0088707099149721389 327:1 368:1 796:1 842:1 874:2 1356:1 1428:2 1510:1 1835:1 2152:1 2464:1 2669:1 2812:1 2819:1 3015:1 3030:1 3271:1 3299:1 3371:1 3381:1 3492:1 3673:1 3945:1 3966:1 3996:1 4160:1 4314:1 4473:1 4492:1 4523:4 4528:1 4659:1 #
0.0088707099149721389 260:1 331:1 356:1 502:1 710:1 740:1 803:1 1015:2 1268:1 1299:1 1336:1 1384:1 1603:1 2143:1 2150:1 2249:1 2353:1 2374:1 2402:1 2403:1 2523:1 2577:1 2789:1 2819:1 2879:1 2952:1 3194:1 3292:1 3403:1 3478:1 3545:3 3581:2 3605:1 3725:1 3816:1 3916:1 4009:1 4095:1 4272:1 4288:1 4463:1 4492:1 4523:4 4631:1 #
0.0088707099149721389 155:1 191:1 474:1 517:1 577:1 633:1 650:1 803:1 998:1 1054:1 1132:1 1321:1 1504:1 1653:1 1933:1 1938:1 2057:1 2412:1 2444:1 2487:1 2500:1 2535:1 2564:1 2657:1 2794:1 2819:1 2825:1 2975:1 3318:1 3319:1 3407:1 3496:1 3513:1 3545:3 3966:2 3998:1 4090:1 4196:1 4231:1 4270:1 4492:2 4523:4 4586:1 4656:1 4659:2 #
-0.0088707099149721389 94:1 326:1 474:1 517:1 633:1 710:1 867:1 926:1 927:1 938:1 942:1 1049:1 1147:1 1188:1 1357:1 1504:1 1509:1 1543:1 1603:1 1659:1 1683:1 1704:1 1724:1 1793:1 1994:1 2033:1 2110:1 2112:1 2143:1 2273:1 2369:1 2384:1 2390:1 2411:1 2479:2 2493:1 2809:1 2843:2 2882:1 2918:1 2952:1 3194:1 3228:1 3241:1 3255:1 3310:1 3361:1 3501:1 3535:1 3545:2 3615:1 3649:1 3717:1 3816:1 3966:1 4054:1 4087:1 4184:1 4196:2 4254:1 4340:1 4351:1 4443:1 4463:1 4484:1 4492:1 4523:4 4584:1 4641:1 4671:1 4676:1 #
-0.0088707099149721389 128:1 275:1 398:1 545:1 613:1 650:1 701:1 777:1 781:1 926:1 1020:1 1093:1 1383:1 1384:1 1425:0 1635:1 1752:1 1822:1 1907:1 2143:3 2154:1 2458:1 2479:1 2572:1 2596:1 3059:1 3545:3 3686:1 3739:1 3871:1 3923:1 3966:4 4196:2 4347:1 4523:1 4535:1 4564:1 4632:1 4698:1 #
-0.0088707099149721389 699:1 1280:1 1537:1 1675:1 1933:1 1966:1 2015:1 2169:1 2487:1 2515:1 2639:1 2673:1 2819:1 2940:1 2960:1 3356:2 3501:1 3545:3 3607:1 3673:1 3678:1 3988:1 4523:1 4592:1 #
-0.0088707099149721389 316:1 349:1 595:1 799:1 1067:1 1212:1 1356:1 1473:1 1664:1 1668:1 1768:1 1788:1 1875:1 1924:1 1966:1 2004:1 2028:1 2100:1 2189:1 2199:1 2380:1 2432:2 2755:1 2952:1 3003:1 3045:1 3151:1 3352:1 3354:1 3545:2 3605:1 3695:1 3809:1 3860:1 4087:1 4231:1 4235:1 4270:3 4340:1 4463:2 4523:1 4572:1 #
-0.0088707099149721389 20:1 318:1 463:2 650:1 713:1 748:1 769:1 799:1 823:0 842:2 879:1 908:1 970:1 998:1 1046:1 1082:1 1162:1 1201:1 1321:1 1384:1 1461:1 1476:1 1608:1 1649:1 1676:1 1768:1 1938:1 2074:1 2111:1 2143:1 2348:1 2425:1 2487:1 2571:1 2627:1 2721:1 2794:1 2795:1 2923:1 2940:1 2948:1 2999:1 3018:1 3095:1 3217:1 3239:1 3240:1 3356:1 3496:1 3545:2 3599:1 3607:1 3738:1 3845:1 3945:1 4200:1 4228:2 4244:2 4254:2 4292:1 4307:1 4330:2 4492:1 4505:1 4523:5 4540:1 4586:1 4623:1 4641:1 4658:1 4696:0 #
0.0088707099149721389 7:1 318:1 439:1 502:1 515:1 524:1 555:1 645:1 674:1 692:2 781:1 820:1 910:1 954:1 966:1 998:1 1077:1 1095:1 1097:1 1174:1 1190:1 1271:1 1356:2 1369:1 1430:1 1515:1 1564:1 1574:1 1603:1 1667:1 1686:1 2004:1 2013:1 2074:1 2093:1 2143:5 2171:1 2211:1 2384:1 2396:1 2405:1 2436:1 2452:1 2458:2 2487:1 2500:1 2577:1 2698:1 2794:1 2953:1 3026:1 3116:1 3360:1 3365:1 3521:1 3545:1 3607:1 3661:1 3711:3 3873:2 3910:1 3916:1 3945:2 3966:3 4079:1 4156:1 4173:1 4196:3 4199:1 4200:1 4267:1 4284:1 4286:2 4307:1 4492:2 4505:1 4523:4 #
0.0076781673885410713 155:1 219:1 429:1 464:1 611:2 648:1 650:1 934:1 952:1 954:1 1015:2 1055:1 1271:1 1280:1 1438:1 1474:1 1608:3 1610:1 1635:1 1692:1 1933:4 1938:1 1966:2 2025:1 2088:1 2143:6 2152:1 2325:2 2353:1 2422:1 2457:1 2479:1 2483:1 2487:2 2675:1 2699:1 2716:1 2819:1 3139:1 3162:1 3228:2 3262:1 3327:1 3512:1 3545:1 3572:0 3673:5 3816:2 3824:1 3957:1 3966:3 4009:1 4200:1 4271:1 4272:1 4314:1 4327:1 4414:0 4492:6 4523:5 4535:1 4564:1 4671:1 #
0.0047674895047870574 94:1 455:1 577:2 650:1 699:1 841:1 954:1 981:1 998:1 1054:1 1095:1 1411:1 1661:1 1681:1 1782:1 1966:2 2004:1 2143:6 2161:1 2656:1 2683:1 2685:1 2820:1 2957:1 2987:1 3094:1 3513:1 3514:1 3577:0 3640:1 3945:1 3963:1 3966:2 4009:1 4125:0 4148:1 4177:1 4196:2 4231:1 4292:1 4523:1 4538:1 4544:1 4584:1 #
-0.0002894427224997394 38:1 149:1 343:1 349:1 433:1 502:1 577:1 611:2 860:1 870:2 877:1 938:1 954:1 1015:1 1052:1 1077:1 1199:1 1213:1 1312:1 1356:3 1384:1 1435:1 1456:1 1551:2 1556:1 1622:1 1640:1 1655:1 1734:1 1739:1 1826:1 2084:1 2143:4 2249:1 2353:1 2432:1 2473:1 2483:1 2505:1 2564:1 2571:1 2577:4 2794:2 2819:2 2820:1 2829:4 3089:2 3116:2 3142:1 3361:1 3542:1 3545:1 3564:1 3567:1 3584:1 3607:1 3640:1 3945:1 3966:4 4117:2 4122:1 4292:1 4307:1 4396:1 4492:2 4505:1 4523:7 4535:1 4544:1 4586:1 4665:1 #
-0.0088707099149721389 353:1 517:1 748:2 842:1 1112:2 1286:1 1292:1 1342:1 1376:1 1473:1 1546:1 1551:1 1556:1 1640:1 1681:1 1848:1 1881:1 2028:1 2088:1 2143:4 2167:1 2369:1 2412:1 2430:1 2471:1 2525:1 2829:2 2888:1 2947:2 3160:1 3229:1 3342:1 3365:1 3375:1 3463:2 3545:1 3685:1 3966:1 4061:2 4196:2 4199:1 4231:1 4238:1 4492:2 4523:3 4584:1 4618:1 4667:1 #
-0.0088707099149721389 219:1 261:1 349:1 550:1 642:1 781:1 842:1 861:1 879:1 954:1 1015:1 1052:1 1271:2 1322:1 1342:1 1492:1 1603:1 1681:1 1768:1 1782:1 1826:1 1966:2 1993:1 1994:1 2074:1 2118:1 2143:4 2296:1 2318:1 2452:1 2483:1 2487:1 2515:1 2550:1 2577:1 2675:1 2736:1 2829:2 2929:1 2954:1 2960:1 3005:1 3089:1 3185:1 3352:1 3448:1 3478:2 3545:3 3556:1 3570:1 3589:1 3916:1 3945:3 3957:1 3961:1 3966:4 4032:1 4061:2 4128:1 4196:1 4208:1 4267:1 4292:2 4302:1 4403:1 4492:1 4523:4 4528:4 4563:1 4584:3 4587:1 4607:1 4667:1 4676:1 4698:1 #
-0.0088707099149721389 155:1 191:1 219:1 349:1 354:1 590:1 611:1 694:1 938:2 998:3 1015:1 1181:1 1271:1 1493:1 1608:1 1886:1 2154:1 2158:1 2313:2 2353:1 2412:1 2464:1 2685:1 2843:1 2880:1 2952:1 2955:1 3124:1 3142:1 3159:1 3364:1 3437:1 3496:1 3545:2 3567:1 3778:1 3868:2 3905:1 3957:1 4231:1 4447:1 4523:2 4528:1 4659:1 4698:1 #
0.0088707099149721389 155:1 262:1 355:1 455:1 502:1 567:1 878:1 908:1 938:1 954:3 1204:1 1321:2 1342:1 1356:1 1369:1 1582:1 1601:1 1710:1 1747:1 1822:1 1966:1 1983:1 2004:2 2074:1 2088:1 2405:1 2447:1 2480:1 2487:1 2546:1 2657:1 2698:1 2940:2 3089:1 3164:1 3228:1 3251:1 3277:1 3307:1 3337:1 3356:1 3371:1 3459:1 3545:4 3560:1 3665:1 3698:1 3899:1 3945:2 3955:1 4196:2 4523:1 4572:1 4590:2 4667:1 #
0.0088707099149721389 389:1 567:1 986:2 1095:1 1167:1 1620:1 1653:2 1661:1 1782:1 1966:1 2143:1 2479:1 2483:1 2657:1 2728:1 3071:2 3371:1 3478:2 3545:2 3673:2 3691:1 3728:1 3966:1 4196:1 4473:1 4505:1 4523:1 4531:1 4535:1 4544:1 4676:1 #
0.0088707099149721389 502:1 645:1 699:1 1008:1 1135:1 1361:1 1620:1 1656:1 1772:1 1782:2 2074:1 2142:1 2209:1 2483:1 2564:1 3271:1 3296:1 3364:1 3370:1 3545:2 3671:1 3673:1 3678:1 3945:2 3966:1 4095:1 4145:1 4174:1 4253:1 4523:2 4593:1 #
-0.0088707099149721389 242:1 433:1 455:1 479:1 492:1 524:1 534:1 569:1 590:1 874:1 954:1 958:1 1055:1 1095:1 1279:1 1321:2 1342:1 1356:0 1375:1 1456:1 1603:1 1672:1 1710:1 1881:1 1938:1 2028:1 2143:3 2150:1 2206:1 2225:1 2313:1 2403:1 2417:1 2513:1 2523:1 2609:1 2701:1 2994:1 3196:1 3307:1 3370:1 3379:1 3545:1 3673:2 3731:1 3758:1 3770:1 4306:1 4345:1 4365:1 4392:1 4473:1 4492:2 4523:2 4572:1 4659:1 #
-0.0088707099149721389 155:1 571:2 692:1 699:1 748:1 954:1 966:1 1008:1 1380:1 1384:1 1666:2 2577:1 2960:1 3159:1 3183:1 3451:1 3452:1 3545:2 3570:1 3777:1 3816:1 3945:1 3957:1 3966:1 4146:1 4196:1 4282:1 4326:1 4492:1 4572:1 4581:1 #
-0.0088707099149721389 156:1 455:1 673:1 771:2 1068:1 1677:1 1973:1 2522:1 2535:1 2683:1 2794:1 3142:1 3690:1 3824:1 3945:2 4064:1 4090:1 4196:1 4523:1 4528:1 #
0.0088707099149721389 156:1 256:2 320:1 398:1 433:1 439:1 463:1 474:1 611:1 622:1 633:1 842:1 938:2 954:1 1054:1 1080:1 1082:1 1095:1 1271:1 1361:1 1404:1 1438:1 1456:1 1492:2 1504:1 1524:1 1556:1 1572:1 1781:1 1828:1 1886:1 1966:2 2063:1 2143:3 2154:1 2209:1 2564:1 2572:2 2627:1 2786:2 2796:1 2829:2 2940:2 2947:1 2952:1 2988:1 3043:1 3108:1 3255:1 3320:1 3357:1 3459:1 3545:3 3584:1 3607:1 3614:1 3640:1 3673:1 3772:1 3776:1 3870:1 3966:5 4057:1 4081:1 4176:1 4235:1 4492:2 4523:5 4528:1 4529:1 4535:1 4561:2 4614:1 4641:1 #
0.0042872402595319535 139:1 220:1 380:1 436:1 493:1 517:1 611:1 633:1 789:1 953:1 954:2 966:1 998:1 1132:1 1148:1 1271:1 1299:1 1302:1 1320:1 1342:1 1384:1 1504:1 1536:1 1608:1 1658:1 1663:1 1686:1 1714:1 1768:1 1827:1 1866:1 1944:2 1973:1 2115:1 2143:3 2226:1 2353:3 2431:1 2454:1 2458:1 2483:1 2487:2 2505:1 2551:1 2563:1 2643:1 2675:1 2698:1 2789:1 2829:1 2988:1 3024:1 3215:1 3352:1 3425:1 3478:1 3496:1 3501:1 3513:1 3545:1 3607:1 3904:1 3945:2 3966:3 3978:1 3985:1 4038:1 4061:2 4110:1 4176:2 4196:1 4199:1 4315:1 4370:1 4492:3 4505:1 4512:1 4513:1 4523:8 4540:1 4548:1 4614:1 4641:1 4667:1 4698:1 4716:0 #
-0.0060950349316075403 16:1 107:1 218:1 306:1 318:1 430:2 494:1 577:1 787:1 819:1 830:1 954:1 987:1 1082:1 1135:1 1158:1 1171:1 1223:1 1255:1 1256:1 1271:2 1328:1 1356:2 1360:1 1476:2 1477:2 1505:1 1559:2 1625:1 1643:1 1692:1 1714:1 1715:1 1716:1 1732:1 1762:1 1791:1 1942:1 2004:1 2028:1 2029:1 2143:1 2190:1 2199:1 2275:1 2347:2 2353:2 2412:1 2428:1 2430:2 2442:1 2444:1 2458:1 2479:1 2500:1 2538:1 2564:1 2718:1 2719:1 2881:2 2953:1 3089:1 3124:1 3142:1 3225:1 3257:1 3375:1 3392:2 3421:1 3427:1 3496:1 3613:1 3893:1 3913:2 3961:2 3966:1 3996:1 4231:1 4281:1 4307:1 4337:1 4473:3 4485:1 4492:1 4523:7 4544:1 4560:1 4586:1 #
-0.0021572616963754488 60:1 95:2 316:1 337:1 463:1 860:1 877:1 930:1 954:1 998:1 1170:1 1213:1 1216:1 1267:1 1299:1 1329:2 1348:1 1361:1 1384:1 1435:0 1587:2 1643:1 1653:1 1779:1 1808:1 1933:1 1994:2 2143:1 2229:1 2249:2 2411:1 2412:1 2487:2 2644:1 2698:3 2819:1 2829:1 2952:1 3129:1 3342:1 3361:3 3449:1 3545:2 3601:1 3644:1 3673:2 3714:1 3964:1 3966:3 4196:4 4208:1 4231:1 4254:1 4297:1 4492:1 4512:2 4523:8 4528:1 4584:1 #
0.0088707099149721389 433:1 463:1 650:1 864:1 998:1 1356:1 1603:1 1905:1 2074:1 2100:1 2143:5 2380:1 2479:1 2796:1 3071:1 3085:1 3160:1 3350:1 3463:2 3501:1 3678:1 3945:1 4523:3 4676:1 #
0.0088707099149721389 37:1 215:1 359:1 545:1 550:1 791:1 1339:1 1384:1 1564:1 1591:1 1710:1 1858:1 1933:1 2004:1 2101:1 2143:1 2367:1 2393:1 2487:1 2515:1 2596:1 2608:1 2829:1 2879:2 3047:1 3176:1 3228:1 3231:1 3232:1 3362:1 3385:1 3437:1 3496:1 3545:1 3738:1 3795:1 3916:1 3945:1 3966:1 4147:1 4196:1 4463:1 4523:2 #
0.0088707099149721389 455:1 842:1 1966:1 2074:1 2093:1 2143:2 2283:2 2487:1 2794:1 3163:1 3271:1 3362:1 3371:1 3673:1 3945:1 3966:1 4292:1 4492:1 4523:2 4584:1 4659:1 #
0.0088707099149721389 423:1 662:1 692:1 1834:1 1929:1 2030:1 2093:1 2143:2 2171:1 2363:2 2432:1 2523:1 3147:1 3371:1 3545:1 3637:1 4196:1 4208:1 4314:1 4523:1 4641:1 4659:1 #
-0.0041362849942523632 455:1 463:1 524:1 613:1 631:2 650:3 720:3 796:1 1052:1 1093:1 1249:1 1342:1 1356:0 1417:1 1556:1 1653:1 1667:1 1903:1 2086:1 2171:1 2195:1 2393:1 2553:1 2564:1 2612:2 2829:1 2947:1 3071:1 3584:1 3678:3 3705:3 3796:2 4095:1 4270:2 4523:2 4544:1 #
0.0088707099149721389 8:1 429:1 433:1 455:1 689:1 1185:1 1411:1 1938:1 1966:2 2004:3 2143:2 2148:1 2209:1 2479:1 2483:1 2487:1 2829:2 2947:1 2952:1 3021:1 3059:1 3383:2 3478:1 3545:1 3601:1 3691:1 3769:1 3966:2 4492:1 4523:1 4535:1 4586:1 4698:2 #
-0.0088707099149721389 320:1 349:1 566:1 586:1 633:1 763:1 803:1 920:1 938:1 954:1 996:1 1018:1 1020:1 1077:1 1189:1 1337:1 1340:1 1342:1 1361:1 1362:1 1376:1 1528:1 1537:1 1822:1 1826:1 1886:1 1917:1 1966:2 2093:1 2143:5 2273:1 2430:2 2487:2 2505:1 2564:1 2572:1 2657:1 2819:1 2844:1 3142:1 3213:1 3223:1 3320:1 3371:1 3545:7 3607:1 3816:1 3818:1 3955:1 3966:2 4009:1 4050:1 4073:1 4103:2 4196:1 4208:1 4235:1 4245:1 4292:1 4307:1 4479:1 4523:4 4544:1 #
-0.00097383319396193702 191:2 330:2 367:2 368:1 372:2 463:1 491:1 492:2 515:1 517:5 524:2 585:4 662:1 731:2 805:1 938:1 954:1 1074:1 1077:1 1095:1 1112:1 1185:1 1342:1 1375:1 1384:1 1602:1 1640:2 1747:1 1768:1 1800:1 1881:1 1938:1 2011:1 2143:5 2150:1 2154:1 2171:1 2223:1 2487:1 2564:5 2572:2 2724:1 2796:2 2819:2 2829:1 2880:1 2890:1 2918:1 2947:2 2964:1 3106:1 3107:1 3241:1 3295:1 3320:2 3361:1 3362:1 3457:2 3463:2 3478:2 3496:2 3545:5 3604:1 3656:1 3725:1 3726:2 3868:2 3907:1 3945:3 4017:1 4196:2 4231:2 4243:1 4254:1 4314:1 4492:2 4512:1 4523:2 #
0.00058449700806446642 7:1 71:1 140:1 219:1 242:1 545:1 595:1 694:1 759:1 842:1 886:1 1024:1 1148:2 1271:1 1366:1 1454:1 1534:1 1572:2 1710:1 1747:1 1782:1 1833:1 1966:2 2105:1 2283:2 2353:1 2487:1 2506:1 2698:1 2762:1 2786:1 2794:1 2819:2 2824:1 2869:1 2947:1 3164:1 3342:1 3478:2 3521:1 3545:2 3945:2 3966:4 4090:1 4231:1 4236:1 4271:2 4309:1 4492:2 4505:1 4512:1 4523:1 4535:1 4564:1 4584:1 4622:1 4642:1 4724:1 4725:2 #
0.0088707099149721389 94:1 331:1 633:1 650:1 710:1 1068:2 1276:1 1304:1 1598:1 1734:0 1835:1 1966:1 2143:0 2487:1 3028:1 3142:2 3305:1 3816:1 3966:2 4292:0 4458:1 4492:1 4523:2 4548:1 #
0.0088707099149721389 27:1 86:1 94:1 192:1 403:1 615:1 729:1 1112:1 2143:1 2369:1 2388:1 2444:1 2638:1 2669:1 2794:1 2829:1 2844:1 2947:1 3192:1 3226:1 3228:1 3501:1 3510:2 3521:1 3545:1 3966:2 4148:1 4492:1 4505:1 4523:1 #
0.0088707099149721389 320:1 645:1 748:2 938:1 1010:1 1055:1 1213:1 1346:1 1504:1 1635:1 1680:1 1687:1 1881:1 2093:1 2143:2 2200:1 2369:1 2444:1 2458:2 2505:1 2890:1 3160:1 3229:2 3277:1 3371:1 3545:2 3711:1 3945:1 3962:1 3966:1 4090:1 4094:1 4196:3 4302:1 4390:1 4492:1 4523:3 4607:1 #
-0.0088707099149721389 6:1 373:2 524:1 650:1 694:2 710:1 748:1 842:1 954:1 1055:1 1095:1 1124:1 1471:2 1635:1 1655:1 1714:1 1802:1 1864:1 1906:1 2094:1 2115:1 2136:1 2143:1 2209:1 2728:1 2789:1 2960:1 2990:1 3107:1 3142:1 3222:1 3228:1 3342:0 3350:1 3487:1 3501:1 3711:1 3764:1 3966:3 4103:1 4271:1 4292:1 4314:2 4327:1 4505:1 4523:5 #
-0.0088707099149721389 560:1 633:1 842:1 908:1 1033:2 1055:1 1151:1 1182:1 1193:1 1504:1 1607:1 1732:1 1822:1 1899:1 1966:1 2015:1 2056:1 2143:1 2154:1 2157:1 2287:1 2393:1 2408:0 2483:1 2487:1 2566:1 2741:2 2947:1 3071:1 3239:1 3545:1 3996:1 4199:2 4282:1 4459:1 4463:1 4492:1 4540:1 4544:1 #
-0.0088707099149721389 331:1 353:1 464:1 937:1 1055:2 1060:1 1267:1 1299:1 1342:1 1384:1 1635:1 1677:1 1834:1 2143:2 2505:1 2612:1 2698:1 2820:1 3116:1 3228:1 3241:1 3560:1 3601:1 3705:1 3764:1 3855:1 3945:1 3966:3 4231:1 4254:1 4388:1 #
-0.0088707099149721389 439:1 544:1 550:1 611:2 648:1 986:1 1020:2 1021:1 1037:1 1184:1 1271:1 1299:1 1342:1 1356:1 1435:1 1474:1 1653:1 1982:1 2110:1 2143:3 2157:1 2260:1 2366:1 2393:1 2405:1 2447:1 2490:1 2819:1 2829:1 2952:2 3017:1 3129:1 3356:1 3407:1 3545:2 3570:1 3584:1 3728:1 3755:1 3816:2 3944:1 3966:1 4039:1 4196:2 4247:1 4264:1 4395:1 4492:4 4512:1 4523:7 4607:1 4622:1 4625:1 #
-0.0057513779544143316 71:1 135:1 177:0 232:2 285:1 382:1 470:1 502:1 509:1 569:1 617:1 648:1 650:1 692:1 694:1 834:1 874:1 930:1 938:2 954:2 986:1 1024:1 1081:1 1086:2 1174:1 1271:3 1340:1 1356:0 1373:1 1398:1 1603:1 1640:1 1675:2 1677:4 1714:1 1738:1 1822:2 1831:1 1933:2 1940:4 1994:1 2004:1 2033:1 2287:5 2313:1 2353:1 2401:1 2487:1 2523:1 2577:1 2776:1 2829:1 2879:1 2948:1 2961:1 3047:2 3211:1 3220:1 3228:1 3277:2 3295:1 3361:1 3440:1 3487:1 3501:1 3545:2 3607:1 3671:1 3673:3 3738:1 3755:1 3885:1 3945:1 3955:1 3961:2 3966:2 4160:1 4173:1 4196:2 4305:1 4307:1 4358:1 4378:1 4440:1 4443:2 4492:1 4523:2 4674:1 4687:1 #
-0.0088707099149721389 650:1 678:1 781:2 799:1 898:1 998:1 1005:2 1015:1 1021:1 1055:1 1187:1 1190:1 1197:1 1271:1 1342:2 1384:1 1472:1 1515:1 1635:1 1777:1 1822:2 1881:2 1933:1 2143:2 2174:1 2180:2 2273:3 2458:1 2487:1 2505:1 2535:1 2705:1 2787:1 2819:1 2947:1 2990:1 3098:1 3142:1 3292:1 3405:1 3485:1 3521:2 3545:2 3640:2 3685:1 3945:1 3948:1 3954:1 3974:1 3998:1 4006:1 4141:1 4231:1 4244:1 4476:1 4492:3 4505:1 4523:5 4561:1 4690:1 #
-0.0088707099149721389 455:1 517:1 590:1 648:1 938:1 1024:2 1119:1 1167:1 1260:1 1342:1 1655:1 1734:2 1866:1 1881:1 2143:3 2260:1 2394:1 2829:1 2947:1 2952:1 3051:1 3089:1 3147:1 3475:1 3545:1 3564:1 3796:1 3966:1 4090:1 4196:1 4523:4 4544:1 #
-0.0088707099149721389 458:1 461:1 472:1 496:1 650:2 842:1 966:1 1033:2 1086:2 1237:1 1301:1 1321:1 1356:1 1415:1 1445:1 1541:1 1551:1 1564:1 1673:1 1835:1 2074:1 2123:1 2143:2 2174:2 2273:1 2369:1 2403:1 2487:1 3163:1 3361:1 3463:1 3545:2 3781:1 3966:1 4196:1 4314:3 4492:2 4523:2 #
0.0088707099149721389 1033:2 1095:1 1356:1 1620:1 1822:1 1966:2 2143:2 2150:1 2366:1 2500:1 2696:1 2741:2 2947:1 3142:2 3285:1 3342:1 3530:1 3545:1 3607:1 3966:1 4182:1 4196:1 4231:1 4254:1 4523:2 #
0.0088707099149721389 350:1 501:1 545:1 633:1 650:1 667:1 692:2 756:1 1335:1 1564:1 1640:1 1642:1 1653:1 1936:1 2143:2 2420:1 2452:1 2546:1 2829:1 2947:2 3262:1 3426:1 3545:1 3796:1 3854:1 4014:1 4340:1 4571:1 4676:1 #
0.0071731263522554298 842:2 991:1 1055:1 1185:1 1411:1 1966:1 2093:1 2120:1 2143:2 2325:1 2487:1 2577:1 2716:1 3094:1 3163:1 3371:1 3478:1 3545:1 3673:1 3753:1 3966:2 4292:2 4492:1 4535:1 #
-0.0017606591617243793 94:1 398:2 426:1 430:1 541:1 596:1 633:1 650:3 686:1 699:1 710:1 733:1 778:1 781:2 842:1 908:1 920:1 986:1 998:1 1011:1 1037:1 1054:2 1087:1 1141:1 1147:1 1220:1 1262:1 1352:1 1356:1 1425:1 1504:1 1635:1 1701:1 1710:2 1734:1 1822:2 1938:1 2028:1 2058:1 2143:1 2257:1 2287:1 2315:1 2353:3 2384:1 2458:3 2479:1 2543:1 2614:1 2728:1 2741:1 2760:1 2829:1 2868:1 2941:1 2947:1 2952:1 2975:1 3071:1 3107:1 3142:2 3164:1 3255:2 3350:1 3356:1 3357:1 3381:1 3411:1 3478:1 3501:1 3513:1 3543:1 3545:3 3607:1 3656:1 3659:1 3705:1 3755:1 3868:1 3885:1 3951:1 3966:2 4059:1 4110:1 4199:2 4231:2 4235:1 4307:1 4338:1 4378:1 4463:1 4481:1 4548:1 4641:1 4676:1 4713:1 #
0.0088707099149721389 191:1 382:1 544:1 690:1 748:2 840:1 954:1 1109:4 1148:1 1392:1 1510:1 1534:1 2070:1 2143:3 2206:1 2239:1 2283:1 2328:1 2480:1 2483:1 2487:2 2549:1 2675:1 2756:1 2829:1 2948:1 2959:1 3077:1 3159:1 3160:1 3179:1 3228:1 3264:1 3314:1 3455:1 3478:1 3545:2 3678:1 3966:2 3982:1 4001:1 4182:1 4196:1 4205:1 4282:1 4492:2 4523:4 4535:1 #
0.0088707099149721389 191:1 672:1 916:2 986:1 1055:1 1271:1 1356:0 1655:1 1768:1 1929:1 1930:1 2074:1 2143:2 2523:1 2564:1 2829:1 2843:1 2844:1 2937:1 3356:1 3371:1 3418:1 3545:2 3753:1 3923:1 3945:1 3966:1 4009:1 4144:1 4196:2 4492:2 4523:3 4593:1 4607:1 4642:1 #
-0.0088707099149721389 128:1 327:1 502:1 544:1 567:1 633:1 694:1 954:1 1109:3 1201:1 1267:1 1295:1 1299:1 1317:1 1346:1 1455:1 1543:1 1639:2 1640:1 1710:1 1822:1 1845:1 2070:1 2143:1 2150:1 2157:1 2384:1 2483:1 2487:1 2505:1 2657:1 2698:1 2794:1 3021:1 3165:1 3228:2 3328:1 3357:1 3401:1 3511:1 3521:1 3545:3 3574:1 3607:1 3673:1 3691:1 3711:1 3738:1 3776:1 3966:1 4079:1 4365:1 4407:1 4463:1 4491:1 4505:1 4523:8 4535:1 4635:2 4650:1 4672:1 #
0.0088707099149721389 316:1 739:1 938:1 1280:1 1822:1 1844:1 1966:1 2056:1 2074:2 2143:2 2209:1 2287:2 2444:1 2518:1 2796:2 2799:1 2819:1 2886:1 3056:1 3071:1 3116:2 3142:1 3239:1 3307:1 3545:1 3738:1 3767:1 3945:1 3966:1 4492:1 4523:2 #
-0.0088707099149721389 94:1 155:1 219:1 429:1 576:1 633:1 954:1 969:1 1121:3 1342:1 1384:1 1549:1 1640:1 1750:1 2143:2 2444:1 2447:1 2561:1 2714:1 3116:1 3159:1 3487:1 3545:1 3607:1 3673:1 3772:1 3957:2 3961:1 3966:1 4171:1 4196:1 4374:1 4417:1 4492:2 4523:1 4622:1 #
-0.0088707099149721389 90:1 149:1 398:1 439:1 650:1 660:1 770:1 1080:1 1095:1 1103:1 1132:1 1143:1 1280:1 1603:1 1609:1 1637:1 1732:1 1886:2 1933:2 1938:1 1966:2 2131:1 2143:2 2162:1 2353:1 2384:1 2444:1 2487:1 2563:1 2614:1 2787:1 2829:1 3164:1 3181:1 3228:1 3500:1 3501:1 3527:1 3545:2 3564:1 3598:1 3673:1 3777:1 3812:1 3885:1 3945:1 3946:1 3966:1 4315:1 4323:1 4338:2 4523:3 4607:1 #
-0.0088707099149721389 56:1 356:1 781:1 862:1 991:1 1223:1 1267:1 1271:1 1299:1 1333:1 1639:1 2100:1 2143:3 2804:1 3181:1 3228:1 3307:1 3394:1 3545:1 3957:2 3966:2 4196:2 4267:1 4277:1 4458:1 4492:1 4523:1 4675:1 #
-0.0088707099149721389 307:1 317:1 745:1 823:2 1052:1 1208:1 1280:1 1620:1 1667:1 1768:1 1933:1 1938:1 1977:1 2143:1 2380:1 2487:1 2506:2 2794:1 2829:1 2906:1 2960:1 3003:1 3543:1 3545:3 3868:1 3902:1 3966:2 4196:1 4244:1 4288:1 4387:1 4523:1 #
0.0088707099149721389 60:1 242:1 262:1 327:1 401:2 420:1 633:4 654:1 694:1 781:1 954:2 1052:1 1258:1 1473:1 1620:2 1642:1 1822:1 2008:1 2010:1 2020:1 2143:3 2223:1 2273:1 2287:1 2353:1 2430:1 2483:1 2515:1 2523:2 2564:1 2698:1 2819:1 2947:1 3071:2 3142:1 3161:1 3191:1 3208:1 3342:1 3496:1 3545:1 3607:1 3673:1 3725:1 3738:2 3945:1 3966:1 4095:2 4196:1 4199:1 4314:1 4461:1 4492:1 4512:1 4523:3 4676:1 #
0.0088707099149721389 152:1 191:1 241:1 242:1 398:1 467:1 517:1 524:1 633:1 650:1 710:2 943:1 954:1 986:1 998:2 1033:1 1055:1 1100:1 1103:1 1271:2 1435:1 1603:1 1607:1 1655:1 1768:2 1966:1 1974:1 2002:1 2004:1 2143:1 2186:1 2195:1 2346:1 2403:1 2432:2 2572:1 2573:1 2741:1 2844:1 2940:2 2987:2 3148:1 3159:1 3457:1 3545:2 3605:2 3668:1 3868:1 3898:1 3966:1 4071:2 4072:1 4171:3 4231:1 4254:1 4292:1 4407:1 4492:2 4523:6 4696:1 #
0.0088707099149721389 455:1 486:1 524:1 539:1 633:1 748:1 763:1 954:1 1071:1 1086:1 1095:1 1132:1 1299:0 1312:1 1356:1 1417:1 1456:1 1603:0 1608:0 1620:1 1768:1 1903:1 1906:1 1966:1 2143:2 2313:1 2336:1 2353:1 2483:1 2627:1 2758:1 2794:1 2819:3 2879:1 2881:1 3099:1 3107:1 3228:1 3318:1 3326:1 3463:1 3478:1 3513:1 3545:2 3607:1 3771:1 3796:1 3816:2 3843:0 3898:1 3945:2 3955:1 3966:1 3980:1 4078:1 4144:1 4196:1 4330:1 4448:1 4523:3 4628:1 #
0.0088707099149721389 24:1 590:1 611:1 692:1 1015:1 1174:1 1356:1 1474:2 1737:1 1966:2 2143:1 2161:1 2230:1 2412:1 2453:1 2483:1 2487:1 2520:1 2952:1 3029:2 3114:1 3478:1 3545:2 3673:1 3945:1 3996:1 4345:1 4392:1 4505:1 4523:3 4586:1 #
0.00081222467440268198 70:1 191:1 320:1 414:1 517:1 577:1 595:1 633:1 650:1 662:1 729:1 803:1 842:1 998:1 1033:1 1299:1 1312:1 1342:2 1411:1 1434:1 1435:1 1490:1 1734:1 1768:1 1822:1 1835:1 1852:2 1855:1 1966:1 2143:1 2347:1 2515:1 2523:1 2571:1 2724:1 2783:1 2829:2 2844:1 3089:1 3095:1 3128:1 3350:1 3371:1 3501:1 3545:2 3584:1 3931:1 3945:1 3966:1 4009:1 4182:1 4196:1 4235:1 4254:1 4314:1 4450:1 4492:1 4523:5 4535:2 4572:1 #
-0.0088707099149721389 191:1 327:1 395:1 474:1 524:1 552:1 583:1 648:1 911:1 938:1 976:1 986:2 1005:1 1107:1 1129:1 1356:1 1408:1 1467:1 1511:1 1664:1 1667:1 1676:1 1734:1 1768:1 2143:4 2206:2 2249:1 2287:1 2353:1 2388:1 2487:1 2556:1 2627:1 2844:2 2903:1 2964:1 2987:1 3241:1 3307:1 3318:1 3357:1 3463:1 3474:1 3475:1 3496:1 3584:1 3623:1 3640:1 3673:1 3796:2 3888:1 4009:2 4100:1 4254:1 4282:1 4305:1 4512:2 4523:8 4641:1 #
-0.0088707099149721389 349:1 439:1 455:1 626:1 633:2 692:1 710:1 930:1 998:1 1033:1 1055:1 1237:1 1356:3 1471:1 1523:1 1635:1 1686:1 1797:1 1835:1 1906:1 2048:1 2074:1 2114:1 2142:1 2143:1 2228:1 2257:1 2287:1 2441:1 2474:1 2483:1 2513:1 2524:1 2661:1 2747:1 2819:1 2880:1 2918:1 3005:2 3220:1 3228:1 3300:1 3307:2 3342:1 3545:2 3609:1 3624:1 3738:2 3781:1 3825:1 3945:2 3954:1 3966:1 4345:1 4392:1 4523:8 4564:1 #
-0.0088707099149721389 748:1 885:1 954:1 1356:0 1435:1 1834:1 1859:1 1901:1 1980:1 2074:1 2143:1 2353:2 2444:1 2458:1 2505:1 2571:1 2728:1 2819:1 2947:1 2979:1 3142:1 3307:1 3384:1 3545:1 3607:1 3915:1 3916:1 3947:1 4087:1 4176:1 4196:1 4231:1 4492:1 4523:6 4572:1 4586:1 4672:1 4676:1 #
0.0088707099149721389 67:1 322:1 327:1 439:1 729:1 754:1 842:1 926:1 1280:1 1603:1 1633:1 1688:1 1692:1 1707:1 1933:1 1938:1 1941:1 2143:2 2199:1 2287:1 2657:1 2728:1 3036:1 3047:1 3094:1 3255:1 3342:1 3395:1 3545:1 3559:1 3955:1 3966:1 4196:1 4492:1 4523:2 4535:1 4647:1 #
0.0024740725139042155 476:1 489:1 563:1 648:1 661:1 695:1 729:1 781:1 807:1 842:1 894:1 954:2 998:1 1127:1 1185:1 1332:1 1342:1 1356:0 1435:1 1541:1 1626:1 1835:1 1889:1 1933:1 1966:1 1978:1 1994:1 2029:1 2056:1 2060:1 2118:2 2143:2 2161:1 2171:1 2276:1 2333:1 2337:1 2353:1 2403:1 2564:1 2572:1 2657:1 2794:1 2803:1 2971:1 3094:1 3142:1 3176:1 3225:1 3262:1 3284:1 3320:1 3364:1 3371:1 3496:1 3545:3 3570:1 3673:1 3725:1 3945:1 3966:2 3989:1 4050:1 4061:2 4196:1 4199:1 4279:1 4481:1 4523:1 4535:1 4667:2 4698:2 #
0.0076138898023258182 24:1 36:1 103:1 577:1 692:1 934:1 938:1 954:1 965:1 973:2 1157:1 1271:2 1280:2 1456:1 1610:1 1938:1 1966:1 2161:1 2223:1 2353:2 2487:1 2523:1 2812:1 2829:1 2931:1 2940:1 2948:1 3003:1 3047:1 3087:1 3129:1 3228:1 3966:1 4061:2 4111:1 4196:1 4492:1 4523:1 4528:1 4535:1 4581:1 4698:2 4719:1 #
-0.0088707099149721389 72:2 242:1 330:1 354:1 359:1 392:1 571:1 574:1 575:1 650:1 954:1 1033:1 1174:1 1271:1 1294:1 1346:1 1384:1 1445:1 1537:1 1635:1 1835:1 1903:1 2004:1 2353:1 2369:1 2487:1 2566:1 2634:1 2736:1 2829:1 2845:1 3254:1 3320:1 3457:1 3463:1 3545:4 3607:1 3915:1 3945:2 3966:2 4078:1 4095:1 4137:2 4196:1 4492:1 4523:2 4586:1 4659:1 #
-0.0088707099149721389 94:1 318:1 483:1 563:1 590:1 648:2 663:1 666:1 692:1 729:1 842:1 954:1 970:1 986:2 1052:1 1149:1 1158:1 1239:1 1264:2 1272:1 1823:1 1933:1 1951:1 2033:2 2143:2 2161:1 2363:1 2372:1 2454:1 2483:1 2487:1 2505:1 2568:1 2577:1 2657:1 2829:2 2933:1 2940:1 3035:1 3089:1 3103:1 3124:1 3164:1 3215:1 3223:2 3350:1 3535:1 3545:2 3578:1 3579:1 3605:1 3673:1 3753:1 3776:1 3842:1 3966:1 4060:1 4161:1 4173:1 4196:1 4199:1 4222:1 4235:1 4244:1 4393:1 4492:2 4523:4 4535:1 4578:1 4655:1 #
0.0088707099149721389 191:1 645:1 721:1 781:1 911:1 1015:1 1141:1 1356:0 1435:1 1655:1 1834:1 1983:1 2074:1 2143:1 2487:1 2550:1 2635:1 3885:1 3945:1 4196:1 4288:1 4492:2 4523:4 4607:1 #
0.0088707099149721389 633:1 662:1 665:1 920:1 944:1 953:1 1033:1 1160:1 1299:1 1347:1 1435:1 1564:1 1566:1 1574:1 1603:1 1677:2 1698:1 2143:2 2161:1 2369:1 2458:1 2543:1 2566:1 2698:1 2724:1 3356:1 3545:1 3665:2 3673:1 3738:1 3898:1 3933:1 3966:1 3978:1 4244:1 4330:1 4522:1 4523:3 4722:1 #
0.0088707099149721389 7:1 439:1 519:1 544:1 633:1 650:1 781:1 820:1 954:1 1055:1 1109:2 1124:1 1167:1 1292:1 1319:1 1356:0 1435:1 1456:1 1564:1 1572:1 1635:1 1675:1 1686:1 1836:1 2152:1 2186:1 2274:1 2353:1 2403:1 2464:1 2500:1 2538:1 2555:1 2577:1 2645:1 2677:1 2698:1 2819:1 3021:2 3030:1 3047:1 3259:1 3320:1 3355:1 3478:1 3545:1 3781:1 3853:1 3945:1 3966:1 4094:1 4326:1 4340:1 4449:1 4523:1 #
0.0088707099149721389 155:1 502:1 626:1 633:1 648:1 694:1 710:1 781:1 930:1 1033:1 1082:1 1132:1 1174:1 1283:1 1455:1 1564:1 1593:1 1620:1 1822:2 2143:2 2287:1 2380:1 2435:1 2487:1 2515:1 2638:1 2678:1 2694:1 2741:1 2747:1 2819:2 2843:1 2918:1 2941:1 2947:3 3061:1 3138:1 3172:1 3201:1 3228:2 3337:1 3356:2 3545:2 3584:1 3665:1 3671:1 3776:1 3898:1 3926:1 3966:1 4029:1 4101:1 4196:2 4492:1 4523:2 4667:1 #
-0.0088707099149721389 464:1 524:1 645:1 673:1 710:1 796:1 874:1 1342:1 1425:0 1804:1 1853:1 1938:1 2127:1 2143:1 2150:1 2210:1 2430:1 2500:1 2515:1 2794:2 2918:1 3004:1 3047:1 3071:1 3130:1 3228:1 3276:1 3320:1 3432:1 3545:1 3673:1 3705:1 3947:1 4254:1 4262:1 4326:1 4340:1 4473:1 4523:1 #
0.0088707099149721389 96:1 302:1 420:1 611:1 842:1 954:1 986:1 1052:1 1080:1 1280:1 1356:0 1456:1 1564:1 1635:1 1852:1 1938:1 2058:1 2143:1 2171:1 2209:1 2230:1 2458:1 2483:1 2487:1 2505:1 2523:1 2577:1 2614:1 2819:1 2829:1 3071:1 3089:2 3229:2 3356:1 3545:1 3673:1 3966:2 4147:1 4187:1 4196:2 4231:1 4492:2 4523:3 4536:1 4544:1 4586:1 #
0.0088707099149721389 94:1 517:1 759:1 781:1 786:1 938:1 986:1 998:1 1121:1 1504:1 1620:1 1710:1 1822:1 1834:1 1835:1 2074:1 2150:1 2812:1 2819:1 2829:1 3352:1 3498:1 3545:3 3685:1 3945:1 3966:1 4505:1 4523:4 4564:1 #
0.0088707099149721389 146:1 455:1 517:1 528:1 554:1 633:1 694:1 842:1 986:1 998:1 1154:1 1167:3 1603:1 1608:1 1620:1 1667:1 1768:2 1938:1 2004:1 2091:1 2139:1 2143:3 2157:1 2161:1 2396:1 2411:1 2487:1 2551:1 2648:1 2657:1 2675:1 2679:1 2819:1 2829:2 3047:1 3193:1 3371:1 3521:1 3545:5 3607:1 3737:1 3966:1 4018:1 4060:1 4117:2 4138:1 4196:2 4307:1 4314:1 4492:2 4501:1 4505:2 4523:4 4584:1 #
0.0088707099149721389 78:1 263:2 650:1 748:1 939:1 967:1 998:1 1055:1 1312:1 1356:0 1625:1 1664:1 1835:1 1881:1 1893:1 1925:1 2138:1 2483:1 2829:1 2948:1 3021:1 3159:1 3228:1 3229:1 3342:1 3350:1 3496:1 3545:1 3685:1 3764:1 3816:1 3916:1 3945:1 3958:1 3972:1 4001:1 4319:1 4475:1 4492:1 4523:2 4634:1 #
-0.0088707099149721389 387:1 633:1 650:1 694:1 710:1 1055:1 1095:1 1321:1 1357:1 1401:1 1459:1 1994:1 2143:4 2309:1 2464:1 2609:1 2794:1 2890:1 2933:1 3089:1 3176:1 3269:1 3270:1 3318:1 3356:3 3545:3 3812:1 3816:1 3945:1 4196:1 4239:1 4307:1 4443:1 4457:1 4523:6 #
-0.0088707099149721389 380:2 633:1 727:1 799:1 874:0 879:1 954:1 998:2 1055:1 1356:0 1392:1 1476:1 1494:1 1564:2 1603:1 1653:1 1681:1 1815:0 1994:1 2056:1 2128:0 2139:2 2143:2 2264:1 2276:1 2394:1 2436:1 2458:2 2500:2 2505:1 2794:1 2829:2 2844:3 2872:1 2881:1 2893:1 2918:1 2927:1 2987:1 3037:1 3066:1 3142:1 3245:1 3255:1 3295:1 3301:1 3356:3 3513:2 3539:1 3632:2 3637:1 3671:1 3792:1 3796:1 3866:1 3966:3 4005:1 4049:1 4085:1 4092:2 4196:1 4199:2 4231:0 4244:3 4268:1 4365:1 4383:1 4450:1 4463:2 4492:2 4523:3 4572:1 4641:1 4656:1 #
-0.0088707099149721389 349:1 474:1 543:1 633:4 770:1 998:1 1020:1 1175:1 1435:2 1556:1 1607:2 1683:1 1724:1 1818:1 1835:1 1853:1 1933:2 1994:1 2056:1 2136:1 2143:1 2353:1 2458:2 2480:1 2505:1 2515:1 2787:1 2829:2 2879:1 2947:1 3076:1 3079:1 3142:2 3356:2 3545:1 3601:1 3607:1 3703:1 3721:1 3738:1 3764:1 3772:1 3781:1 3787:1 3945:1 4036:1 4196:2 4199:2 4249:1 4254:1 4338:1 4463:1 4523:1 #
-0.0088707099149721389 416:1 455:1 613:1 650:1 694:1 1055:1 1380:1 1537:1 1859:1 1966:1 2015:1 2074:1 2143:1 2403:1 2467:1 2483:1 2487:1 2728:1 2772:1 2931:1 3545:2 3822:1 3825:2 3945:1 3966:1 4196:1 4210:1 4492:1 4523:4 #
0.0088707099149721389 94:1 96:1 292:1 343:1 347:1 350:1 435:2 645:1 730:1 747:1 748:1 926:1 969:1 1015:1 1214:1 1342:1 1425:1 1439:1 1537:1 1710:1 1926:1 1938:1 1950:1 1966:1 2029:1 2074:1 2093:2 2143:4 2157:1 2209:1 2353:2 2357:1 2393:1 2458:1 2487:1 2553:1 2579:1 2696:1 2829:3 2931:1 2933:1 3021:1 3312:1 3320:1 3371:1 3465:1 3496:1 3545:1 3562:1 3607:1 3673:1 3715:1 3907:1 4009:1 4037:1 4095:1 4110:1 4196:2 4200:1 4268:1 4297:1 4324:1 4338:1 4347:1 4492:1 4523:2 #
0.0075902379194173891 70:1 220:1 373:2 403:1 474:1 517:1 519:1 545:1 577:1 699:1 857:1 920:1 970:1 991:1 1055:1 1132:1 1299:1 1314:1 1415:1 1534:1 1537:1 1574:1 1597:1 1608:1 1768:1 1835:1 1966:1 2048:1 2056:1 2115:1 2143:2 2201:1 2264:1 2274:1 2367:1 2380:1 2454:1 2487:1 2505:1 2819:1 2881:1 2923:1 3009:1 3122:1 3142:1 3295:1 3318:1 3364:1 3429:1 3501:2 3513:1 3545:1 3572:1 3584:1 3607:1 3648:1 3766:1 3822:1 3842:1 3871:1 3888:1 3966:1 4009:1 4020:1 4137:3 4148:1 4170:1 4182:1 4200:1 4264:1 4292:1 4314:3 4338:1 4351:1 4406:1 4492:1 4523:3 4535:1 4544:1 4548:1 4634:1 4697:1 #
0.0088707099149721389 524:1 567:1 577:1 908:1 998:1 1299:1 1356:1 1415:1 1537:1 1556:1 1582:1 1608:1 1747:1 1768:1 1853:1 1938:1 1966:1 2088:1 2487:1 2515:1 2657:1 2794:1 2964:1 3160:1 3161:1 3271:1 3545:1 3673:1 3725:1 4463:1 4492:1 4523:3 4667:1 #
0.0088707099149721389 155:2 262:1 458:2 560:1 645:1 849:2 971:1 1005:1 1167:1 1342:1 1717:1 1768:1 1881:1 1938:1 1966:1 2199:0 2483:1 2657:1 2829:1 2947:1 2987:1 3021:1 3510:1 3513:1 3521:1 3545:1 3769:1 3966:1 4023:1 4061:1 4095:1 4271:1 4443:0 4505:1 4523:2 #
-0.0088707099149721389 510:1 1033:2 1174:1 1292:1 2100:1 2143:1 2150:1 2230:1 2462:1 2483:1 2487:1 2546:1 2819:1 2947:1 2952:1 3165:1 3398:1 3545:1 3816:1 3958:1 4149:1 4400:1 4492:2 4523:1 4635:1 #
-0.0088707099149721389 429:1 455:1 502:2 567:1 598:1 662:1 692:1 748:1 780:1 1004:1 1280:1 1356:0 1537:1 1653:1 1866:1 1993:1 2028:1 2057:1 2208:1 2210:2 2396:1 2399:1 2577:1 2657:1 2698:1 2869:1 2947:1 3071:1 3089:1 3350:1 3371:1 3496:1 3685:1 3949:1 4200:1 4231:1 4307:1 4409:1 4523:2 4528:1 4635:1 4674:1 #
-0.0088707099149721389 417:1 853:1 1082:1 1132:3 1435:1 1489:1 1537:1 1552:1 1926:1 1959:1 1966:1 2143:1 2829:1 2952:1 3341:1 3371:1 3478:1 3610:1 3750:1 3777:1 3961:1 4009:1 4196:1 4354:1 4572:1 4675:1 #
0.0039584480811923495 57:1 96:1 261:1 349:1 455:1 458:1 474:1 502:1 633:1 650:2 772:2 823:1 954:2 986:2 1018:1 1052:1 1121:1 1183:1 1294:1 1312:1 1356:0 1456:1 1710:1 1768:1 1938:1 1955:1 1966:2 2088:1 2143:3 2201:1 2209:2 2369:1 2403:2 2505:1 2542:1 2617:1 2661:1 3150:1 3207:1 3320:1 3342:2 3356:1 3429:1 3530:1 3545:5 3640:1 3665:1 3738:1 3781:1 3809:1 3888:1 3906:1 3966:3 4098:1 4196:1 4200:1 4231:1 4314:1 4330:1 4465:1 4492:1 4505:1 4523:2 4535:1 4630:1 4657:1 #
0.0088707099149721389 439:1 650:1 692:1 759:1 781:1 820:1 874:1 1312:1 1564:1 1607:1 2074:1 2115:2 2143:2 2353:1 2432:1 2458:2 2479:1 2564:1 2819:1 3966:1 4196:3 4264:2 4523:5 4564:1 4572:1 4659:2 #
-0.0025893557038633866 94:1 191:1 227:1 318:2 455:2 633:1 650:1 798:2 954:1 1015:3 1020:1 1021:1 1046:1 1245:1 1336:1 1357:1 1380:2 1386:1 1435:2 1445:1 1461:1 1468:1 1537:1 1677:1 1835:1 2011:1 2057:1 2063:1 2074:1 2143:5 2157:1 2161:2 2174:1 2193:1 2325:4 2353:1 2458:1 2464:1 2479:1 2638:2 2819:1 2829:1 2847:1 2878:1 2987:1 2998:1 3021:2 3047:1 3086:1 3150:1 3236:1 3342:2 3496:1 3520:1 3545:5 3636:1 3685:1 3738:1 3816:2 3897:1 3945:1 3957:1 3966:4 4173:1 4196:1 4231:1 4244:1 4330:1 4340:1 4492:1 4523:5 4572:2 4641:1 #
-0.0088707099149721389 429:2 492:1 650:1 917:1 954:1 998:1 1356:2 1541:1 1619:1 1635:3 1733:1 1886:1 1966:2 2074:1 2088:2 2143:4 2201:1 2283:1 2384:1 2432:1 2458:1 2479:1 2487:1 2513:1 2614:1 2819:1 2881:1 2923:1 2990:1 3179:1 3193:1 3307:1 3356:2 3545:3 3673:2 3777:1 3778:1 3823:1 3966:1 3990:1 4032:1 4111:1 4196:4 4200:1 4328:1 4475:1 4523:3 4563:1 4673:1 #
-0.0088707099149721389 463:1 544:1 648:1 650:1 711:2 748:1 821:1 926:2 954:1 1109:2 1149:1 1346:1 1457:1 1510:1 1564:1 1640:1 1667:1 1938:2 2143:1 2458:1 2487:1 2550:1 2572:1 2675:1 2796:1 3022:1 3521:1 3545:1 3705:2 3711:1 3945:1 3966:2 4176:1 4196:1 4260:1 4271:1 4378:1 4492:1 4523:2 4535:1 #
-0.0088707099149721389 221:1 363:1 648:2 662:2 799:1 874:1 1696:1 1750:1 2143:1 2269:1 2430:1 2449:1 2700:1 2812:1 2819:1 3071:1 3284:1 3496:1 3545:1 3820:1 3966:1 4090:1 4196:0 4473:1 4523:3 4659:1 #
-0.0022760292839578348 336:2 418:1 455:1 476:1 498:1 542:1 543:3 577:1 662:1 692:2 729:1 733:1 849:10 938:1 949:1 954:1 985:1 986:1 987:1 1065:1 1123:1 1143:2 1184:1 1221:1 1249:1 1271:1 1329:1 1349:1 1375:1 1435:3 1438:6 1439:1 1477:1 1517:1 1561:2 1564:2 1570:1 1702:1 1824:3 1994:1 2007:3 2057:2 2084:2 2093:1 2143:6 2201:1 2273:1 2332:1 2390:1 2401:1 2408:1 2432:1 2490:2 2505:1 2786:1 2880:1 2952:1 2987:1 3102:1 3119:1 3122:1 3159:1 3208:2 3222:1 3316:1 3475:1 3513:1 3570:1 3644:1 3647:1 3753:2 3812:1 3854:4 3888:1 3905:1 3945:1 3961:2 3966:1 3996:2 4009:1 4060:1 4196:1 4271:1 4409:1 4458:1 4501:1 4512:1 4514:1 4523:1 4528:1 4535:1 4564:1 4629:2 4671:1 4700:2 #
0.0085891994341762614 128:1 155:1 476:1 550:1 692:1 729:1 842:1 877:1 888:1 1024:2 1033:1 1095:1 1174:1 1271:1 1356:1 1375:1 1430:1 1666:1 1874:1 1881:1 1966:1 2053:1 2074:1 2083:1 2143:2 2150:1 2201:1 2340:1 2403:1 2487:1 2505:1 2523:1 2566:1 2680:1 2746:1 2903:1 2947:2 3005:1 3047:1 3209:1 3218:1 3371:1 3463:1 3478:2 3545:2 3637:1 4254:1 4338:1 4381:1 4440:1 4463:1 4505:1 4523:3 4535:1 4659:1 #
0.0085282760222387 429:1 439:1 699:1 748:1 803:1 938:1 954:2 1095:2 1148:1 1206:1 1375:1 1456:1 1504:1 1610:1 1896:1 1966:2 2025:1 2143:3 2157:1 2361:1 2403:1 2458:1 2479:1 2483:1 2515:2 2523:1 2625:1 2864:1 2868:1 3142:1 3356:1 3478:2 3545:3 3555:1 3613:1 3685:1 3725:1 3816:1 3851:1 3866:1 3966:1 4128:1 4183:1 4196:1 4231:2 4292:1 4528:1 4563:1 #
-0.0088707099149721389 95:1 351:1 633:1 781:1 842:1 851:1 877:1 891:1 907:1 908:1 912:1 1119:2 1213:1 1322:1 1430:1 1584:1 1620:1 1635:1 1847:1 1859:1 1966:1 2001:1 2143:1 2191:1 2287:2 2302:1 2483:1 2513:1 2687:1 2698:1 2890:2 2931:1 3071:1 3529:1 3545:4 3564:1 3673:1 3816:2 4037:1 4340:1 4463:1 4523:2 4544:1 4647:2 4659:1 4665:1 #
-0.0088707099149721389 191:1 350:1 390:1 517:3 672:1 748:1 938:1 954:2 1077:1 1249:1 1356:1 1361:1 1655:1 1834:2 1966:1 2074:1 2143:4 2150:1 2483:1 2572:2 2698:1 2706:1 2829:1 2879:1 2880:1 3371:1 3463:2 3564:1 3769:2 3776:1 3966:1 3994:1 4117:1 4196:3 4231:1 4247:2 4292:1 4302:1 4307:1 4344:1 4523:3 4572:1 4676:1 #
-0.0088707099149721389 373:1 421:1 430:1 434:1 463:1 517:1 623:1 678:1 748:1 781:1 791:1 938:1 952:2 1005:1 1264:1 1342:1 1541:1 1580:1 1714:1 1815:1 1879:1 1903:1 1922:1 1933:1 2143:4 2249:1 2287:2 2454:1 2458:4 2487:1 2540:1 2800:1 3089:1 3142:1 3353:1 3501:1 3545:1 3599:1 3605:1 3816:1 3867:1 3966:1 3978:1 4196:2 4231:1 4306:1 4314:1 4346:1 4449:1 4492:2 4505:1 4523:2 4535:1 4607:1 4667:2 4727:1 #
-0.0080629037451116353 36:1 102:2 128:1 187:1 216:1 385:1 418:1 524:1 557:1 633:1 650:1 781:1 803:1 860:1 877:4 938:3 964:1 1167:1 1213:3 1271:1 1362:1 1369:1 1394:1 1515:1 1556:1 1608:1 1857:1 1966:2 2115:1 2143:2 2150:1 2154:1 2157:2 2172:1 2193:1 2200:1 2222:1 2403:1 2430:1 2454:1 2464:1 2487:1 2505:1 2558:1 2577:2 2716:1 2844:1 2913:1 2956:1 3021:1 3084:1 3142:2 3241:1 3248:1 3357:1 3390:1 3433:1 3478:2 3496:2 3545:1 3668:1 3685:1 3816:1 3854:3 3966:1 4118:1 4164:1 4196:1 4254:1 4270:1 4307:1 4326:1 4463:1 4475:1 4492:1 4523:5 4544:3 4634:1 4659:1 #
-0.0088707099149721389 420:1 611:1 818:1 1037:2 1122:1 1249:1 1271:1 1559:1 1626:1 1635:1 1966:1 2143:2 2444:1 2458:1 2487:1 2505:1 2819:1 2940:1 3738:2 3877:1 4160:1 4196:1 4247:1 #
0.0088707099149721389 320:2 420:1 459:1 519:1 611:1 648:1 823:1 842:1 998:1 1055:1 1158:1 1185:1 1271:1 1298:1 1312:1 1474:1 1556:1 1686:1 1835:1 1852:1 1920:1 1933:1 2033:1 2143:1 2353:1 2458:1 2487:1 2679:1 3047:1 3513:0 3521:1 3535:1 3545:1 3689:1 3945:1 3966:1 4009:1 4268:1 4272:1 4307:1 4383:1 4523:5 4622:1 #
0.0088707099149721389 349:1 488:1 567:1 624:1 633:1 699:1 729:1 930:1 1007:1 1055:1 1082:1 1280:1 1543:1 1661:2 1714:1 1727:1 1754:1 1938:1 1994:1 2003:0 2143:1 2223:1 2340:1 2353:1 2390:1 2487:1 2544:0 2547:1 2657:1 2819:2 2867:1 2940:1 3100:1 3229:1 3264:1 3408:1 3513:1 3545:1 3586:1 3624:2 3781:1 3998:1 4174:1 4196:1 4340:1 4350:1 4523:2 4696:1 #
0.0088707099149721389 672:1 692:2 699:1 954:1 986:1 1382:1 1402:1 2143:1 2325:1 3163:1 3342:1 3607:1 3907:1 3945:1 3966:2 4196:1 4231:1 4292:1 4443:1 4512:1 4523:2 4586:1 4676:1 4698:1 #
0.0088707099149721389 645:1 748:1 998:1 1067:1 1109:1 1564:1 1835:1 1983:1 2074:1 2106:1 2143:1 2627:1 3277:1 3342:1 3357:1 3589:1 3673:1 3966:1 4207:1 4523:4 #
0.0088707099149721389 313:1 433:1 756:1 759:1 796:1 998:1 1121:1 1607:1 1754:1 1768:1 1822:2 1835:1 1936:1 2074:1 2192:1 2304:1 2458:1 2502:1 2814:1 2947:1 3437:1 3545:2 3624:1 3888:1 3966:2 4078:1 4338:1 4492:1 4523:5 4528:1 4564:1 4647:1 #
-0.0038326342188408032 320:1 349:2 464:1 529:1 533:1 590:1 692:1 694:1 856:2 896:1 914:1 1124:1 1129:1 1144:2 1161:1 1377:1 1384:1 1543:3 1601:1 1603:1 1615:1 1640:3 1732:1 1782:2 1790:1 1826:1 1926:1 1933:2 1938:1 1966:2 1994:1 2004:1 2028:3 2120:1 2212:1 2230:2 2336:1 2345:1 2353:1 2384:1 2452:1 2563:1 2655:3 2736:0 2796:1 2798:1 2816:2 2829:1 2835:1 2877:1 2908:1 3116:2 3147:1 3241:0 3259:1 3272:1 3312:1 3346:1 3350:1 3364:1 3473:2 3496:1 3501:1 3513:1 3615:1 3640:1 3673:1 3755:1 3766:1 3854:2 3945:1 4024:1 4144:1 4199:2 4200:2 4208:2 4216:1 4231:1 4243:1 4254:1 4264:1 4392:1 4492:2 4523:7 4529:1 4583:4 4584:1 4674:1 #
-0.0088707099149721389 144:1 241:1 296:1 327:2 524:1 650:1 781:1 820:1 930:1 1054:1 1176:1 1177:1 1188:1 1267:1 1352:1 1356:1 1474:1 1534:1 1537:1 1684:1 1740:1 1768:2 1822:2 1835:1 1903:1 1956:1 2002:1 2057:1 2091:1 2100:1 2150:1 2287:1 2479:1 2483:2 2487:1 2505:1 2530:1 2664:1 2735:1 2819:2 2829:1 2925:1 3047:1 3051:1 3179:2 3193:1 3350:1 3361:1 3513:1 3545:2 3705:1 3816:1 3824:1 3945:1 3966:1 4001:1 4021:1 4236:1 4263:1 4307:2 4463:1 4489:1 4505:3 4523:2 4564:2 #
-0.0088707099149721389 486:1 694:3 860:1 954:1 995:1 1121:1 1124:1 1347:1 1541:3 1576:1 1608:3 1610:1 1639:1 1650:1 1734:1 1796:1 1933:1 2143:2 2241:1 2283:0 2353:1 2555:1 2621:1 2657:1 2929:2 3107:1 3189:1 3208:1 3228:3 3342:1 3511:1 3545:2 3673:2 3764:1 3816:1 3861:1 4196:1 4231:1 4463:1 4505:1 4510:1 4523:6 4583:1 4635:1 4676:1 #
-0.0088707099149721389 439:1 633:3 694:1 930:1 1261:1 1356:2 1679:1 1768:1 1966:1 1982:1 2114:1 2186:1 2257:1 2318:2 2487:1 2564:1 2583:1 2687:1 3252:2 3496:1 3545:2 3566:1 3945:1 4090:1 4134:1 4215:1 4270:1 4492:1 4523:3 4622:1 #
0.00064636921285404672 88:1 191:1 219:1 242:1 414:1 429:1 433:1 456:1 519:1 539:1 616:1 692:3 796:1 852:1 920:1 954:1 983:1 986:1 1082:1 1124:1 1177:1 1339:1 1384:1 1428:1 1564:1 1589:1 1629:1 1713:1 1800:1 1835:1 1852:1 1966:4 1994:1 2004:1 2143:5 2150:1 2314:1 2353:2 2366:4 2367:1 2407:1 2472:1 2487:2 2498:1 2513:1 2616:1 2728:1 2787:1 3002:1 3142:1 3285:2 3356:1 3389:1 3418:2 3478:1 3487:1 3545:2 3657:1 3673:1 3776:1 3816:1 3848:1 3896:1 3957:1 4078:1 4182:1 4196:3 4396:1 4463:1 4475:1 4642:2 4650:1 #
0.0088707099149721389 155:1 242:1 502:1 612:1 631:1 633:2 692:0 748:1 772:1 809:1 954:1 1052:1 1055:1 1852:1 1933:1 1936:1 1966:2 2143:2 2209:1 2353:1 2403:1 2458:2 2479:1 2480:1 2505:1 2523:1 2747:1 2783:1 2829:2 2880:2 2948:1 3021:2 3128:1 3318:1 3356:1 3428:1 3545:2 3596:1 3607:1 3769:1 3788:1 3945:1 3966:1 4196:2 4199:1 4200:1 4254:1 4272:0 4505:2 4523:1 4528:1 4641:1 4659:1 4673:1 #
-0.0088707099149721389 6:1 94:1 215:1 423:1 517:1 699:2 710:1 874:1 954:1 986:3 1005:1 1342:1 1476:1 1621:1 1835:1 1933:1 1940:1 2067:1 2143:3 2157:1 2161:1 2264:1 2313:1 2353:1 2384:1 2464:1 2500:1 2555:1 2829:1 2954:1 2979:1 3047:2 3071:1 3228:1 3313:1 3355:1 3356:1 3607:1 3966:1 4009:1 4196:3 4382:1 4392:1 4421:1 4523:2 4528:1 4667:1 #
-0.0088707099149721389 156:1 472:1 517:1 646:1 648:1 650:1 692:1 694:1 748:1 757:1 771:1 860:1 954:1 987:1 998:1 1015:1 1052:1 1101:1 1294:1 1342:1 1356:1 1433:1 1642:1 1653:1 1677:1 1745:1 1881:1 1927:1 1933:1 1992:1 2074:2 2143:2 2150:1 2161:1 2411:1 2458:1 2577:1 2698:1 2706:1 2726:2 2728:1 2880:1 3107:1 3247:1 3254:1 3285:1 3342:1 3432:1 3457:2 3545:2 3673:2 3907:1 3945:2 3966:1 4055:1 4090:1 4182:1 4196:1 4231:1 4247:1 4307:1 4338:1 4367:1 4523:4 4560:1 4671:1 4675:1 4679:1 #
